{"learner":{"attributes":{"scikit_learn":"{\"n_estimators\": 100, \"objective\": \"reg:squarederror\", \"max_depth\": null, \"learning_rate\": null, \"verbosity\": null, \"booster\": null, \"tree_method\": null, \"gamma\": null, \"min_child_weight\": null, \"max_delta_step\": null, \"subsample\": null, \"colsample_bytree\": null, \"colsample_bylevel\": null, \"colsample_bynode\": null, \"reg_alpha\": null, \"reg_lambda\": null, \"scale_pos_weight\": null, \"base_score\": null, \"missing\": NaN, \"num_parallel_tree\": null, \"kwargs\": {}, \"random_state\": null, \"n_jobs\": null, \"monotone_constraints\": null, \"interaction_constraints\": null, \"importance_type\": \"gain\", \"gpu_id\": null, \"validate_parameters\": null, \"type\": \"XGBRegressor\"}"},"gradient_booster":{"model":{"gbtree_model_param":{"num_trees":"100","size_leaf_vector":"0"},"tree_info":[0,0,0,0,0,0,0,0,0,0,0,0,0,0,0,0,0,0,0,0,0,0,0,0,0,0,0,0,0,0,0,0,0,0,0,0,0,0,0,0,0,0,0,0,0,0,0,0,0,0,0,0,0,0,0,0,0,0,0,0,0,0,0,0,0,0,0,0,0,0,0,0,0,0,0,0,0,0,0,0,0,0,0,0,0,0,0,0,0,0,0,0,0,0,0,0,0,0,0,0],"trees":[{"base_weights":[3.50427174568176270e+00,2.56109833717346191e+00,4.66970825195312500e+00,2.14390468597412109e+00,3.15884065628051758e+00,3.13263154029846191e+00,4.87588214874267578e+00,1.82518517971038818e+00,2.43365383148193359e+00,2.10750007629394531e+00,1.54774188995361328e+00],"default_left":[true,true,true,true,false,false,false,true,false,false,false],"id":0,"leaf_child_counts":[0,0,0,0,0,0,0,0,0,0,0],"left_children":[1,3,5,7,-1,-1,-1,9,-1,-1,-1],"loss_changes":[3.27695800781250000e+02,3.63695068359375000e+01,2.81418457031250000e+01,5.25473022460937500e+00,0.00000000000000000e+00,0.00000000000000000e+00,0.00000000000000000e+00,9.67758178710937500e-01,0.00000000000000000e+00,0.00000000000000000e+00,0.00000000000000000e+00],"parents":[2147483647,0,0,1,1,2,2,3,3,7,7],"right_children":[2,4,6,8,-1,-1,-1,10,-1,-1,-1],"split_conditions":[2.01450000000000000e+03,2.01250000000000000e+03,7.00000000000000000e+00,2.01050000000000000e+03,9.47652220726013184e-01,9.39789474010467529e-01,1.46276473999023438e+00,5.50000000000000000e+00,7.30096161365509033e-01,6.32250070571899414e-01,4.64322596788406372e-01],"split_indices":[1,1,10,1,0,0,0,0,0,0,0],"sum_hessian":[3.08000000000000000e+02,1.72000000000000000e+02,1.36000000000000000e+02,1.04000000000000000e+02,6.80000000000000000e+01,1.80000000000000000e+01,1.18000000000000000e+02,5.30000000000000000e+01,5.10000000000000000e+01,2.30000000000000000e+01,3.00000000000000000e+01],"tree_param":{"num_deleted":"0","num_feature":"12","num_nodes":"11","size_leaf_vector":"0"}},{"base_weights":[2.46974396705627441e+00,1.61717975139617920e+00,3.12192201614379883e+00,1.29793643951416016e+00,1.80539619922637939e+00,2.56264138221740723e+00,3.53946781158447266e+00,9.38830614089965820e-01,1.43755722045898438e+00,2.20834207534790039e+00,1.64242374897003174e+00,3.05712747573852539e+00,2.25660753250122070e+00,4.10216760635375977e+00,3.19933629035949707e+00,1.66279911994934082e+00,1.07475519180297852e+00,3.11173868179321289e+00,8.18617582321166992e-01,2.36425900459289551e+00,1.36899185180664063e+00],"default_left":[true,true,true,true,true,true,true,false,true,false,false,true,true,false,false,false,false,false,false,false,false],"id":1,"leaf_child_counts":[0,0,0,0,0,0,0,0,0,0,0,0,0,0,0,0,0,0,0,0,0],"left_children":[1,3,5,7,9,11,13,-1,15,-1,-1,17,19,-1,-1,-1,-1,-1,-1,-1,-1],"loss_changes":[1.66762573242187500e+02,5.82852172851562500e+00,3.15629882812500000e+01,1.35786437988281250e+00,1.82348632812500000e+00,4.90496826171875000e+00,5.44079589843750000e+00,0.00000000000000000e+00,1.23646545410156250e+00,0.00000000000000000e+00,0.00000000000000000e+00,7.53372192382812500e-01,1.73211669921875000e+00,0.00000000000000000e+00,0.00000000000000000e+00,0.00000000000000000e+00,0.00000000000000000e+00,0.00000000000000000e+00,0.00000000000000000e+00,0.00000000000000000e+00,0.00000000000000000e+00],"parents":[2147483647,0,0,1,1,2,2,3,3,4,4,5,5,6,6,8,8,11,11,12,12],"right_children":[2,4,6,8,10,12,14,-1,16,-1,-1,18,20,-1,-1,-1,-1,-1,-1,-1,-1],"split_conditions":[2.01350000000000000e+03,2.01050000000000000e+03,2.01550000000000000e+03,1.14150000000000000e+03,3.50000000000000000e+00,3.50000000000000000e+00,3.50000000000000000e+00,2.81649202108383179e-01,7.50000000000000000e+00,6.62502646446228027e-01,4.92727130651473999e-01,2.50000000000000000e+00,1.50000000000000000e+00,1.23065030574798584e+00,9.59800899028778076e-01,4.98839765787124634e-01,3.22426557540893555e-01,9.33521628379821777e-01,2.45585277676582336e-01,7.09277749061584473e-01,4.10697579383850098e-01],"split_indices":[1,1,1,7,0,0,0,0,0,0,0,5,5,0,0,0,0,0,0,0,0],"sum_hessian":[3.08000000000000000e+02,1.35000000000000000e+02,1.73000000000000000e+02,5.30000000000000000e+01,8.20000000000000000e+01,7.70000000000000000e+01,9.60000000000000000e+01,1.70000000000000000e+01,3.60000000000000000e+01,2.00000000000000000e+01,6.20000000000000000e+01,2.60000000000000000e+01,5.10000000000000000e+01,3.20000000000000000e+01,6.40000000000000000e+01,2.00000000000000000e+01,1.60000000000000000e+01,2.50000000000000000e+01,1.00000000000000000e+00,4.40000000000000000e+01,7.00000000000000000e+00],"tree_param":{"num_deleted":"0","num_feature":"12","num_nodes":"21","size_leaf_vector":"0"}},{"base_weights":[1.75065779685974121e+00,1.21128535270690918e+00,2.29268932342529297e+00,1.35854053497314453e+00,9.05251562595367432e-01,1.97328710556030273e+00,2.78182625770568848e+00,1.71034193038940430e+00,1.12114667892456055e+00,6.81082606315612793e-01,1.01708388328552246e+00,2.13150167465209961e+00,1.51292657852172852e+00,2.92753481864929199e+00,1.97931480407714844e+00,1.20908093452453613e+00,8.01739335060119629e-01,5.50658643245697021e-01,9.15366172790527344e-01,4.86911624670028687e-01,1.07154309749603271e+00,1.08895027637481689e+00,1.76284945011138916e+00,5.77027916908264160e-01,1.25244057178497314e+00,8.75668644905090332e-01,4.49175298213958740e-01,6.44603848457336426e-01,1.13114678859710693e+00,1.14289200305938721e+00,2.20825076103210449e-01,4.81625437736511230e-01,1.81615602970123291e+00,2.38588392734527588e-01,9.08876299858093262e-01,1.72014117240905762e-01,7.04718947410583496e-01],"default_left":[true,true,true,true,true,true,true,false,true,true,true,false,true,false,false,true,true,false,false,false,true,true,true,false,false,true,false,true,false,false,false,false,false,false,false,false,false],"id":2,"leaf_child_counts":[0,0,0,0,0,0,0,0,0,0,0,0,0,0,0,0,0,0,0,0,0,0,0,0,0,0,0,0,0,0,0,0,0,0,0,0,0],"left_children":[1,3,5,7,9,11,13,-1,15,17,19,-1,21,-1,-1,23,25,-1,-1,-1,27,29,31,-1,-1,33,-1,35,-1,-1,-1,-1,-1,-1,-1,-1,-1],"loss_changes":[8.75612182617187500e+01,5.84538269042968750e+00,1.84140625000000000e+01,6.76806640625000000e+00,6.61022186279296875e-01,3.76742553710937500e+00,9.87579345703125000e-01,0.00000000000000000e+00,8.56277465820312500e-01,1.37625694274902344e-01,4.59926605224609375e-01,0.00000000000000000e+00,1.04726409912109375e+00,0.00000000000000000e+00,0.00000000000000000e+00,6.20178222656250000e-01,4.97722625732421875e-02,0.00000000000000000e+00,0.00000000000000000e+00,0.00000000000000000e+00,3.42750549316406250e-02,3.56386184692382813e-01,2.18051910400390625e-01,0.00000000000000000e+00,0.00000000000000000e+00,5.81798553466796875e-02,0.00000000000000000e+00,4.92370128631591797e-02,0.00000000000000000e+00,0.00000000000000000e+00,0.00000000000000000e+00,0.00000000000000000e+00,0.00000000000000000e+00,0.00000000000000000e+00,0.00000000000000000e+00,0.00000000000000000e+00,0.00000000000000000e+00],"parents":[2147483647,0,0,1,1,2,2,3,3,4,4,5,5,6,6,8,8,9,9,10,10,12,12,15,15,16,16,20,20,21,21,22,22,25,25,27,27],"right_children":[2,4,6,8,10,12,14,-1,16,18,20,-1,22,-1,-1,24,26,-1,-1,-1,28,30,32,-1,-1,34,-1,36,-1,-1,-1,-1,-1,-1,-1,-1,-1],"split_conditions":[7.00000000000000000e+00,7.50000000000000000e+00,2.01650000000000000e+03,5.06690000000000000e+04,8.50000000000000000e+00,7.50000000000000000e+00,7.50000000000000000e+00,5.13102591037750244e-01,1.50000000000000000e+00,2.01400000000000000e+03,2.00850000000000000e+03,6.39450550079345703e-01,8.50000000000000000e+00,8.78260493278503418e-01,5.93794465065002441e-01,2.00850000000000000e+03,7.60245000000000000e+04,1.65197595953941345e-01,2.74609863758087158e-01,1.46073490381240845e-01,1.14150000000000000e+03,4.36840000000000000e+04,2.01150000000000000e+03,1.73108384013175964e-01,3.75732183456420898e-01,5.15000000000000000e+04,1.34752601385116577e-01,2.01050000000000000e+03,3.39344054460525513e-01,3.42867612838745117e-01,6.62475228309631348e-02,1.44487634301185608e-01,5.44846832752227783e-01,7.15765208005905151e-02,2.72662907838821411e-01,5.16042374074459076e-02,2.11415693163871765e-01],"split_indices":[10,0,1,2,0,0,0,0,5,1,1,0,0,0,0,1,2,0,0,0,7,2,1,0,0,2,0,1,0,0,0,0,0,0,0,0,0],"sum_hessian":[3.08000000000000000e+02,1.56000000000000000e+02,1.52000000000000000e+02,1.03000000000000000e+02,5.30000000000000000e+01,9.50000000000000000e+01,5.70000000000000000e+01,3.90000000000000000e+01,6.40000000000000000e+01,2.00000000000000000e+01,3.30000000000000000e+01,6.80000000000000000e+01,2.70000000000000000e+01,4.60000000000000000e+01,1.10000000000000000e+01,4.80000000000000000e+01,1.60000000000000000e+01,1.50000000000000000e+01,5.00000000000000000e+00,4.00000000000000000e+00,2.90000000000000000e+01,1.20000000000000000e+01,1.50000000000000000e+01,4.00000000000000000e+00,4.40000000000000000e+01,1.20000000000000000e+01,4.00000000000000000e+00,5.00000000000000000e+00,2.40000000000000000e+01,1.10000000000000000e+01,1.00000000000000000e+00,1.00000000000000000e+00,1.40000000000000000e+01,1.00000000000000000e+00,1.10000000000000000e+01,1.00000000000000000e+00,4.00000000000000000e+00],"tree_param":{"num_deleted":"0","num_feature":"12","num_nodes":"37","size_leaf_vector":"0"}},{"base_weights":[1.24468100070953369e+00,8.65283012390136719e-01,1.62586259841918945e+00,6.99503421783447266e-01,1.01610207557678223e+00,1.48074388504028320e+00,2.27776026725769043e+00,6.01995050907135010e-01,1.06890547275543213e+00,1.24808514118194580e+00,9.12377834320068359e-01,1.28402423858642578e+00,1.78185939788818359e+00,7.51923978328704834e-01,4.86606657505035400e-01,7.72155880928039551e-01,1.58034658432006836e+00,5.07189750671386719e-01,9.75167870521545410e-01,1.39294528961181641e+00,9.48790967464447021e-01,4.45890992879867554e-01,8.87712538242340088e-01,1.64182245731353760e+00,4.52056527137756348e-01,1.08642995357513428e+00,7.97319889068603516e-01,1.40399265289306641e+00,3.76099705696105957e-01,5.07222414016723633e-02,4.84162837266921997e-01,5.72175562381744385e-01,9.26494300365447998e-01,1.42235362529754639e+00,5.93256711959838867e-01],"default_left":[true,true,true,true,true,true,false,true,false,true,true,true,false,true,false,false,true,false,true,true,false,true,false,false,false,false,true,true,false,false,false,false,false,false,false],"id":3,"leaf_child_counts":[0,0,0,0,0,0,0,0,0,0,0,0,0,0,0,0,0,0,0,0,0,0,0,0,0,0,0,0,0,0,0,0,0,0,0],"left_children":[1,3,5,7,9,11,-1,13,-1,15,17,19,-1,21,-1,-1,23,-1,25,27,-1,29,-1,-1,-1,-1,31,33,-1,-1,-1,-1,-1,-1,-1],"loss_changes":[4.32805786132812500e+01,3.21466064453125000e+00,1.11014099121093750e+01,2.16606521606445313e+00,7.86254882812500000e-01,5.29415893554687500e+00,0.00000000000000000e+00,7.41313934326171875e-01,0.00000000000000000e+00,2.25865173339843750e+00,1.00646972656250000e+00,1.63601684570312500e+00,0.00000000000000000e+00,6.84627532958984375e-01,0.00000000000000000e+00,0.00000000000000000e+00,9.01527404785156250e-02,0.00000000000000000e+00,1.23153686523437500e-01,1.34735107421875000e-01,0.00000000000000000e+00,1.26680612564086914e-01,0.00000000000000000e+00,0.00000000000000000e+00,0.00000000000000000e+00,0.00000000000000000e+00,1.38789176940917969e-01,1.95617675781250000e-02,0.00000000000000000e+00,0.00000000000000000e+00,0.00000000000000000e+00,0.00000000000000000e+00,0.00000000000000000e+00,0.00000000000000000e+00,0.00000000000000000e+00],"parents":[2147483647,0,0,1,1,2,2,3,3,4,4,5,5,7,7,9,9,10,10,11,11,13,13,16,16,18,18,19,19,21,21,26,26,27,27],"right_children":[2,4,6,8,10,12,-1,14,-1,16,18,20,-1,22,-1,-1,24,-1,26,28,-1,30,-1,-1,-1,-1,32,34,-1,-1,-1,-1,-1,-1,-1],"split_conditions":[7.00000000000000000e+00,2.01150000000000000e+03,1.50000000000000000e+00,1.50000000000000000e+00,3.50000000000000000e+00,2.01650000000000000e+03,6.83328092098236084e-01,5.50000000000000000e+00,3.20671647787094116e-01,2.50000000000000000e+00,4.50000000000000000e+00,7.50000000000000000e+00,5.34557819366455078e-01,2.00849990844726563e+01,1.45981997251510620e-01,2.31646776199340820e-01,6.51365000000000000e+04,1.52156934142112732e-01,7.50000000000000000e+00,2.50000000000000000e+00,2.84637302160263062e-01,5.50000000000000000e+04,2.66313761472702026e-01,4.92546766996383667e-01,1.35616958141326904e-01,3.25928986072540283e-01,8.50000000000000000e+00,8.59140000000000000e+04,1.12829916179180145e-01,1.52166727930307388e-02,1.45248860120773315e-01,1.71652674674987793e-01,2.77948290109634399e-01,4.26706105470657349e-01,1.77977025508880615e-01],"split_indices":[10,1,4,4,0,1,0,0,0,0,0,0,0,6,0,0,2,0,0,5,0,2,0,0,0,0,0,2,0,0,0,0,0,0,0],"sum_hessian":[3.08000000000000000e+02,1.56000000000000000e+02,1.52000000000000000e+02,7.70000000000000000e+01,7.90000000000000000e+01,1.27000000000000000e+02,2.50000000000000000e+01,6.30000000000000000e+01,1.40000000000000000e+01,2.10000000000000000e+01,5.80000000000000000e+01,8.00000000000000000e+01,4.70000000000000000e+01,2.50000000000000000e+01,3.80000000000000000e+01,1.00000000000000000e+01,1.10000000000000000e+01,9.00000000000000000e+00,4.90000000000000000e+01,5.80000000000000000e+01,2.20000000000000000e+01,9.00000000000000000e+00,1.60000000000000000e+01,1.00000000000000000e+01,1.00000000000000000e+00,2.70000000000000000e+01,2.20000000000000000e+01,5.70000000000000000e+01,1.00000000000000000e+00,1.00000000000000000e+00,8.00000000000000000e+00,1.00000000000000000e+01,1.20000000000000000e+01,5.50000000000000000e+01,2.00000000000000000e+00],"tree_param":{"num_deleted":"0","num_feature":"12","num_nodes":"35","size_leaf_vector":"0"}},{"base_weights":[8.87137413024902344e-01,7.00844109058380127e-01,1.28706860542297363e+00,5.34886240959167480e-01,8.54282021522521973e-01,1.16674649715423584e+00,1.82327795028686523e+00,3.31967920064926147e-01,6.00871205329895020e-01,1.11106312274932861e+00,7.28165686130523682e-01,1.06032049655914307e+00,1.44365108013153076e+00,7.76267349720001221e-01,1.91740310192108154e+00,3.90082716941833496e-01,2.21974641084671021e-01,7.29249954223632813e-01,3.93537700176239014e-01,5.24358630180358887e-01,1.21805846691131592e+00,4.10974293947219849e-01,7.93160915374755859e-01,1.35207581520080566e+00,9.03606235980987549e-01,1.49675810337066650e+00,2.17308044433593750e-01,2.02876043319702148e+00,8.32839488983154297e-01,1.80218979716300964e-01,4.40793186426162720e-01,-7.19022750854492188e-02,2.55227297544479370e-01,8.08879792690277100e-01,5.56019723415374756e-01,2.56937772035598755e-01,4.52854931354522705e-01,6.38655841350555420e-01,1.28801488876342773e+00,6.86085522174835205e-01,1.08292484283447266e+00,4.07734006643295288e-01,9.56724882125854492e-01,2.08226501941680908e-01,3.40944528579711914e-02,8.48895311355590820e-02,4.63377714157104492e-01,2.96776026487350464e-01,1.08323007822036743e-01,1.25383928418159485e-01,6.02012693881988525e-01,1.47463604807853699e-01,4.77240115404129028e-01,1.31695401668548584e+00,3.11208724975585938e-01,5.96429705619812012e-01,1.05981063842773438e+00,1.12024939060211182e+00,2.80190587043762207e-01],"default_left":[true,true,true,true,true,true,true,true,true,true,true,true,true,false,true,true,true,true,true,false,true,false,true,false,true,false,false,false,false,true,true,false,true,false,true,false,true,false,true,true,true,false,false,false,false,false,false,false,false,false,false,false,false,false,false,false,false,false,false],"id":4,"leaf_child_counts":[0,0,0,0,0,0,0,0,0,0,0,0,0,0,0,0,0,0,0,0,0,0,0,0,0,0,0,0,0,0,0,0,0,0,0,0,0,0,0,0,0,0,0,0,0,0,0,0,0,0,0,0,0,0,0,0,0,0,0],"left_children":[1,3,5,7,9,11,13,15,17,19,21,23,25,-1,27,29,31,33,35,-1,37,-1,39,-1,41,-1,-1,-1,-1,43,45,-1,47,-1,49,-1,51,-1,53,55,57,-1,-1,-1,-1,-1,-1,-1,-1,-1,-1,-1,-1,-1,-1,-1,-1,-1,-1],"loss_changes":[2.21198577880859375e+01,4.96693420410156250e+00,4.13093566894531250e+00,1.20643424987792969e+00,2.72085571289062500e+00,8.85795593261718750e-01,8.83865356445312500e-02,9.23941135406494141e-02,1.78915596008300781e+00,1.49563980102539063e+00,1.24084091186523438e+00,1.65876007080078125e+00,9.77291107177734375e-01,0.00000000000000000e+00,1.20544433593750000e-03,1.01479530334472656e-01,1.35617673397064209e-01,1.98579788208007813e-01,1.42931938171386719e-01,0.00000000000000000e+00,3.12320709228515625e-01,0.00000000000000000e+00,1.18067169189453125e+00,0.00000000000000000e+00,7.68871307373046875e-01,0.00000000000000000e+00,0.00000000000000000e+00,0.00000000000000000e+00,0.00000000000000000e+00,1.33635699748992920e-02,6.51569366455078125e-02,0.00000000000000000e+00,3.49928736686706543e-02,0.00000000000000000e+00,2.81029224395751953e-01,0.00000000000000000e+00,8.60118865966796875e-02,0.00000000000000000e+00,2.68581390380859375e-01,9.76215362548828125e-01,1.35540008544921875e-01,0.00000000000000000e+00,0.00000000000000000e+00,0.00000000000000000e+00,0.00000000000000000e+00,0.00000000000000000e+00,0.00000000000000000e+00,0.00000000000000000e+00,0.00000000000000000e+00,0.00000000000000000e+00,0.00000000000000000e+00,0.00000000000000000e+00,0.00000000000000000e+00,0.00000000000000000e+00,0.00000000000000000e+00,0.00000000000000000e+00,0.00000000000000000e+00,0.00000000000000000e+00,0.00000000000000000e+00],"parents":[2147483647,0,0,1,1,2,2,3,3,4,4,5,5,6,6,7,7,8,8,9,9,10,10,11,11,12,12,14,14,15,15,16,16,17,17,18,18,20,20,22,22,24,24,29,29,30,30,32,32,34,34,36,36,38,38,39,39,40,40],"right_children":[2,4,6,8,10,12,14,16,18,20,22,24,26,-1,28,30,32,34,36,-1,38,-1,40,-1,42,-1,-1,-1,-1,44,46,-1,48,-1,50,-1,52,-1,54,56,58,-1,-1,-1,-1,-1,-1,-1,-1,-1,-1,-1,-1,-1,-1,-1,-1,-1,-1],"split_conditions":[2.01550000000000000e+03,2.01250000000000000e+03,1.50000000000000000e+00,1.14150000000000000e+03,3.50000000000000000e+00,2.01750000000000000e+03,2.50000000000000000e+00,6.13170000000000000e+04,7.50000000000000000e+00,5.00000000000000000e-01,4.50000000000000000e+00,3.50000000000000000e+00,4.91170000000000000e+04,2.32880219817161560e-01,8.00000000000000000e+00,2.00950000000000000e+03,6.38635000000000000e+04,6.12550000000000000e+04,8.50000000000000000e+00,1.57307595014572144e-01,1.15850000000000000e+03,1.23292289674282074e-01,1.50000000000000000e+00,4.05622750520706177e-01,4.50000000000000000e+00,4.49027448892593384e-01,6.51924163103103638e-02,6.08628153800964355e-01,2.49851852655410767e-01,1.50000000000000000e+00,2.13395000000000000e+04,-2.15706825256347656e-02,2.00900000000000000e+03,2.42663949728012085e-01,6.21410000000000000e+04,7.70813375711441040e-02,2.00850000000000000e+03,1.91596761345863342e-01,7.95265000000000000e+04,1.50000000000000000e+00,1.50000000000000000e+00,1.22320204973220825e-01,2.87017464637756348e-01,6.24679513275623322e-02,1.02283358573913574e-02,2.54668612033128738e-02,1.39013320207595825e-01,8.90328139066696167e-02,3.24969030916690826e-02,3.76151800155639648e-02,1.80603817105293274e-01,4.42390814423561096e-02,1.43172040581703186e-01,3.95086228847503662e-01,9.33626219630241394e-02,1.78928911685943604e-01,3.17943215370178223e-01,3.36074829101562500e-01,8.40571820735931396e-02],"split_indices":[1,1,4,7,0,1,0,2,0,0,0,0,2,0,0,1,2,2,0,0,7,0,3,0,0,0,0,0,0,5,2,0,1,0,2,0,1,0,2,4,5,0,0,0,0,0,0,0,0,0,0,0,0,0,0,0,0,0,0],"sum_hessian":[3.08000000000000000e+02,2.12000000000000000e+02,9.60000000000000000e+01,1.04000000000000000e+02,1.08000000000000000e+02,8.10000000000000000e+01,1.50000000000000000e+01,2.70000000000000000e+01,7.70000000000000000e+01,3.30000000000000000e+01,7.50000000000000000e+01,6.20000000000000000e+01,1.90000000000000000e+01,2.00000000000000000e+00,1.30000000000000000e+01,1.60000000000000000e+01,1.10000000000000000e+01,4.60000000000000000e+01,3.10000000000000000e+01,6.00000000000000000e+00,2.70000000000000000e+01,1.40000000000000000e+01,6.10000000000000000e+01,1.90000000000000000e+01,4.30000000000000000e+01,1.80000000000000000e+01,1.00000000000000000e+00,1.10000000000000000e+01,2.00000000000000000e+00,4.00000000000000000e+00,1.20000000000000000e+01,1.00000000000000000e+00,1.00000000000000000e+01,2.90000000000000000e+01,1.70000000000000000e+01,1.10000000000000000e+01,2.00000000000000000e+01,4.00000000000000000e+00,2.30000000000000000e+01,4.70000000000000000e+01,1.40000000000000000e+01,5.00000000000000000e+00,3.80000000000000000e+01,3.00000000000000000e+00,1.00000000000000000e+00,1.00000000000000000e+00,1.10000000000000000e+01,7.00000000000000000e+00,3.00000000000000000e+00,2.00000000000000000e+00,1.50000000000000000e+01,2.00000000000000000e+00,1.80000000000000000e+01,2.20000000000000000e+01,1.00000000000000000e+00,4.00000000000000000e+01,7.00000000000000000e+00,1.30000000000000000e+01,1.00000000000000000e+00],"tree_param":{"num_deleted":"0","num_feature":"12","num_nodes":"59","size_leaf_vector":"0"}},{"base_weights":[6.38344705104827881e-01,4.61078405380249023e-01,8.57532501220703125e-01,6.54027044773101807e-01,3.83914828300476074e-01,1.08292341232299805e+00,7.31698393821716309e-01,7.57673859596252441e-01,4.71037805080413818e-01,5.38187861442565918e-01,3.30098360776901245e-01,7.19943284988403320e-01,1.24704396724700928e+00,6.45354270935058594e-01,1.04601860046386719e+00,3.83813053369522095e-01,8.38515222072601318e-01,2.78574615716934204e-01,5.76132059097290039e-01,3.74767035245895386e-01,8.01246941089630127e-01,2.92155414819717407e-01,5.31467437744140625e-01,7.49672055244445801e-01,1.22141599655151367e-01,1.28200733661651611e+00,9.90717411041259766e-02,3.47129076719284058e-01,6.81306600570678711e-01,1.08581829071044922e+00,1.84711933135986328e-01,8.58921766281127930e-01,1.94785714149475098e-01,3.24416875839233398e-01,-4.40816879272460938e-02,3.36803972721099854e-01,6.53695583343505859e-01,4.63984936475753784e-01,2.04255968332290649e-01,1.23222835361957550e-01,3.16253125667572021e-01,2.37442776560783386e-01,6.68431937694549561e-01,4.25365060567855835e-01,8.22327315807342529e-01,1.30455434322357178e+00,3.14071655273437500e-01,4.92544174194335938e-02,3.74753564596176147e-01,1.08766222000122070e+00,6.13510847091674805e-01,3.45528334379196167e-01,8.83182287216186523e-02,6.93653643131256104e-01,1.86994552612304688e-01,1.48053333163261414e-01,5.07967650890350342e-01,2.47956156730651855e-01,8.76416862010955811e-02,-5.56190032511949539e-03,1.88310444355010986e-01,5.23858904838562012e-01,2.70228177309036255e-01,5.02158999443054199e-02,4.07930999994277954e-01,1.89464405179023743e-01,5.19477367401123047e-01,5.69979608058929443e-01,8.14333796501159668e-01],"default_left":[true,true,true,true,true,true,true,true,true,true,true,true,true,true,true,false,true,true,true,true,false,true,true,true,false,true,false,true,true,false,false,false,false,true,false,false,true,true,true,true,true,true,false,true,false,false,false,false,false,false,true,false,false,false,false,false,false,false,false,false,false,false,false,false,false,false,false,false,false],"id":5,"leaf_child_counts":[0,0,0,0,0,0,0,0,0,0,0,0,0,0,0,0,0,0,0,0,0,0,0,0,0,0,0,0,0,0,0,0,0,0,0,0,0,0,0,0,0,0,0,0,0,0,0,0,0,0,0,0,0,0,0,0,0,0,0,0,0,0,0,0,0,0,0,0,0],"left_children":[1,3,5,7,9,11,13,15,17,19,21,23,25,27,29,-1,31,33,35,37,-1,39,41,43,-1,45,-1,47,49,-1,-1,-1,-1,51,-1,-1,53,55,57,59,61,63,-1,65,-1,-1,-1,-1,-1,-1,67,-1,-1,-1,-1,-1,-1,-1,-1,-1,-1,-1,-1,-1,-1,-1,-1,-1,-1],"loss_changes":[1.16106719970703125e+01,2.32463836669921875e+00,3.09320831298828125e+00,5.53487777709960938e-01,8.68450164794921875e-01,1.90210723876953125e+00,1.79465866088867188e+00,5.54645538330078125e-01,2.44040012359619141e-01,1.03238868713378906e+00,5.78221321105957031e-01,2.10556983947753906e-01,1.11723709106445313e+00,5.56917190551757813e-01,4.16471481323242188e-01,0.00000000000000000e+00,1.34830474853515625e-01,1.47422432899475098e-01,2.59017944335937500e-03,2.24693775177001953e-01,0.00000000000000000e+00,2.98914432525634766e-01,4.05078887939453125e-01,2.72121429443359375e-02,0.00000000000000000e+00,2.44998931884765625e-01,0.00000000000000000e+00,6.38279914855957031e-02,1.12340545654296875e+00,0.00000000000000000e+00,0.00000000000000000e+00,0.00000000000000000e+00,0.00000000000000000e+00,9.35870409011840820e-03,0.00000000000000000e+00,0.00000000000000000e+00,1.94783210754394531e-02,1.05435609817504883e-01,2.41332948207855225e-02,1.01634845137596130e-01,5.46401500701904297e-01,1.71035230159759521e-01,0.00000000000000000e+00,1.25832557678222656e-02,0.00000000000000000e+00,0.00000000000000000e+00,0.00000000000000000e+00,0.00000000000000000e+00,0.00000000000000000e+00,0.00000000000000000e+00,4.28867340087890625e-02,0.00000000000000000e+00,0.00000000000000000e+00,0.00000000000000000e+00,0.00000000000000000e+00,0.00000000000000000e+00,0.00000000000000000e+00,0.00000000000000000e+00,0.00000000000000000e+00,0.00000000000000000e+00,0.00000000000000000e+00,0.00000000000000000e+00,0.00000000000000000e+00,0.00000000000000000e+00,0.00000000000000000e+00,0.00000000000000000e+00,0.00000000000000000e+00,0.00000000000000000e+00,0.00000000000000000e+00],"parents":[2147483647,0,0,1,1,2,2,3,3,4,4,5,5,6,6,7,7,8,8,9,9,10,10,11,11,12,12,13,13,14,14,16,16,17,17,18,18,19,19,21,21,22,22,23,23,25,25,27,27,28,28,33,33,36,36,37,37,38,38,39,39,40,40,41,41,43,43,50,50],"right_children":[2,4,6,8,10,12,14,16,18,20,22,24,26,28,30,-1,32,34,36,38,-1,40,42,44,-1,46,-1,48,50,-1,-1,-1,-1,52,-1,-1,54,56,58,60,62,64,-1,66,-1,-1,-1,-1,-1,-1,68,-1,-1,-1,-1,-1,-1,-1,-1,-1,-1,-1,-1,-1,-1,-1,-1,-1,-1],"split_conditions":[2.01450000000000000e+03,1.95050010681152344e+01,3.50000000000000000e+00,7.50000000000000000e+00,3.50000000000000000e+00,2.50000000000000000e+00,2.01750000000000000e+03,2.00950000000000000e+03,8.50000000000000000e+00,2.50000000000000000e+00,1.50000000000000000e+00,5.29330000000000000e+04,1.50000000000000000e+00,4.50000000000000000e+00,4.83635000000000000e+04,1.15143917500972748e-01,2.00000000000000000e+00,4.26500000000000000e+04,2.01050000000000000e+03,1.50000000000000000e+00,2.40374088287353516e-01,4.50000000000000000e+00,4.50000000000000000e+00,5.00000000000000000e-01,3.66424806416034698e-02,7.17840000000000000e+04,2.97215227037668228e-02,1.15300000000000000e+03,5.50000000000000000e+00,3.25745493173599243e-01,5.54135814309120178e-02,2.57676541805267334e-01,5.84357157349586487e-02,3.90000000000000000e+04,-1.32245067507028580e-02,1.01041197776794434e-01,1.90499992370605469e+01,2.00900000000000000e+03,7.35000000000000000e+04,2.01150000000000000e+03,5.50000000000000000e+00,6.06050000000000000e+04,2.00529590249061584e-01,2.53900000000000000e+04,2.46698200702667236e-01,3.91366332769393921e-01,9.42215025424957275e-02,1.47763257846236229e-02,1.12426072359085083e-01,3.26298683881759644e-01,5.53690000000000000e+04,1.03658504784107208e-01,2.64954697340726852e-02,2.08096101880073547e-01,5.60983680188655853e-02,4.44160029292106628e-02,1.52390301227569580e-01,7.43868499994277954e-02,2.62925066053867340e-02,-1.66857021395117044e-03,5.64931370317935944e-02,1.57157674431800842e-01,8.10684561729431152e-02,1.50647703558206558e-02,1.22379302978515625e-01,5.68393245339393616e-02,1.55843213200569153e-01,1.70993894338607788e-01,2.44300141930580139e-01],"split_indices":[1,6,0,0,0,0,1,1,0,0,3,2,3,0,2,0,3,2,1,0,0,0,0,0,0,2,0,7,0,0,0,0,0,2,0,0,6,1,2,1,0,2,0,2,0,0,0,0,0,0,2,0,0,0,0,0,0,0,0,0,0,0,0,0,0,0,0,0,0],"sum_hessian":[3.08000000000000000e+02,1.72000000000000000e+02,1.36000000000000000e+02,4.70000000000000000e+01,1.25000000000000000e+02,4.60000000000000000e+01,9.00000000000000000e+01,2.80000000000000000e+01,1.90000000000000000e+01,3.00000000000000000e+01,9.50000000000000000e+01,1.60000000000000000e+01,3.00000000000000000e+01,7.30000000000000000e+01,1.70000000000000000e+01,6.00000000000000000e+00,2.20000000000000000e+01,8.00000000000000000e+00,1.10000000000000000e+01,2.00000000000000000e+01,1.00000000000000000e+01,8.20000000000000000e+01,1.30000000000000000e+01,1.50000000000000000e+01,1.00000000000000000e+00,2.90000000000000000e+01,1.00000000000000000e+00,9.00000000000000000e+00,6.40000000000000000e+01,1.60000000000000000e+01,1.00000000000000000e+00,2.10000000000000000e+01,1.00000000000000000e+00,7.00000000000000000e+00,1.00000000000000000e+00,4.00000000000000000e+00,7.00000000000000000e+00,1.20000000000000000e+01,8.00000000000000000e+00,1.10000000000000000e+01,7.10000000000000000e+01,5.00000000000000000e+00,8.00000000000000000e+00,4.00000000000000000e+00,1.10000000000000000e+01,2.80000000000000000e+01,1.00000000000000000e+00,1.00000000000000000e+00,8.00000000000000000e+00,7.00000000000000000e+00,5.70000000000000000e+01,6.00000000000000000e+00,1.00000000000000000e+00,6.00000000000000000e+00,1.00000000000000000e+00,2.00000000000000000e+00,1.00000000000000000e+01,5.00000000000000000e+00,3.00000000000000000e+00,4.00000000000000000e+00,7.00000000000000000e+00,1.10000000000000000e+01,6.00000000000000000e+01,3.00000000000000000e+00,2.00000000000000000e+00,2.00000000000000000e+00,2.00000000000000000e+00,5.00000000000000000e+01,7.00000000000000000e+00],"tree_param":{"num_deleted":"0","num_feature":"12","num_nodes":"69","size_leaf_vector":"0"}},{"base_weights":[4.60898190736770630e-01,3.61688196659088135e-01,6.73999547958374023e-01,3.23464244604110718e-01,5.46842455863952637e-01,5.93356609344482422e-01,1.04516983032226563e+00,2.16190144419670105e-01,3.81284683942794800e-01,4.04070466756820679e-01,6.74243927001953125e-01,6.38100087642669678e-01,3.98818731307983398e-01,6.44099235534667969e-01,1.16892015933990479e+00,4.05519336462020874e-01,1.86348363757133484e-01,1.74617543816566467e-01,4.03667092323303223e-01,4.22478973865509033e-01,3.63584756851196289e-02,7.67587304115295410e-01,5.72177588939666748e-01,3.23789924383163452e-01,8.37154388427734375e-01,1.18442691862583160e-01,4.81471091508865356e-01,1.25963270664215088e-01,2.14815154671669006e-01,2.32609495520591736e-01,-9.62254181504249573e-02,3.31768155097961426e-01,4.85546916723251343e-01,4.39840793609619141e-01,6.36640787124633789e-02,1.65652036666870117e-01,7.91825234889984131e-01,-5.67340850830078125e-02,6.01389944553375244e-01,1.71779975295066833e-01,4.39823210239410400e-01,1.81546390056610107e-01,5.89289553463459015e-02,1.18945658206939697e-01,2.49467715620994568e-01,3.02786707878112793e-01,1.23664021492004395e-01,4.36216175556182861e-01,2.39422172307968140e-01,5.13751864433288574e-01,2.55011945962905884e-01,2.14934825897216797e-01,8.13116729259490967e-01,1.32656097412109375e-02,-9.83667373657226563e-02,6.81124031543731689e-01,4.95508491992950439e-01,2.18541860580444336e-01,5.40892267599701881e-03,4.64667260646820068e-01,1.20535373687744141e-01],"default_left":[true,true,true,true,true,true,true,true,true,true,false,true,true,false,false,true,true,true,true,true,false,true,true,true,false,false,false,true,true,true,false,true,true,false,false,false,true,true,true,true,true,false,false,false,false,false,false,false,false,false,false,false,false,false,false,false,false,false,false,false,false],"id":6,"leaf_child_counts":[0,0,0,0,0,0,0,0,0,0,0,0,0,0,0,0,0,0,0,0,0,0,0,0,0,0,0,0,0,0,0,0,0,0,0,0,0,0,0,0,0,0,0,0,0,0,0,0,0,0,0,0,0,0,0,0,0,0,0,0,0],"left_children":[1,3,5,7,9,11,13,15,17,19,-1,21,23,-1,-1,25,27,29,31,33,-1,35,37,39,-1,-1,-1,41,43,45,-1,47,49,-1,-1,-1,51,53,55,57,59,-1,-1,-1,-1,-1,-1,-1,-1,-1,-1,-1,-1,-1,-1,-1,-1,-1,-1,-1,-1],"loss_changes":[6.28903198242187500e+00,1.33058738708496094e+00,2.28327178955078125e+00,1.02784156799316406e+00,3.64185333251953125e-01,4.59264755249023438e-01,4.12216186523437500e-02,2.91676998138427734e-01,4.61469650268554688e-01,1.13250970840454102e-01,0.00000000000000000e+00,1.15650177001953125e-01,3.20918560028076172e-01,0.00000000000000000e+00,0.00000000000000000e+00,1.17405056953430176e-01,7.26413726806640625e-02,2.26570129394531250e-01,4.45280075073242188e-01,8.41319561004638672e-02,0.00000000000000000e+00,1.46036148071289063e-01,8.97604942321777344e-01,2.24296808242797852e-01,0.00000000000000000e+00,0.00000000000000000e+00,0.00000000000000000e+00,6.75471425056457520e-02,9.65675115585327148e-02,4.66566085815429688e-02,0.00000000000000000e+00,4.54990863800048828e-01,1.68089866638183594e-01,0.00000000000000000e+00,0.00000000000000000e+00,0.00000000000000000e+00,4.63247299194335938e-02,1.00477132946252823e-02,4.24022674560546875e-02,6.88363611698150635e-02,1.53827667236328125e-02,0.00000000000000000e+00,0.00000000000000000e+00,0.00000000000000000e+00,0.00000000000000000e+00,0.00000000000000000e+00,0.00000000000000000e+00,0.00000000000000000e+00,0.00000000000000000e+00,0.00000000000000000e+00,0.00000000000000000e+00,0.00000000000000000e+00,0.00000000000000000e+00,0.00000000000000000e+00,0.00000000000000000e+00,0.00000000000000000e+00,0.00000000000000000e+00,0.00000000000000000e+00,0.00000000000000000e+00,0.00000000000000000e+00,0.00000000000000000e+00],"parents":[2147483647,0,0,1,1,2,2,3,3,4,4,5,5,6,6,7,7,8,8,9,9,11,11,12,12,15,15,16,16,17,17,18,18,19,19,21,21,22,22,23,23,27,27,28,28,29,29,31,31,32,32,36,36,37,37,38,38,39,39,40,40],"right_children":[2,4,6,8,10,12,14,16,18,20,-1,22,24,-1,-1,26,28,30,32,34,-1,36,38,40,-1,-1,-1,42,44,46,-1,48,50,-1,-1,-1,52,54,56,58,60,-1,-1,-1,-1,-1,-1,-1,-1,-1,-1,-1,-1,-1,-1,-1,-1,-1,-1,-1,-1],"split_conditions":[2.01550000000000000e+03,1.50000000000000000e+00,1.50000000000000000e+00,2.01150000000000000e+03,2.01250000000000000e+03,7.50000000000000000e+00,2.01650000000000000e+03,1.50000000000000000e+00,2.26750000000000000e+04,6.79000000000000000e+04,2.02273190021514893e-01,2.17280000000000000e+04,2.01850000000000000e+03,1.93229779601097107e-01,3.50676059722900391e-01,2.00900000000000000e+03,1.14150000000000000e+03,2.08900000000000000e+04,7.00000000000000000e+00,2.50000000000000000e+00,1.09075428918004036e-02,5.00000000000000000e-01,2.23145000000000000e+04,8.50000000000000000e+00,2.51146316528320313e-01,3.55328097939491272e-02,1.44441336393356323e-01,6.13170000000000000e+04,2.00950000000000000e+03,1.74500000000000000e+04,-2.88676265627145767e-02,4.82195000000000000e+04,1.50000000000000000e+00,1.31952241063117981e-01,1.90992243587970734e-02,4.96956147253513336e-02,8.95250000000000000e+03,5.00000000000000000e+00,5.50000000000000000e+00,8.19300003051757813e+01,2.90000000000000000e+04,5.44639192521572113e-02,1.76786873489618301e-02,3.56836989521980286e-02,7.48403146862983704e-02,9.08360183238983154e-02,3.70992086827754974e-02,1.30864858627319336e-01,7.18266516923904419e-02,1.54125571250915527e-01,7.65035897493362427e-02,6.44804537296295166e-02,2.43935033679008484e-01,3.97968292236328125e-03,-2.95100230723619461e-02,2.04337224364280701e-01,1.48652553558349609e-01,6.55625611543655396e-02,1.62267684936523438e-03,1.39400184154510498e-01,3.61606143414974213e-02],"split_indices":[1,4,4,1,1,0,1,0,2,2,0,2,1,0,0,1,7,2,10,5,0,0,2,0,0,0,0,2,1,2,0,2,5,0,0,0,2,0,0,8,2,0,0,0,0,0,0,0,0,0,0,0,0,0,0,0,0,0,0,0,0],"sum_hessian":[3.08000000000000000e+02,2.12000000000000000e+02,9.60000000000000000e+01,1.78000000000000000e+02,3.40000000000000000e+01,8.10000000000000000e+01,1.50000000000000000e+01,6.40000000000000000e+01,1.14000000000000000e+02,1.80000000000000000e+01,1.60000000000000000e+01,6.40000000000000000e+01,1.70000000000000000e+01,5.00000000000000000e+00,1.00000000000000000e+01,7.00000000000000000e+00,5.70000000000000000e+01,1.20000000000000000e+01,1.02000000000000000e+02,1.70000000000000000e+01,1.00000000000000000e+00,1.80000000000000000e+01,4.60000000000000000e+01,1.60000000000000000e+01,1.00000000000000000e+00,2.00000000000000000e+00,5.00000000000000000e+00,2.00000000000000000e+01,3.70000000000000000e+01,1.00000000000000000e+01,2.00000000000000000e+00,5.70000000000000000e+01,4.50000000000000000e+01,1.60000000000000000e+01,1.00000000000000000e+00,1.00000000000000000e+00,1.70000000000000000e+01,2.00000000000000000e+00,4.40000000000000000e+01,8.00000000000000000e+00,8.00000000000000000e+00,1.00000000000000000e+01,1.00000000000000000e+01,1.10000000000000000e+01,2.60000000000000000e+01,5.00000000000000000e+00,5.00000000000000000e+00,2.50000000000000000e+01,3.20000000000000000e+01,3.90000000000000000e+01,6.00000000000000000e+00,1.00000000000000000e+00,1.60000000000000000e+01,1.00000000000000000e+00,1.00000000000000000e+00,2.20000000000000000e+01,2.20000000000000000e+01,6.00000000000000000e+00,2.00000000000000000e+00,7.00000000000000000e+00,1.00000000000000000e+00],"tree_param":{"num_deleted":"0","num_feature":"12","num_nodes":"61","size_leaf_vector":"0"}},{"base_weights":[3.32281261682510376e-01,2.77132749557495117e-01,5.51948368549346924e-01,3.85021239519119263e-01,2.31935545802116394e-01,6.46279513835906982e-01,3.26255589723587036e-01,2.73148894309997559e-01,5.61358511447906494e-01,2.05794945359230042e-01,4.28156554698944092e-01,4.68244075775146484e-01,8.18706274032592773e-01,2.00661420822143555e-01,4.41720038652420044e-01,-1.95449352264404297e-01,5.97983777523040771e-01,1.78113669157028198e-01,3.28942567110061646e-01,3.95275354385375977e-02,4.46530312299728394e-01,2.52470761537551880e-01,6.14802718162536621e-01,9.34387326240539551e-01,5.28386175632476807e-01,2.34089761972427368e-01,1.09484940767288208e-01,4.99451905488967896e-01,8.27965736389160156e-02,2.69804239273071289e-01,6.29059195518493652e-01,2.15665459632873535e-01,1.37294217944145203e-01,2.12623432278633118e-01,5.93162417411804199e-01,2.05531209707260132e-01,4.97094660997390747e-01,1.27539634704589844e-02,2.75167047977447510e-01,6.43312454223632813e-01,1.36343002319335938e-01,6.67019546031951904e-01,-2.21023797988891602e-01,1.48747652769088745e-01,3.21426093578338623e-01,1.76961302757263184e-01,6.20611459016799927e-02,2.89396584033966064e-01,5.78141152858734131e-01,1.52568057179450989e-01,3.67039531469345093e-01,5.98526038229465485e-02,1.96374058723449707e-01,5.19549846649169922e-02,2.89246588945388794e-01,2.94444411993026733e-01,5.08353710174560547e-02],"default_left":[true,true,true,true,true,true,false,true,true,true,true,true,true,true,true,false,true,true,true,false,true,true,true,false,true,true,true,true,false,false,false,true,true,true,false,false,false,false,true,false,false,false,false,false,false,false,false,false,false,false,false,false,false,false,false,false,false],"id":7,"leaf_child_counts":[0,0,0,0,0,0,0,0,0,0,0,0,0,0,0,0,0,0,0,0,0,0,0,0,0,0,0,0,0,0,0,0,0,0,0,0,0,0,0,0,0,0,0,0,0,0,0,0,0,0,0,0,0,0,0,0,0],"left_children":[1,3,5,7,9,11,-1,13,15,17,19,21,23,25,27,-1,29,31,33,-1,35,37,39,-1,41,43,45,47,-1,-1,-1,49,51,53,-1,-1,-1,-1,55,-1,-1,-1,-1,-1,-1,-1,-1,-1,-1,-1,-1,-1,-1,-1,-1,-1,-1],"loss_changes":[3.59035873413085938e+00,1.12488746643066406e+00,1.08782958984375000e+00,1.26702785491943359e+00,8.24909210205078125e-01,9.05963897705078125e-01,0.00000000000000000e+00,4.73451614379882813e-01,8.65269660949707031e-01,4.83422756195068359e-01,1.25161170959472656e-01,5.72119235992431641e-01,1.77973747253417969e-01,7.79983997344970703e-02,2.28024244308471680e-01,0.00000000000000000e+00,9.54332351684570313e-02,1.72726154327392578e-01,7.34426975250244141e-01,0.00000000000000000e+00,1.29364967346191406e-01,5.63379526138305664e-02,8.96186828613281250e-02,0.00000000000000000e+00,9.78573322296142578e-01,1.31071805953979492e-01,2.42174118757247925e-02,1.45080089569091797e-02,0.00000000000000000e+00,0.00000000000000000e+00,0.00000000000000000e+00,5.83939552307128906e-01,2.90212273597717285e-01,2.43501543998718262e-01,0.00000000000000000e+00,0.00000000000000000e+00,0.00000000000000000e+00,0.00000000000000000e+00,2.82770991325378418e-02,0.00000000000000000e+00,0.00000000000000000e+00,0.00000000000000000e+00,0.00000000000000000e+00,0.00000000000000000e+00,0.00000000000000000e+00,0.00000000000000000e+00,0.00000000000000000e+00,0.00000000000000000e+00,0.00000000000000000e+00,0.00000000000000000e+00,0.00000000000000000e+00,0.00000000000000000e+00,0.00000000000000000e+00,0.00000000000000000e+00,0.00000000000000000e+00,0.00000000000000000e+00,0.00000000000000000e+00],"parents":[2147483647,0,0,1,1,2,2,3,3,4,4,5,5,7,7,8,8,9,9,10,10,11,11,12,12,13,13,14,14,16,16,17,17,18,18,20,20,21,21,22,22,24,24,25,25,26,26,27,27,31,31,32,32,33,33,38,38],"right_children":[2,4,6,8,10,12,-1,14,16,18,20,22,24,26,28,-1,30,32,34,-1,36,38,40,-1,42,44,46,48,-1,-1,-1,50,52,54,-1,-1,-1,-1,56,-1,-1,-1,-1,-1,-1,-1,-1,-1,-1,-1,-1,-1,-1,-1,-1,-1,-1],"split_conditions":[2.01650000000000000e+03,3.50000000000000000e+00,3.28315000000000000e+04,2.50000000000000000e+00,1.50000000000000000e+00,1.79710000000000000e+04,9.78766828775405884e-02,8.19300003051757813e+01,3.02685000000000000e+04,1.50000000000000000e+00,4.50000000000000000e+00,2.01750000000000000e+03,5.50000000000000000e+00,1.50000000000000000e+00,5.29330000000000000e+04,-5.86348064243793488e-02,1.14150000000000000e+03,7.50000000000000000e+00,6.56685000000000000e+04,1.18582611903548241e-02,2.01050000000000000e+03,1.15300000000000000e+03,8.19300003051757813e+01,2.80316203832626343e-01,8.19300003051757813e+01,2.00849990844726563e+01,4.10000000000000000e+04,1.95000000000000000e+04,2.48389728367328644e-02,8.09412747621536255e-02,1.88717767596244812e-01,6.50000000000000000e+00,8.50000000000000000e+00,4.50000000000000000e+00,1.77948728203773499e-01,6.16593658924102783e-02,1.49128407239913940e-01,3.82618908770382404e-03,9.50000000000000000e+00,1.92993745207786560e-01,4.09029014408588409e-02,2.00105875730514526e-01,-6.63071423768997192e-02,4.46242988109588623e-02,9.64278355240821838e-02,5.30883930623531342e-02,1.86183452606201172e-02,8.68189781904220581e-02,1.73442348837852478e-01,4.57704178988933563e-02,1.10111862421035767e-01,1.79557818919420242e-02,5.89122213423252106e-02,1.55864963307976723e-02,8.67739766836166382e-02,8.83333235979080200e-02,1.52506120502948761e-02],"split_indices":[1,0,2,0,4,2,0,8,2,3,0,1,0,0,2,0,7,0,2,0,1,7,8,0,8,6,2,2,0,0,0,0,0,0,0,0,0,0,0,0,0,0,0,0,0,0,0,0,0,0,0,0,0,0,0,0,0],"sum_hessian":[3.08000000000000000e+02,2.48000000000000000e+02,6.00000000000000000e+01,7.10000000000000000e+01,1.77000000000000000e+02,4.10000000000000000e+01,1.90000000000000000e+01,4.50000000000000000e+01,2.60000000000000000e+01,1.58000000000000000e+02,1.90000000000000000e+01,2.20000000000000000e+01,1.90000000000000000e+01,3.30000000000000000e+01,1.20000000000000000e+01,1.00000000000000000e+00,2.50000000000000000e+01,1.31000000000000000e+02,2.70000000000000000e+01,1.00000000000000000e+00,1.80000000000000000e+01,1.00000000000000000e+01,1.20000000000000000e+01,1.20000000000000000e+01,7.00000000000000000e+00,2.30000000000000000e+01,1.00000000000000000e+01,1.00000000000000000e+01,2.00000000000000000e+00,3.00000000000000000e+00,2.20000000000000000e+01,6.60000000000000000e+01,6.50000000000000000e+01,2.00000000000000000e+01,7.00000000000000000e+00,4.00000000000000000e+00,1.40000000000000000e+01,1.00000000000000000e+00,9.00000000000000000e+00,1.10000000000000000e+01,1.00000000000000000e+00,6.00000000000000000e+00,1.00000000000000000e+00,1.30000000000000000e+01,1.00000000000000000e+01,3.00000000000000000e+00,7.00000000000000000e+00,4.00000000000000000e+00,6.00000000000000000e+00,4.80000000000000000e+01,1.80000000000000000e+01,2.90000000000000000e+01,3.60000000000000000e+01,7.00000000000000000e+00,1.30000000000000000e+01,8.00000000000000000e+00,1.00000000000000000e+00],"tree_param":{"num_deleted":"0","num_feature":"12","num_nodes":"57","size_leaf_vector":"0"}},{"base_weights":[2.40033388137817383e-01,1.85198009014129639e-01,3.57970505952835083e-01,2.64842927455902100e-01,1.52233719825744629e-01,3.11530083417892456e-01,5.73604583740234375e-01,1.89898893237113953e-01,3.98550659418106079e-01,3.91328111290931702e-02,1.70929044485092163e-01,2.92950004339218140e-01,6.00603699684143066e-01,1.81975528597831726e-01,6.16553366184234619e-01,1.35092526674270630e-01,3.46289336681365967e-01,4.89542305469512939e-01,2.22834825515747070e-01,-7.68802985548973083e-02,7.56298005580902100e-02,2.38306775689125061e-01,1.14131577312946320e-01,3.22012007236480713e-01,1.68017283082008362e-01,1.12919181585311890e-01,2.62076199054718018e-01,4.08022701740264893e-01,6.62372931838035583e-02,1.41308188438415527e-01,5.06786167621612549e-01,-8.71262103319168091e-02,-1.28253698348999023e-02,1.61033809185028076e-01,4.78134155273437500e-02,1.15257173776626587e-01,2.85368353128433228e-01,9.35807749629020691e-02,2.49872744083404541e-01,3.58767181634902954e-01,2.37206175923347473e-01,6.32632821798324585e-02,2.54102706909179688e-01,1.29479676485061646e-01,7.53285875543951988e-03,1.56058311462402344e-01,4.66001123189926147e-01,-1.11788593232631683e-01,-3.34217548370361328e-02,4.80242967605590820e-02,1.82695552706718445e-01,-8.83668661117553711e-02,8.92223939299583435e-02,1.95090353488922119e-01,-3.80650088191032410e-02,1.44031718373298645e-01,3.19550096988677979e-01,7.48962685465812683e-02,1.88855916261672974e-01,4.35353130102157593e-01,8.45736861228942871e-02,2.37348034977912903e-01,4.17431563138961792e-01,-3.27974557876586914e-02,2.81564503908157349e-01,-2.09445003420114517e-02,1.34818404912948608e-01,2.72486329078674316e-01,5.35168647766113281e-02],"default_left":[true,true,true,true,true,true,true,true,true,true,true,true,false,false,false,true,true,true,false,true,true,true,true,true,true,true,false,true,false,false,false,true,false,true,true,true,true,true,true,true,true,true,true,false,false,false,false,false,false,false,false,false,false,false,false,false,false,false,false,false,false,false,false,false,false,false,false,false,false],"id":8,"leaf_child_counts":[0,0,0,0,0,0,0,0,0,0,0,0,0,0,0,0,0,0,0,0,0,0,0,0,0,0,0,0,0,0,0,0,0,0,0,0,0,0,0,0,0,0,0,0,0,0,0,0,0,0,0,0,0,0,0,0,0,0,0,0,0,0,0,0,0,0,0,0,0],"left_children":[1,3,5,7,9,11,13,15,17,19,21,23,-1,-1,-1,25,27,29,-1,31,33,35,37,39,41,43,-1,45,-1,-1,-1,47,-1,49,51,53,55,57,59,61,63,65,67,-1,-1,-1,-1,-1,-1,-1,-1,-1,-1,-1,-1,-1,-1,-1,-1,-1,-1,-1,-1,-1,-1,-1,-1,-1,-1],"loss_changes":[1.93204689025878906e+00,5.18899917602539063e-01,7.92676925659179688e-01,5.35572528839111328e-01,3.16823005676269531e-01,2.64475345611572266e-01,1.56921863555908203e-01,3.04637670516967773e-01,2.26675033569335938e-01,1.03199414908885956e-01,4.74123477935791016e-01,2.32728958129882813e-01,0.00000000000000000e+00,0.00000000000000000e+00,0.00000000000000000e+00,6.05075359344482422e-02,1.45859241485595703e-01,6.45065307617187500e-03,0.00000000000000000e+00,2.82038375735282898e-03,3.50617691874504089e-02,3.08772802352905273e-01,1.80256783962249756e-01,1.11272335052490234e-01,1.37227088212966919e-01,4.96369004249572754e-02,0.00000000000000000e+00,4.41446304321289063e-02,0.00000000000000000e+00,0.00000000000000000e+00,0.00000000000000000e+00,2.88622453808784485e-03,0.00000000000000000e+00,1.01810693740844727e-03,9.24705937504768372e-02,2.27749660611152649e-01,1.56882286071777344e-01,1.01566374301910400e-01,2.39118218421936035e-01,2.00088500976562500e-01,2.72726774215698242e-01,5.70531934499740601e-02,1.86048150062561035e-02,0.00000000000000000e+00,0.00000000000000000e+00,0.00000000000000000e+00,0.00000000000000000e+00,0.00000000000000000e+00,0.00000000000000000e+00,0.00000000000000000e+00,0.00000000000000000e+00,0.00000000000000000e+00,0.00000000000000000e+00,0.00000000000000000e+00,0.00000000000000000e+00,0.00000000000000000e+00,0.00000000000000000e+00,0.00000000000000000e+00,0.00000000000000000e+00,0.00000000000000000e+00,0.00000000000000000e+00,0.00000000000000000e+00,0.00000000000000000e+00,0.00000000000000000e+00,0.00000000000000000e+00,0.00000000000000000e+00,0.00000000000000000e+00,0.00000000000000000e+00,0.00000000000000000e+00],"parents":[2147483647,0,0,1,1,2,2,3,3,4,4,5,5,6,6,7,7,8,8,9,9,10,10,11,11,15,15,16,16,17,17,19,19,20,20,21,21,22,22,23,23,24,24,25,25,27,27,31,31,33,33,34,34,35,35,36,36,37,37,38,38,39,39,40,40,41,41,42,42],"right_children":[2,4,6,8,10,12,14,16,18,20,22,24,-1,-1,-1,26,28,30,-1,32,34,36,38,40,42,44,-1,46,-1,-1,-1,48,-1,50,52,54,56,58,60,62,64,66,68,-1,-1,-1,-1,-1,-1,-1,-1,-1,-1,-1,-1,-1,-1,-1,-1,-1,-1,-1,-1,-1,-1,-1,-1,-1,-1],"split_conditions":[2.01550000000000000e+03,3.50000000000000000e+00,1.50000000000000000e+00,2.50000000000000000e+00,4.50000000000000000e+00,2.01850000000000000e+03,2.50000000000000000e+00,8.19300003051757813e+01,4.73815000000000000e+04,1.10300000000000000e+03,7.50000000000000000e+00,7.50000000000000000e+00,1.80181115865707397e-01,5.45926615595817566e-02,1.84966012835502625e-01,8.57225000000000000e+04,5.20000000000000000e+04,2.01150000000000000e+03,6.68504536151885986e-02,2.01250000000000000e+03,3.84755000000000000e+04,1.10300000000000000e+03,6.98000000000000000e+04,4.50890000000000000e+04,8.50000000000000000e+00,7.04080000000000000e+04,7.86228626966476440e-02,1.80000000000000000e+04,1.98711883276700974e-02,4.23924587666988373e-02,1.52035862207412720e-01,1.50000000000000000e+00,-3.84761113673448563e-03,2.01450000000000000e+03,5.85000000000000000e+04,6.78635000000000000e+04,4.42855000000000000e+04,1.50000000000000000e+00,9.50000000000000000e+00,2.01650000000000000e+03,4.71480000000000000e+04,1.93549995422363281e+01,2.90000000000000000e+04,3.88439036905765533e-02,2.25985771976411343e-03,4.68174964189529419e-02,1.39800339937210083e-01,-3.35365794599056244e-02,-1.00265266373753548e-02,1.44072892144322395e-02,5.48086687922477722e-02,-2.65100616961717606e-02,2.67667192965745926e-02,5.85271082818508148e-02,-1.14195030182600021e-02,4.32095155119895935e-02,9.58650335669517517e-02,2.24688816815614700e-02,5.66567778587341309e-02,1.30605950951576233e-01,2.53721065819263458e-02,7.12044164538383484e-02,1.25229477882385254e-01,-9.83923673629760742e-03,8.44693556427955627e-02,-6.28335028886795044e-03,4.04455214738845825e-02,8.17459002137184143e-02,1.60550605505704880e-02],"split_indices":[1,0,4,0,0,1,0,8,2,7,0,0,0,0,0,2,2,1,0,1,2,7,2,2,0,2,0,2,0,0,0,5,0,1,2,2,2,4,0,1,2,6,2,0,0,0,0,0,0,0,0,0,0,0,0,0,0,0,0,0,0,0,0,0,0,0,0,0,0],"sum_hessian":[3.08000000000000000e+02,2.12000000000000000e+02,9.60000000000000000e+01,6.00000000000000000e+01,1.52000000000000000e+02,8.10000000000000000e+01,1.50000000000000000e+01,4.00000000000000000e+01,2.00000000000000000e+01,2.20000000000000000e+01,1.30000000000000000e+02,7.80000000000000000e+01,3.00000000000000000e+00,2.00000000000000000e+00,1.30000000000000000e+01,3.10000000000000000e+01,9.00000000000000000e+00,1.20000000000000000e+01,8.00000000000000000e+00,5.00000000000000000e+00,1.70000000000000000e+01,5.80000000000000000e+01,7.20000000000000000e+01,6.20000000000000000e+01,1.60000000000000000e+01,2.80000000000000000e+01,3.00000000000000000e+00,7.00000000000000000e+00,2.00000000000000000e+00,1.00000000000000000e+00,1.10000000000000000e+01,4.00000000000000000e+00,1.00000000000000000e+00,3.00000000000000000e+00,1.40000000000000000e+01,1.70000000000000000e+01,4.10000000000000000e+01,6.40000000000000000e+01,8.00000000000000000e+00,4.10000000000000000e+01,2.10000000000000000e+01,8.00000000000000000e+00,8.00000000000000000e+00,2.40000000000000000e+01,4.00000000000000000e+00,2.00000000000000000e+00,5.00000000000000000e+00,2.00000000000000000e+00,2.00000000000000000e+00,1.00000000000000000e+00,2.00000000000000000e+00,3.00000000000000000e+00,1.10000000000000000e+01,1.10000000000000000e+01,6.00000000000000000e+00,9.00000000000000000e+00,3.20000000000000000e+01,5.50000000000000000e+01,9.00000000000000000e+00,3.00000000000000000e+00,5.00000000000000000e+00,1.50000000000000000e+01,2.60000000000000000e+01,3.00000000000000000e+00,1.80000000000000000e+01,4.00000000000000000e+00,4.00000000000000000e+00,7.00000000000000000e+00,1.00000000000000000e+00],"tree_param":{"num_deleted":"0","num_feature":"12","num_nodes":"69","size_leaf_vector":"0"}},{"base_weights":[1.74022123217582703e-01,1.13347992300987244e-01,2.35145106911659241e-01,2.05095320940017700e-01,9.18439552187919617e-02,3.07099133729934692e-01,1.95058867335319519e-01,1.62704065442085266e-01,3.15081566572189331e-01,1.35117888450622559e-01,5.98882175981998444e-02,3.60143095254898071e-01,1.83950185775756836e-01,1.64221942424774170e-01,3.28127980232238770e-01,1.00652247667312622e-01,2.11197197437286377e-01,7.90637731552124023e-02,3.41240555047988892e-01,2.50065982341766357e-01,9.25717651844024658e-02,3.21717932820320129e-02,1.61814078688621521e-01,9.44702625274658203e-02,3.81432414054870605e-01,8.36346745491027832e-02,2.40184172987937927e-01,2.80827526003122330e-02,1.91048592329025269e-01,3.85997802019119263e-01,1.00466825067996979e-01,1.11606717109680176e-01,-9.92345809936523438e-03,1.29942104220390320e-01,2.70795255899429321e-01,-1.58787965774536133e-02,2.71744698286056519e-01,1.27796918153762817e-01,-6.87065869569778442e-02,1.80694341659545898e-01,2.66848448663949966e-02,1.16051539778709412e-01,3.21434587240219116e-01,2.36295070499181747e-02,1.53496265411376953e-01,2.96110451221466064e-01,4.53580111265182495e-01,3.60765457153320313e-02,1.50872707366943359e-01,2.94137775897979736e-01,1.16612292826175690e-01,6.32016211748123169e-02,-3.51291485130786896e-02,1.44650980830192566e-01,3.07976335287094116e-01,1.29830598831176758e-01,-8.49413871765136719e-03,2.72172298282384872e-02,1.27335801720619202e-01,1.65646746754646301e-01,2.71203517913818359e-02,3.48294824361801147e-01,7.71974325180053711e-02,2.00266718864440918e-01,3.82503509521484375e-01,1.00460946559906006e-01,3.07701408863067627e-01,-1.00267089903354645e-01,7.61084556579589844e-02,-8.46879854798316956e-02,3.83494272828102112e-02,1.67875140905380249e-01,4.02457714080810547e-02,1.42121315002441406e-03,3.40230464935302734e-02,1.79122388362884521e-01,3.54273557662963867e-01,5.14900982379913330e-01,1.62226352840662003e-02,8.69441032409667969e-02,-1.09130620956420898e-01,2.61337757110595703e-02,3.34449499845504761e-01,3.41392606496810913e-02,1.62381410598754883e-01,7.59134292602539063e-02,-7.25203529000282288e-02,1.63265734910964966e-01,-6.29807934165000916e-02,3.41943711042404175e-01,1.28358202055096626e-02,9.04226303100585938e-03,1.67079284787178040e-01],"default_left":[true,true,true,true,true,true,true,true,true,true,true,true,true,true,true,true,true,false,false,true,true,true,true,true,true,true,true,true,true,false,true,true,false,true,true,false,true,true,true,false,true,true,false,true,false,true,true,true,false,true,false,true,true,true,true,true,false,false,false,false,false,false,false,false,false,false,false,false,false,false,false,false,false,false,false,false,false,false,false,false,false,false,false,false,false,false,false,false,false,false,false,false,false],"id":9,"leaf_child_counts":[0,0,0,0,0,0,0,0,0,0,0,0,0,0,0,0,0,0,0,0,0,0,0,0,0,0,0,0,0,0,0,0,0,0,0,0,0,0,0,0,0,0,0,0,0,0,0,0,0,0,0,0,0,0,0,0,0,0,0,0,0,0,0,0,0,0,0,0,0,0,0,0,0,0,0,0,0,0,0,0,0,0,0,0,0,0,0,0,0,0,0,0,0],"left_children":[1,3,5,7,9,11,13,15,17,19,21,23,25,27,29,31,33,-1,-1,35,37,39,41,43,45,47,49,51,53,-1,55,57,-1,59,61,-1,63,65,67,-1,69,71,-1,73,-1,75,77,79,-1,81,-1,83,85,87,89,91,-1,-1,-1,-1,-1,-1,-1,-1,-1,-1,-1,-1,-1,-1,-1,-1,-1,-1,-1,-1,-1,-1,-1,-1,-1,-1,-1,-1,-1,-1,-1,-1,-1,-1,-1,-1,-1],"loss_changes":[1.11929893493652344e+00,2.90914535522460938e-01,3.81405830383300781e-01,8.39461088180541992e-02,1.70295715332031250e-01,2.79963970184326172e-01,3.60561847686767578e-01,4.79515790939331055e-02,1.62381529808044434e-02,2.40943014621734619e-01,2.09495693445205688e-01,1.67581558227539063e-01,8.14528465270996094e-02,3.01416158676147461e-01,1.98364973068237305e-01,1.56431049108505249e-02,2.29240059852600098e-02,0.00000000000000000e+00,0.00000000000000000e+00,8.50298404693603516e-02,2.41703748703002930e-01,4.48892638087272644e-02,7.95712769031524658e-02,1.30987465381622314e-02,6.88314437866210938e-02,2.01387554407119751e-02,3.90385985374450684e-02,3.55191715061664581e-02,3.35212707519531250e-01,0.00000000000000000e+00,1.71003304421901703e-02,1.11353248357772827e-02,0.00000000000000000e+00,2.12060883641242981e-02,6.31350278854370117e-02,0.00000000000000000e+00,2.63158679008483887e-02,1.36295318603515625e-01,4.41946573555469513e-02,0.00000000000000000e+00,8.11948105692863464e-02,4.82431352138519287e-02,0.00000000000000000e+00,6.44114334136247635e-04,0.00000000000000000e+00,5.90206384658813477e-02,4.20753002166748047e-01,5.38062676787376404e-02,0.00000000000000000e+00,6.68854713439941406e-02,0.00000000000000000e+00,2.32804007828235626e-02,3.04173603653907776e-02,2.11263298988342285e-01,1.86088562011718750e-01,1.64860561490058899e-02,0.00000000000000000e+00,0.00000000000000000e+00,0.00000000000000000e+00,0.00000000000000000e+00,0.00000000000000000e+00,0.00000000000000000e+00,0.00000000000000000e+00,0.00000000000000000e+00,0.00000000000000000e+00,0.00000000000000000e+00,0.00000000000000000e+00,0.00000000000000000e+00,0.00000000000000000e+00,0.00000000000000000e+00,0.00000000000000000e+00,0.00000000000000000e+00,0.00000000000000000e+00,0.00000000000000000e+00,0.00000000000000000e+00,0.00000000000000000e+00,0.00000000000000000e+00,0.00000000000000000e+00,0.00000000000000000e+00,0.00000000000000000e+00,0.00000000000000000e+00,0.00000000000000000e+00,0.00000000000000000e+00,0.00000000000000000e+00,0.00000000000000000e+00,0.00000000000000000e+00,0.00000000000000000e+00,0.00000000000000000e+00,0.00000000000000000e+00,0.00000000000000000e+00,0.00000000000000000e+00,0.00000000000000000e+00,0.00000000000000000e+00],"parents":[2147483647,0,0,1,1,2,2,3,3,4,4,5,5,6,6,7,7,8,8,9,9,10,10,11,11,12,12,13,13,14,14,15,15,16,16,19,19,20,20,21,21,22,22,23,23,24,24,25,25,26,26,27,27,28,28,30,30,31,31,33,33,34,34,36,36,37,37,38,38,40,40,41,41,43,43,45,45,46,46,47,47,49,49,51,51,52,52,53,53,54,54,55,55],"right_children":[2,4,6,8,10,12,14,16,18,20,22,24,26,28,30,32,34,-1,-1,36,38,40,42,44,46,48,50,52,54,-1,56,58,-1,60,62,-1,64,66,68,-1,70,72,-1,74,-1,76,78,80,-1,82,-1,84,86,88,90,92,-1,-1,-1,-1,-1,-1,-1,-1,-1,-1,-1,-1,-1,-1,-1,-1,-1,-1,-1,-1,-1,-1,-1,-1,-1,-1,-1,-1,-1,-1,-1,-1,-1,-1,-1,-1,-1],"split_conditions":[7.00000000000000000e+00,1.95050010681152344e+01,3.50000000000000000e+00,2.01250000000000000e+03,5.50000000000000000e+00,4.50890000000000000e+04,2.01750000000000000e+03,5.41740000000000000e+04,2.50000000000000000e+00,4.73815000000000000e+04,2.01450000000000000e+03,5.00000000000000000e-01,8.19300003051757813e+01,4.50000000000000000e+00,3.76960000000000000e+04,5.35000000000000000e+04,4.50000000000000000e+00,2.37191338092088699e-02,1.02372169494628906e-01,5.00000000000000000e-01,1.50000000000000000e+00,1.25395000000000000e+04,8.50000000000000000e+00,2.53900000000000000e+04,2.01650000000000000e+03,6.20565000000000000e+04,6.16475000000000000e+04,2.01550000000000000e+03,4.72765000000000000e+04,1.15799345076084137e-01,4.83635000000000000e+04,2.00000000000000000e+00,-2.97703756950795650e-03,1.50000000000000000e+00,1.50000000000000000e+00,-4.76363906636834145e-03,4.23870000000000000e+04,8.44785000000000000e+04,8.12225000000000000e+04,5.42083047330379486e-02,3.15000000000000000e+04,2.99825000000000000e+04,9.64303836226463318e-02,2.01600000000000000e+03,4.60488796234130859e-02,2.95455000000000000e+04,3.24300000000000000e+04,2.50000000000000000e+00,4.52618151903152466e-02,5.00000000000000000e-01,3.49836908280849457e-02,6.43880000000000000e+04,1.03595000000000000e+04,4.27115000000000000e+04,1.50000000000000000e+00,4.20100000000000000e+04,-2.54824175499379635e-03,8.16516950726509094e-03,3.82007434964179993e-02,4.96940277516841888e-02,8.13610572367906570e-03,1.04488454759120941e-01,2.31592301279306412e-02,6.00800178945064545e-02,1.14751055836677551e-01,3.01382858306169510e-02,9.23104286193847656e-02,-3.00801284611225128e-02,2.28325370699167252e-02,-2.54063960164785385e-02,1.15048289299011230e-02,5.03625459969043732e-02,1.20737319812178612e-02,4.26363956648856401e-04,1.02069145068526268e-02,5.37367202341556549e-02,1.06282070279121399e-01,1.54470294713973999e-01,4.86679095774888992e-03,2.60832328349351883e-02,-3.27391885221004486e-02,7.84013327211141586e-03,1.00334852933883667e-01,1.02417785674333572e-02,4.87144254148006439e-02,2.27740295231342316e-02,-2.17561069875955582e-02,4.89797219634056091e-02,-1.88942383974790573e-02,1.02583117783069611e-01,3.85074620135128498e-03,2.71267909556627274e-03,5.01237884163856506e-02],"split_indices":[10,6,0,1,0,2,1,2,0,2,1,0,8,0,2,2,0,0,0,0,5,2,0,2,1,2,2,1,2,0,2,0,0,0,5,0,2,2,2,0,2,2,0,1,0,2,2,0,0,0,0,2,2,2,5,2,0,0,0,0,0,0,0,0,0,0,0,0,0,0,0,0,0,0,0,0,0,0,0,0,0,0,0,0,0,0,0,0,0,0,0,0,0],"sum_hessian":[3.08000000000000000e+02,1.56000000000000000e+02,1.52000000000000000e+02,2.80000000000000000e+01,1.28000000000000000e+02,5.20000000000000000e+01,1.00000000000000000e+02,2.20000000000000000e+01,6.00000000000000000e+00,5.30000000000000000e+01,7.50000000000000000e+01,3.50000000000000000e+01,1.70000000000000000e+01,8.30000000000000000e+01,1.70000000000000000e+01,1.10000000000000000e+01,1.10000000000000000e+01,1.00000000000000000e+00,5.00000000000000000e+00,1.30000000000000000e+01,4.00000000000000000e+01,6.00000000000000000e+01,1.50000000000000000e+01,3.00000000000000000e+00,3.20000000000000000e+01,7.00000000000000000e+00,1.00000000000000000e+01,1.40000000000000000e+01,6.90000000000000000e+01,1.30000000000000000e+01,4.00000000000000000e+00,1.00000000000000000e+01,1.00000000000000000e+00,6.00000000000000000e+00,5.00000000000000000e+00,1.00000000000000000e+00,1.20000000000000000e+01,3.30000000000000000e+01,7.00000000000000000e+00,1.00000000000000000e+00,5.90000000000000000e+01,1.30000000000000000e+01,2.00000000000000000e+00,2.00000000000000000e+00,1.00000000000000000e+00,1.70000000000000000e+01,1.50000000000000000e+01,5.00000000000000000e+00,2.00000000000000000e+00,6.00000000000000000e+00,4.00000000000000000e+00,9.00000000000000000e+00,5.00000000000000000e+00,5.10000000000000000e+01,1.80000000000000000e+01,3.00000000000000000e+00,1.00000000000000000e+00,2.00000000000000000e+00,8.00000000000000000e+00,4.00000000000000000e+00,2.00000000000000000e+00,3.00000000000000000e+00,2.00000000000000000e+00,9.00000000000000000e+00,3.00000000000000000e+00,3.00000000000000000e+01,3.00000000000000000e+00,6.00000000000000000e+00,1.00000000000000000e+00,5.00000000000000000e+00,5.40000000000000000e+01,7.00000000000000000e+00,6.00000000000000000e+00,1.00000000000000000e+00,1.00000000000000000e+00,7.00000000000000000e+00,1.00000000000000000e+01,1.30000000000000000e+01,2.00000000000000000e+00,4.00000000000000000e+00,1.00000000000000000e+00,1.00000000000000000e+00,5.00000000000000000e+00,8.00000000000000000e+00,1.00000000000000000e+00,1.00000000000000000e+00,4.00000000000000000e+00,4.70000000000000000e+01,4.00000000000000000e+00,1.60000000000000000e+01,2.00000000000000000e+00,1.00000000000000000e+00,2.00000000000000000e+00],"tree_param":{"num_deleted":"0","num_feature":"12","num_nodes":"93","size_leaf_vector":"0"}},{"base_weights":[1.27510562539100647e-01,1.05627432465553284e-01,2.14746400713920593e-01,1.55992835760116577e-01,8.46614986658096313e-02,1.80729627609252930e-01,3.52938085794448853e-01,1.10613323748111725e-01,2.27528586983680725e-01,7.27074593305587769e-02,1.75463020801544189e-01,4.67094182968139648e-01,1.65660455822944641e-01,1.94909572601318359e-01,4.52143579721450806e-01,1.97377681732177734e-01,7.41853788495063782e-02,-2.28602409362792969e-01,2.53864496946334839e-01,6.02653734385967255e-02,1.43657848238945007e-01,2.37883150577545166e-01,1.14026010036468506e-01,-7.65384966507554054e-03,1.89468175172805786e-01,8.59468802809715271e-02,2.27904200553894043e-01,2.46903896331787109e-01,1.19654655456542969e-01,-1.61017314530909061e-03,9.75690186023712158e-02,5.30087947845458984e-02,2.59778380393981934e-01,6.61258772015571594e-02,-5.80191798508167267e-02,7.10752084851264954e-02,3.37462782859802246e-01,-6.48951530456542969e-03,2.69240915775299072e-01,1.90019428730010986e-01,6.75816014409065247e-02,1.05545520782470703e-01,-7.40427002310752869e-02,2.29098066687583923e-01,1.05797231197357178e-01,1.02286100387573242e-01,2.66342163085937500e-02,8.77865180373191833e-02,2.92993545532226563e-01,1.36955499649047852e-01,7.92479515075683594e-03,4.60606031119823456e-02,-7.27137923240661621e-02,1.29863023757934570e-01,8.67460668087005615e-03,2.90328353643417358e-01,1.73208579421043396e-01,5.95678724348545074e-02,1.92823097109794617e-01,2.44749486446380615e-02,-1.26008510589599609e-01,1.21535755693912506e-01,-1.35920643806457520e-01,-3.14474105834960938e-03,4.06213223934173584e-01,1.61470174789428711e-02,3.03090482950210571e-01,8.58028307557106018e-02,2.53820419311523438e-03,-1.96881771087646484e-01,5.88750839233398438e-03,1.44781082868576050e-01,4.00382369756698608e-01,1.24054580926895142e-01,2.00115442276000977e-02],"default_left":[true,true,true,true,true,true,true,true,true,true,true,false,true,true,false,true,true,false,true,true,true,true,true,true,true,true,false,true,true,true,true,false,true,true,true,true,true,false,true,false,true,false,true,true,true,false,false,false,false,false,false,false,false,false,false,false,false,false,false,false,false,false,false,false,false,false,false,false,false,false,false,false,false,false,false],"id":10,"leaf_child_counts":[0,0,0,0,0,0,0,0,0,0,0,0,0,0,0,0,0,0,0,0,0,0,0,0,0,0,0,0,0,0,0,0,0,0,0,0,0,0,0,0,0,0,0,0,0,0,0,0,0,0,0,0,0,0,0,0,0,0,0,0,0,0,0,0,0,0,0,0,0,0,0,0,0,0,0],"left_children":[1,3,5,7,9,11,13,15,17,19,21,-1,23,25,-1,27,29,-1,31,33,35,37,39,41,43,45,-1,47,49,51,53,-1,55,57,59,61,63,-1,65,-1,67,-1,69,71,73,-1,-1,-1,-1,-1,-1,-1,-1,-1,-1,-1,-1,-1,-1,-1,-1,-1,-1,-1,-1,-1,-1,-1,-1,-1,-1,-1,-1,-1,-1],"loss_changes":[5.67195415496826172e-01,2.49727010726928711e-01,2.22964525222778320e-01,2.08562970161437988e-01,1.80451631546020508e-01,1.42700076103210449e-01,8.43230485916137695e-02,1.30747199058532715e-01,3.82374763488769531e-01,1.31703019142150879e-01,4.95733022689819336e-02,0.00000000000000000e+00,2.07761049270629883e-01,1.98346376419067383e-03,0.00000000000000000e+00,2.04980969429016113e-02,6.04178756475448608e-02,0.00000000000000000e+00,1.71132087707519531e-02,9.88059639930725098e-02,2.99552857875823975e-01,7.07140564918518066e-02,2.95118093490600586e-02,6.04211129248142242e-02,1.21660351753234863e-01,1.83058902621269226e-04,0.00000000000000000e+00,2.56147682666778564e-02,1.24458000063896179e-02,3.38553227484226227e-02,7.35131651163101196e-02,0.00000000000000000e+00,1.58302783966064453e-02,9.73594188690185547e-02,4.23450954258441925e-02,2.04531431198120117e-01,1.41778945922851563e-01,0.00000000000000000e+00,6.36429786682128906e-02,0.00000000000000000e+00,1.04487501084804535e-02,0.00000000000000000e+00,5.02519011497497559e-02,3.60855221748352051e-01,2.25769877433776855e-02,0.00000000000000000e+00,0.00000000000000000e+00,0.00000000000000000e+00,0.00000000000000000e+00,0.00000000000000000e+00,0.00000000000000000e+00,0.00000000000000000e+00,0.00000000000000000e+00,0.00000000000000000e+00,0.00000000000000000e+00,0.00000000000000000e+00,0.00000000000000000e+00,0.00000000000000000e+00,0.00000000000000000e+00,0.00000000000000000e+00,0.00000000000000000e+00,0.00000000000000000e+00,0.00000000000000000e+00,0.00000000000000000e+00,0.00000000000000000e+00,0.00000000000000000e+00,0.00000000000000000e+00,0.00000000000000000e+00,0.00000000000000000e+00,0.00000000000000000e+00,0.00000000000000000e+00,0.00000000000000000e+00,0.00000000000000000e+00,0.00000000000000000e+00,0.00000000000000000e+00],"parents":[2147483647,0,0,1,1,2,2,3,3,4,4,5,5,6,6,7,7,8,8,9,9,10,10,12,12,13,13,15,15,16,16,18,18,19,19,20,20,21,21,22,22,23,23,24,24,25,25,27,27,28,28,29,29,30,30,32,32,33,33,34,34,35,35,36,36,38,38,40,40,42,42,43,43,44,44],"right_children":[2,4,6,8,10,12,14,16,18,20,22,-1,24,26,-1,28,30,-1,32,34,36,38,40,42,44,46,-1,48,50,52,54,-1,56,58,60,62,64,-1,66,-1,68,-1,70,72,74,-1,-1,-1,-1,-1,-1,-1,-1,-1,-1,-1,-1,-1,-1,-1,-1,-1,-1,-1,-1,-1,-1,-1,-1,-1,-1,-1,-1,-1,-1],"split_conditions":[2.01650000000000000e+03,3.50000000000000000e+00,1.50000000000000000e+00,2.50000000000000000e+00,1.50000000000000000e+00,1.40000000000000000e+03,1.99175000000000000e+04,3.15000000000000000e+04,3.02685000000000000e+04,7.17520000000000000e+04,8.00000000000000000e+00,1.40128254890441895e-01,9.71700000000000000e+03,2.01750000000000000e+03,1.35643079876899719e-01,1.50000000000000000e+00,4.95000000000000000e+04,-6.85807242989540100e-02,3.21110000000000000e+04,6.73850000000000000e+04,2.01450000000000000e+03,2.00950000000000000e+03,1.81000000000000000e+04,4.22900000000000000e+03,3.68910000000000000e+04,5.00000000000000000e+00,6.83712661266326904e-02,5.00000000000000000e-01,2.01550000000000000e+03,4.65015000000000000e+04,1.50000000000000000e+00,1.59026384353637695e-02,1.50000000000000000e+00,6.45000000000000000e+04,2.00850000000000000e+03,2.01350000000000000e+03,4.50000000000000000e+00,-1.94685463793575764e-03,4.50000000000000000e+00,5.70058301091194153e-02,2.01450000000000000e+03,3.16636562347412109e-02,6.48550000000000000e+03,2.52085000000000000e+04,2.00849990844726563e+01,3.06858308613300323e-02,7.99026526510715485e-03,2.63359565287828445e-02,8.78980681300163269e-02,4.10866513848304749e-02,2.37743859179317951e-03,1.38181811198592186e-02,-2.18141376972198486e-02,3.89589071273803711e-02,2.60238209739327431e-03,8.70985090732574463e-02,5.19625768065452576e-02,1.78703628480434418e-02,5.78469298779964447e-02,7.34248477965593338e-03,-3.78025546669960022e-02,3.64607274532318115e-02,-4.07761931419372559e-02,-9.43422375712543726e-04,1.21863968670368195e-01,4.84410533681511879e-03,9.09271463751792908e-02,2.57408507168292999e-02,7.61461269576102495e-04,-5.90645335614681244e-02,1.76625256426632404e-03,4.34343256056308746e-02,1.20114713907241821e-01,3.72163765132427216e-02,6.00346364080905914e-03],"split_indices":[1,0,4,0,4,2,2,2,2,2,0,0,2,1,0,0,2,0,2,2,1,1,2,2,2,0,0,0,1,2,5,0,4,2,1,1,0,0,0,0,1,0,2,2,6,0,0,0,0,0,0,0,0,0,0,0,0,0,0,0,0,0,0,0,0,0,0,0,0,0,0,0,0,0,0],"sum_hessian":[3.08000000000000000e+02,2.48000000000000000e+02,6.00000000000000000e+01,7.10000000000000000e+01,1.77000000000000000e+02,5.00000000000000000e+01,1.00000000000000000e+01,4.50000000000000000e+01,2.60000000000000000e+01,1.58000000000000000e+02,1.90000000000000000e+01,1.00000000000000000e+00,4.90000000000000000e+01,5.00000000000000000e+00,5.00000000000000000e+00,1.20000000000000000e+01,3.30000000000000000e+01,1.00000000000000000e+00,2.50000000000000000e+01,1.36000000000000000e+02,2.20000000000000000e+01,8.00000000000000000e+00,1.10000000000000000e+01,6.00000000000000000e+00,4.30000000000000000e+01,2.00000000000000000e+00,3.00000000000000000e+00,6.00000000000000000e+00,6.00000000000000000e+00,8.00000000000000000e+00,2.50000000000000000e+01,1.00000000000000000e+00,2.40000000000000000e+01,1.30000000000000000e+02,6.00000000000000000e+00,1.70000000000000000e+01,5.00000000000000000e+00,1.00000000000000000e+00,7.00000000000000000e+00,3.00000000000000000e+00,8.00000000000000000e+00,2.00000000000000000e+00,4.00000000000000000e+00,2.80000000000000000e+01,1.50000000000000000e+01,1.00000000000000000e+00,1.00000000000000000e+00,2.00000000000000000e+00,4.00000000000000000e+00,5.00000000000000000e+00,1.00000000000000000e+00,5.00000000000000000e+00,3.00000000000000000e+00,1.80000000000000000e+01,7.00000000000000000e+00,1.60000000000000000e+01,8.00000000000000000e+00,1.25000000000000000e+02,5.00000000000000000e+00,3.00000000000000000e+00,3.00000000000000000e+00,1.40000000000000000e+01,3.00000000000000000e+00,1.00000000000000000e+00,4.00000000000000000e+00,1.00000000000000000e+00,6.00000000000000000e+00,6.00000000000000000e+00,2.00000000000000000e+00,1.00000000000000000e+00,3.00000000000000000e+00,2.00000000000000000e+01,8.00000000000000000e+00,1.20000000000000000e+01,3.00000000000000000e+00],"tree_param":{"num_deleted":"0","num_feature":"12","num_nodes":"75","size_leaf_vector":"0"}},{"base_weights":[9.30787175893783569e-02,5.69697543978691101e-02,1.29523351788520813e-01,1.18928030133247375e-01,4.25995215773582458e-02,1.14746034145355225e-01,2.04170346260070801e-01,9.28944349288940430e-02,1.87477275729179382e-01,-1.76628604531288147e-02,5.44807538390159607e-02,1.61874473094940186e-01,8.70105251669883728e-02,2.15293243527412415e-01,-2.58281230926513672e-02,4.08479683101177216e-02,1.37199699878692627e-01,2.16674238443374634e-01,7.63232707977294922e-02,-4.64642047882080078e-02,2.15451717376708984e-02,4.82159852981567383e-02,2.05310702323913574e-01,7.48891532421112061e-02,1.96507975459098816e-01,2.26676598191261292e-01,7.33608752489089966e-02,3.97030115127563477e-01,1.88985645771026611e-01,8.01726132631301880e-02,1.11640691757202148e-02,2.54035592079162598e-01,1.03484109044075012e-01,4.66609001159667969e-02,2.47512340545654297e-01,9.94261503219604492e-02,1.50587558746337891e-02,-1.29277966916561127e-02,-9.75368991494178772e-02,2.88531258702278137e-02,-2.21132040023803711e-02,5.55945225059986115e-02,-1.10473610460758209e-01,2.94574022293090820e-01,-3.12396287918090820e-02,-1.37514755129814148e-01,1.18144735693931580e-01,2.53698170185089111e-01,1.27758473157882690e-01,1.47487953305244446e-01,3.50904226303100586e-01,-1.27508984878659248e-02,9.07793939113616943e-02,2.23109140992164612e-01,-2.03473567962646484e-02,-3.91423702239990234e-04,1.00411474704742432e-01,3.66986989974975586e-02,-4.36265468597412109e-02,4.92668151855468750e-03,1.12847186625003815e-01,4.97239232063293457e-02,-2.69747525453567505e-02,-2.13779211044311523e-02,-1.11232161521911621e-01,6.73503521829843521e-03,7.08442926406860352e-02,9.78475362062454224e-02,4.18808422982692719e-02,-1.52137666940689087e-01,2.80913114547729492e-02,-1.19600296020507813e-02,-1.94312095642089844e-01,2.09036007523536682e-01,1.03756356984376907e-02,1.71910017728805542e-01,7.81154394149780273e-01,-5.78236579895019531e-02,1.42971336841583252e-01,-3.26140113174915314e-02,7.09518566727638245e-02,1.39629766345024109e-01,2.91329696774482727e-02,2.47005969285964966e-01,1.06796838343143463e-01,8.44365730881690979e-02,-1.67349576950073242e-01],"default_left":[true,true,true,true,true,true,true,true,true,true,true,true,true,true,false,true,true,true,true,true,true,true,true,true,true,true,true,false,true,true,true,false,true,false,false,false,false,true,true,true,false,true,true,false,false,true,true,true,true,false,false,true,true,true,true,false,false,false,false,false,false,false,false,false,false,false,false,false,false,false,false,false,false,false,false,false,false,false,false,false,false,false,false,false,false,false,false],"id":11,"leaf_child_counts":[0,0,0,0,0,0,0,0,0,0,0,0,0,0,0,0,0,0,0,0,0,0,0,0,0,0,0,0,0,0,0,0,0,0,0,0,0,0,0,0,0,0,0,0,0,0,0,0,0,0,0,0,0,0,0,0,0,0,0,0,0,0,0,0,0,0,0,0,0,0,0,0,0,0,0,0,0,0,0,0,0,0,0,0,0,0,0],"left_children":[1,3,5,7,9,11,13,15,17,19,21,23,25,27,-1,29,31,33,35,37,39,41,43,45,47,49,51,-1,53,55,57,-1,59,-1,-1,-1,-1,61,63,65,-1,67,69,-1,-1,71,73,75,77,-1,-1,79,81,83,85,-1,-1,-1,-1,-1,-1,-1,-1,-1,-1,-1,-1,-1,-1,-1,-1,-1,-1,-1,-1,-1,-1,-1,-1,-1,-1,-1,-1,-1,-1,-1,-1],"loss_changes":[3.99258136749267578e-01,1.34719431400299072e-01,1.45344018936157227e-01,3.43373119831085205e-02,9.33251678943634033e-02,1.55842304229736328e-01,6.69585466384887695e-02,4.74321246147155762e-02,6.18022680282592773e-03,2.58444473147392273e-02,9.21514928340911865e-02,1.26876235008239746e-01,1.43507897853851318e-01,3.49314212799072266e-02,0.00000000000000000e+00,1.31126511842012405e-02,2.09816396236419678e-02,1.46652907133102417e-02,2.74892710149288177e-03,2.10053957998752594e-02,3.82856884971261024e-03,1.29085883498191833e-01,9.36634689569473267e-02,1.54061451554298401e-01,9.73371267318725586e-02,1.71077549457550049e-02,1.18152797222137451e-01,0.00000000000000000e+00,1.61689460277557373e-01,8.19192826747894287e-03,1.27935027703642845e-02,0.00000000000000000e+00,9.59485024213790894e-03,0.00000000000000000e+00,0.00000000000000000e+00,0.00000000000000000e+00,0.00000000000000000e+00,9.26188379526138306e-03,2.83716991543769836e-03,7.88174103945493698e-03,0.00000000000000000e+00,5.44259250164031982e-02,3.31396274268627167e-02,0.00000000000000000e+00,0.00000000000000000e+00,1.90695524215698242e-02,1.25169649720191956e-01,5.99086284637451172e-01,5.62621653079986572e-02,0.00000000000000000e+00,0.00000000000000000e+00,2.55903899669647217e-02,1.91676497459411621e-01,2.64309644699096680e-02,7.57443085312843323e-02,0.00000000000000000e+00,0.00000000000000000e+00,0.00000000000000000e+00,0.00000000000000000e+00,0.00000000000000000e+00,0.00000000000000000e+00,0.00000000000000000e+00,0.00000000000000000e+00,0.00000000000000000e+00,0.00000000000000000e+00,0.00000000000000000e+00,0.00000000000000000e+00,0.00000000000000000e+00,0.00000000000000000e+00,0.00000000000000000e+00,0.00000000000000000e+00,0.00000000000000000e+00,0.00000000000000000e+00,0.00000000000000000e+00,0.00000000000000000e+00,0.00000000000000000e+00,0.00000000000000000e+00,0.00000000000000000e+00,0.00000000000000000e+00,0.00000000000000000e+00,0.00000000000000000e+00,0.00000000000000000e+00,0.00000000000000000e+00,0.00000000000000000e+00,0.00000000000000000e+00,0.00000000000000000e+00,0.00000000000000000e+00],"parents":[2147483647,0,0,1,1,2,2,3,3,4,4,5,5,6,6,7,7,8,8,9,9,10,10,11,11,12,12,13,13,15,15,16,16,17,17,18,18,19,19,20,20,21,21,22,22,23,23,24,24,25,25,26,26,28,28,29,29,30,30,32,32,37,37,38,38,39,39,41,41,42,42,45,45,46,46,47,47,48,48,51,51,52,52,53,53,54,54],"right_children":[2,4,6,8,10,12,14,16,18,20,22,24,26,28,-1,30,32,34,36,38,40,42,44,46,48,50,52,-1,54,56,58,-1,60,-1,-1,-1,-1,62,64,66,-1,68,70,-1,-1,72,74,76,78,-1,-1,80,82,84,86,-1,-1,-1,-1,-1,-1,-1,-1,-1,-1,-1,-1,-1,-1,-1,-1,-1,-1,-1,-1,-1,-1,-1,-1,-1,-1,-1,-1,-1,-1,-1,-1],"split_conditions":[7.00000000000000000e+00,1.95050010681152344e+01,2.01750000000000000e+03,2.01250000000000000e+03,2.00950000000000000e+03,3.50000000000000000e+00,4.91170000000000000e+04,5.41740000000000000e+04,8.50000000000000000e+00,7.08000000000000000e+04,8.44560000000000000e+04,8.19300003051757813e+01,2.01350000000000000e+03,1.40000000000000000e+03,-7.74843711405992508e-03,3.49120000000000000e+04,5.56740000000000000e+04,2.50000000000000000e+00,3.48670000000000000e+04,6.10000000000000000e+04,3.57990000000000000e+05,7.64575000000000000e+04,7.50000000000000000e+00,2.95455000000000000e+04,3.24300000000000000e+04,6.75570000000000000e+04,4.50000000000000000e+00,1.19109041988849640e-01,7.50000000000000000e+00,1.50000000000000000e+00,6.50000000000000000e+00,7.62106776237487793e-02,5.75000000000000000e+04,1.39982709661126137e-02,7.42537081241607666e-02,2.98278462141752243e-02,4.51762694865465164e-03,3.91175000000000000e+04,1.50000000000000000e+00,8.47450000000000000e+04,-6.63396157324314117e-03,3.49515000000000000e+04,8.00000000000000000e+00,8.83722081780433655e-02,-9.37188882380723953e-03,1.50000000000000000e+00,4.65205000000000000e+04,3.07880000000000000e+04,3.36075000000000000e+04,4.42463867366313934e-02,1.05271272361278534e-01,6.43880000000000000e+04,7.50000000000000000e+00,3.76960000000000000e+04,4.22900000000000000e+03,-1.17427116492763162e-04,3.01234442740678787e-02,1.10096102580428123e-02,-1.30879646167159081e-02,1.47800450213253498e-03,3.38541567325592041e-02,1.49171771481633186e-02,-8.09242576360702515e-03,-6.41337642446160316e-03,-3.33696492016315460e-02,2.02051061205565929e-03,2.12532877922058105e-02,2.93542612344026566e-02,1.25642530620098114e-02,-4.56413030624389648e-02,8.42739362269639969e-03,-3.58800892718136311e-03,-5.82936294376850128e-02,6.27108067274093628e-02,3.11269075609743595e-03,5.15730082988739014e-02,2.34346330165863037e-01,-1.73470973968505859e-02,4.28914017975330353e-02,-9.78420395404100418e-03,2.12855581194162369e-02,4.18889299035072327e-02,8.73989146202802658e-03,7.41017907857894897e-02,3.20390537381172180e-02,2.53309737890958786e-02,-5.02048768103122711e-02],"split_indices":[10,6,1,1,1,0,2,2,0,2,2,8,1,2,0,2,2,0,2,2,2,2,0,2,2,2,0,0,0,4,0,0,2,0,0,0,0,2,5,2,0,2,0,0,0,0,2,2,2,0,0,2,0,2,2,0,0,0,0,0,0,0,0,0,0,0,0,0,0,0,0,0,0,0,0,0,0,0,0,0,0,0,0,0,0,0,0],"sum_hessian":[3.08000000000000000e+02,1.56000000000000000e+02,1.52000000000000000e+02,2.80000000000000000e+01,1.28000000000000000e+02,1.29000000000000000e+02,2.30000000000000000e+01,2.20000000000000000e+01,6.00000000000000000e+00,2.10000000000000000e+01,1.07000000000000000e+02,4.60000000000000000e+01,8.30000000000000000e+01,2.20000000000000000e+01,1.00000000000000000e+00,1.10000000000000000e+01,1.10000000000000000e+01,4.00000000000000000e+00,2.00000000000000000e+00,1.20000000000000000e+01,9.00000000000000000e+00,1.04000000000000000e+02,3.00000000000000000e+00,1.40000000000000000e+01,3.20000000000000000e+01,6.00000000000000000e+00,7.70000000000000000e+01,1.00000000000000000e+00,2.10000000000000000e+01,4.00000000000000000e+00,7.00000000000000000e+00,1.00000000000000000e+00,1.00000000000000000e+01,1.00000000000000000e+00,3.00000000000000000e+00,1.00000000000000000e+00,1.00000000000000000e+00,8.00000000000000000e+00,4.00000000000000000e+00,8.00000000000000000e+00,1.00000000000000000e+00,1.00000000000000000e+02,4.00000000000000000e+00,2.00000000000000000e+00,1.00000000000000000e+00,2.00000000000000000e+00,1.20000000000000000e+01,1.60000000000000000e+01,1.60000000000000000e+01,5.00000000000000000e+00,1.00000000000000000e+00,1.30000000000000000e+01,6.40000000000000000e+01,1.80000000000000000e+01,3.00000000000000000e+00,1.00000000000000000e+00,3.00000000000000000e+00,5.00000000000000000e+00,2.00000000000000000e+00,1.00000000000000000e+00,9.00000000000000000e+00,1.00000000000000000e+00,7.00000000000000000e+00,1.00000000000000000e+00,3.00000000000000000e+00,6.00000000000000000e+00,2.00000000000000000e+00,2.30000000000000000e+01,7.70000000000000000e+01,3.00000000000000000e+00,1.00000000000000000e+00,1.00000000000000000e+00,1.00000000000000000e+00,6.00000000000000000e+00,6.00000000000000000e+00,1.50000000000000000e+01,1.00000000000000000e+00,1.00000000000000000e+00,1.50000000000000000e+01,1.10000000000000000e+01,2.00000000000000000e+00,3.50000000000000000e+01,2.90000000000000000e+01,1.40000000000000000e+01,4.00000000000000000e+00,2.00000000000000000e+00,1.00000000000000000e+00],"tree_param":{"num_deleted":"0","num_feature":"12","num_nodes":"87","size_leaf_vector":"0"}},{"base_weights":[6.85503929853439331e-02,4.19772900640964508e-02,9.53701734542846680e-02,9.22864153981208801e-02,3.03420796990394592e-02,1.03018082678318024e-01,-3.07754683308303356e-03,7.10899904370307922e-02,1.48748055100440979e-01,2.13381331413984299e-02,8.13471302390098572e-02,3.37475538253784180e-01,9.89618152379989624e-02,3.88458669185638428e-02,-6.95395022630691528e-02,3.09208426624536514e-02,1.05334967374801636e-01,3.96617650985717773e-02,1.60318806767463684e-01,5.16444519162178040e-02,-4.34974161908030510e-03,5.62238395214080811e-02,1.96596696972846985e-01,8.69087427854537964e-02,1.54099360108375549e-01,5.55230192840099335e-02,-3.89471054077148438e-02,-8.25688242912292480e-02,-8.71109962463378906e-03,6.21220096945762634e-02,7.55500793457031250e-03,2.15930223464965820e-01,7.56508335471153259e-02,1.91822111606597900e-01,6.48748055100440979e-02,2.51994132995605469e-02,1.35490879416465759e-01,-1.83741804212331772e-02,5.44479005038738251e-02,9.33041274547576904e-02,1.28964586183428764e-02,1.52824660763144493e-02,1.20740190148353577e-01,2.05929085612297058e-01,2.46987938880920410e-02,6.72036409378051758e-02,-7.28034973144531250e-03,-3.32713127136230469e-04,7.78188705444335938e-02,2.75239553302526474e-02,-3.49012203514575958e-02,8.87990891933441162e-02,1.09891099855303764e-02,8.45122337341308594e-02,1.27999782562255859e-02,5.93318194150924683e-02,-5.93871884047985077e-02,-1.15760171320289373e-03,2.33262300491333008e-01,1.29977822303771973e-01,-2.40543819963932037e-02,2.30563640594482422e-01,-3.83161311037838459e-03,1.75152361392974854e-01,2.31879558414220810e-02,-7.34119415283203125e-02,3.28615009784698486e-02,7.41790682077407837e-02,-1.89281642436981201e-01,1.83613553643226624e-01,8.52459520101547241e-02,1.10137127339839935e-01,2.99927890300750732e-01,1.01125584915280342e-02,6.34012222290039063e-02,8.51218700408935547e-02,2.09114551544189453e-02],"default_left":[true,true,true,true,true,true,true,true,true,true,true,false,true,true,true,true,true,false,true,true,true,true,false,true,true,true,false,false,false,true,true,false,true,false,true,true,true,true,true,true,true,true,true,true,true,true,false,false,false,false,false,false,false,false,false,false,false,false,false,false,false,false,false,false,false,false,false,false,false,false,false,false,false,false,false,false,false],"id":12,"leaf_child_counts":[0,0,0,0,0,0,0,0,0,0,0,0,0,0,0,0,0,0,0,0,0,0,0,0,0,0,0,0,0,0,0,0,0,0,0,0,0,0,0,0,0,0,0,0,0,0,0,0,0,0,0,0,0,0,0,0,0,0,0,0,0,0,0,0,0,0,0,0,0,0,0,0,0,0,0,0,0],"left_children":[1,3,5,7,9,11,13,15,17,19,21,-1,23,25,27,29,31,-1,33,35,37,39,-1,41,43,45,-1,-1,-1,47,49,-1,51,-1,53,55,57,59,61,63,65,67,69,71,73,75,-1,-1,-1,-1,-1,-1,-1,-1,-1,-1,-1,-1,-1,-1,-1,-1,-1,-1,-1,-1,-1,-1,-1,-1,-1,-1,-1,-1,-1,-1,-1],"loss_changes":[2.16216206550598145e-01,8.91009271144866943e-02,1.15513563156127930e-01,2.41322964429855347e-02,5.75070157647132874e-02,1.01647853851318359e-01,3.61370667815208435e-02,2.83815562725067139e-02,2.47694551944732666e-03,8.66386964917182922e-02,4.39600944519042969e-02,0.00000000000000000e+00,8.03128480911254883e-02,1.25413844361901283e-02,3.24350036680698395e-03,8.27916525304317474e-03,2.30597853660583496e-02,0.00000000000000000e+00,5.59638440608978271e-03,1.09669119119644165e-01,5.13012744486331940e-02,2.61087678372859955e-02,0.00000000000000000e+00,2.84094750881195068e-01,1.55876874923706055e-01,5.62434084713459015e-03,0.00000000000000000e+00,0.00000000000000000e+00,0.00000000000000000e+00,4.92760539054870605e-03,7.74306850507855415e-03,0.00000000000000000e+00,8.37626308202743530e-03,0.00000000000000000e+00,1.98609195649623871e-03,1.19009330868721008e-01,1.60593822598457336e-01,4.52599897980690002e-02,1.24050706624984741e-01,4.75885421037673950e-02,1.79207846522331238e-02,4.83917832374572754e-01,1.62878990173339844e-01,1.20040416717529297e-01,3.87503346428275108e-03,3.19682247936725616e-03,0.00000000000000000e+00,0.00000000000000000e+00,0.00000000000000000e+00,0.00000000000000000e+00,0.00000000000000000e+00,0.00000000000000000e+00,0.00000000000000000e+00,0.00000000000000000e+00,0.00000000000000000e+00,0.00000000000000000e+00,0.00000000000000000e+00,0.00000000000000000e+00,0.00000000000000000e+00,0.00000000000000000e+00,0.00000000000000000e+00,0.00000000000000000e+00,0.00000000000000000e+00,0.00000000000000000e+00,0.00000000000000000e+00,0.00000000000000000e+00,0.00000000000000000e+00,0.00000000000000000e+00,0.00000000000000000e+00,0.00000000000000000e+00,0.00000000000000000e+00,0.00000000000000000e+00,0.00000000000000000e+00,0.00000000000000000e+00,0.00000000000000000e+00,0.00000000000000000e+00,0.00000000000000000e+00],"parents":[2147483647,0,0,1,1,2,2,3,3,4,4,5,5,6,6,7,7,8,8,9,9,10,10,12,12,13,13,14,14,15,15,16,16,18,18,19,19,20,20,21,21,23,23,24,24,25,25,29,29,30,30,32,32,34,34,35,35,36,36,37,37,38,38,39,39,40,40,41,41,42,42,43,43,44,44,45,45],"right_children":[2,4,6,8,10,12,14,16,18,20,22,-1,24,26,28,30,32,-1,34,36,38,40,-1,42,44,46,-1,-1,-1,48,50,-1,52,-1,54,56,58,60,62,64,66,68,70,72,74,76,-1,-1,-1,-1,-1,-1,-1,-1,-1,-1,-1,-1,-1,-1,-1,-1,-1,-1,-1,-1,-1,-1,-1,-1,-1,-1,-1,-1,-1,-1,-1],"split_conditions":[7.00000000000000000e+00,1.95050010681152344e+01,1.50000000000000000e+00,2.01250000000000000e+03,2.01450000000000000e+03,1.40000000000000000e+03,4.02195000000000000e+04,5.41740000000000000e+04,2.50000000000000000e+00,5.50000000000000000e+00,8.50000000000000000e+00,1.01242668926715851e-01,1.50000000000000000e+00,2.01650000000000000e+03,1.50000000000000000e+00,3.49120000000000000e+04,5.56740000000000000e+04,1.18985297158360481e-02,8.50000000000000000e+00,4.50000000000000000e+00,9.50000000000000000e+00,2.99825000000000000e+04,5.89790120720863342e-02,2.42700000000000000e+04,2.88415000000000000e+04,1.50000000000000000e+00,-1.16841318085789680e-02,-2.47706491500139236e-02,-2.61333002708852291e-03,1.50000000000000000e+00,6.50000000000000000e+00,6.47790729999542236e-02,1.80750007629394531e+01,5.75466342270374298e-02,3.48670000000000000e+04,3.50000000000000000e+00,2.01050000000000000e+03,1.25395000000000000e+04,4.51375000000000000e+04,7.50000000000000000e+00,3.34580000000000000e+04,2.08900000000000000e+04,3.72145000000000000e+04,1.99175000000000000e+04,6.53850000000000000e+04,5.50000000000000000e+00,-2.18410510569810867e-03,-9.98139439616352320e-05,2.33456622809171677e-02,8.25718697160482407e-03,-1.04703661054372787e-02,2.66397278755903244e-02,3.29673313535749912e-03,2.53536719828844070e-02,3.83999361656606197e-03,1.77995469421148300e-02,-1.78161580115556717e-02,-3.47280525602400303e-04,6.99786916375160217e-02,3.89933474361896515e-02,-7.21631478518247604e-03,6.91690966486930847e-02,-1.14948395639657974e-03,5.25457113981246948e-02,6.95638684555888176e-03,-2.20235828310251236e-02,9.85845085233449936e-03,2.22537219524383545e-02,-5.67844957113265991e-02,5.50840683281421661e-02,2.55737863481044769e-02,3.30411382019519806e-02,8.99783670902252197e-02,3.03376768715679646e-03,1.90203674137592316e-02,2.55365613847970963e-02,6.27343682572245598e-03],"split_indices":[10,6,5,1,1,2,2,2,0,0,0,0,4,1,3,2,2,0,0,0,0,2,0,2,2,3,0,0,0,4,0,0,6,0,2,0,1,2,2,0,2,2,2,2,2,0,0,0,0,0,0,0,0,0,0,0,0,0,0,0,0,0,0,0,0,0,0,0,0,0,0,0,0,0,0,0,0],"sum_hessian":[3.08000000000000000e+02,1.56000000000000000e+02,1.52000000000000000e+02,2.80000000000000000e+01,1.28000000000000000e+02,1.41000000000000000e+02,1.10000000000000000e+01,2.20000000000000000e+01,6.00000000000000000e+00,1.10000000000000000e+02,1.80000000000000000e+01,1.00000000000000000e+00,1.40000000000000000e+02,7.00000000000000000e+00,4.00000000000000000e+00,1.10000000000000000e+01,1.10000000000000000e+01,1.00000000000000000e+00,5.00000000000000000e+00,5.00000000000000000e+01,6.00000000000000000e+01,1.60000000000000000e+01,2.00000000000000000e+00,1.17000000000000000e+02,2.30000000000000000e+01,6.00000000000000000e+00,1.00000000000000000e+00,3.00000000000000000e+00,1.00000000000000000e+00,4.00000000000000000e+00,7.00000000000000000e+00,1.00000000000000000e+00,1.00000000000000000e+01,3.00000000000000000e+00,2.00000000000000000e+00,3.90000000000000000e+01,1.10000000000000000e+01,4.90000000000000000e+01,1.10000000000000000e+01,8.00000000000000000e+00,8.00000000000000000e+00,3.80000000000000000e+01,7.90000000000000000e+01,1.60000000000000000e+01,7.00000000000000000e+00,5.00000000000000000e+00,1.00000000000000000e+00,1.00000000000000000e+00,3.00000000000000000e+00,5.00000000000000000e+00,2.00000000000000000e+00,8.00000000000000000e+00,2.00000000000000000e+00,1.00000000000000000e+00,1.00000000000000000e+00,2.80000000000000000e+01,1.10000000000000000e+01,5.00000000000000000e+00,6.00000000000000000e+00,1.00000000000000000e+00,4.80000000000000000e+01,2.00000000000000000e+00,9.00000000000000000e+00,3.00000000000000000e+00,5.00000000000000000e+00,1.00000000000000000e+00,7.00000000000000000e+00,3.00000000000000000e+01,8.00000000000000000e+00,2.70000000000000000e+01,5.20000000000000000e+01,9.00000000000000000e+00,7.00000000000000000e+00,6.00000000000000000e+00,1.00000000000000000e+00,3.00000000000000000e+00,2.00000000000000000e+00],"tree_param":{"num_deleted":"0","num_feature":"12","num_nodes":"77","size_leaf_vector":"0"}},{"base_weights":[5.04872836172580719e-02,1.46529516205191612e-02,6.21128492057323456e-02,-1.73079445958137512e-02,4.31383252143859863e-02,5.63889928162097931e-02,1.98307856917381287e-01,1.04665486142039299e-02,-1.37836709618568420e-01,1.48227497935295105e-01,2.44251750409603119e-02,8.30323994159698486e-02,2.97183729708194733e-02,6.91199302673339844e-02,2.25344419479370117e-01,-1.28931533545255661e-02,1.71367824077606201e-01,-1.67254507541656494e-01,1.93350315093994141e-02,2.33610868453979492e-01,-1.50261716917157173e-02,4.26634773612022400e-03,1.48556634783744812e-01,-7.28633662220090628e-04,9.80288833379745483e-02,-1.03832103312015533e-01,4.94537614285945892e-02,8.58287811279296875e-02,1.78511142730712891e-02,3.66611480712890625e-02,2.50681430101394653e-01,1.84843484312295914e-02,-8.11883583664894104e-02,2.02481821179389954e-01,3.90129089355468750e-02,-7.50437602400779724e-02,-1.94598942995071411e-01,-2.86134481430053711e-02,6.07419013977050781e-03,-1.49273753166198730e-01,1.40345366671681404e-02,2.85481691360473633e-01,4.29549515247344971e-02,3.61695811152458191e-02,-3.38641628623008728e-02,8.42421725392341614e-02,1.86366781592369080e-01,7.89290666580200195e-02,-1.56099811196327209e-01,1.20144955813884735e-01,2.29927320033311844e-02,-2.02003289014101028e-02,5.91890588402748108e-02,-1.32142946124076843e-01,1.55405998229980469e-02,6.56617358326911926e-02,-6.77760783582925797e-03,6.13571219146251678e-02,-3.46578769385814667e-02,-7.53421336412429810e-02,6.34483480826020241e-03,1.16715684533119202e-01,5.61946108937263489e-02,2.27807924151420593e-01,1.24221973121166229e-01,1.31206825375556946e-01,-3.89521121978759766e-02,-3.19001674652099609e-01,-3.47736775875091553e-02,4.82695400714874268e-02,1.42887875437736511e-01,-3.17511670291423798e-02,5.89777156710624695e-02],"default_left":[true,true,true,true,true,true,true,true,true,true,true,true,true,true,true,true,true,true,false,false,true,true,true,true,true,true,true,false,false,false,false,true,true,false,false,false,false,false,false,false,true,false,false,true,true,true,true,true,true,true,true,false,false,false,false,false,false,false,false,false,false,false,false,false,false,false,false,false,false,false,false,false,false],"id":13,"leaf_child_counts":[0,0,0,0,0,0,0,0,0,0,0,0,0,0,0,0,0,0,0,0,0,0,0,0,0,0,0,0,0,0,0,0,0,0,0,0,0,0,0,0,0,0,0,0,0,0,0,0,0,0,0,0,0,0,0,0,0,0,0,0,0,0,0,0,0,0,0,0,0,0,0,0,0],"left_children":[1,3,5,7,9,11,13,15,17,19,21,23,25,27,29,31,33,35,-1,-1,37,39,41,43,45,47,49,-1,-1,-1,-1,51,53,-1,-1,-1,-1,-1,-1,-1,55,-1,-1,57,59,61,63,65,67,69,71,-1,-1,-1,-1,-1,-1,-1,-1,-1,-1,-1,-1,-1,-1,-1,-1,-1,-1,-1,-1,-1,-1],"loss_changes":[1.27817511558532715e-01,7.08488225936889648e-02,1.70455336570739746e-01,1.25304818153381348e-01,7.70080313086509705e-02,1.57416522502899170e-01,1.58593952655792236e-02,1.18726253509521484e-01,3.55993807315826416e-02,8.71451795101165771e-02,8.94506126642227173e-02,1.40757024288177490e-01,3.05601328611373901e-01,1.03778950870037079e-03,2.42744088172912598e-02,6.15028366446495056e-02,8.57295840978622437e-03,5.25280833244323730e-04,0.00000000000000000e+00,0.00000000000000000e+00,1.03389285504817963e-03,5.00888638198375702e-02,6.00347295403480530e-02,2.32324060052633286e-02,9.99994874000549316e-02,1.55608445405960083e-01,1.84293732047080994e-01,0.00000000000000000e+00,0.00000000000000000e+00,0.00000000000000000e+00,0.00000000000000000e+00,3.26886102557182312e-02,4.64126355946063995e-02,0.00000000000000000e+00,0.00000000000000000e+00,0.00000000000000000e+00,0.00000000000000000e+00,0.00000000000000000e+00,0.00000000000000000e+00,0.00000000000000000e+00,3.37536819279193878e-02,0.00000000000000000e+00,0.00000000000000000e+00,1.81822329759597778e-02,1.71559099107980728e-02,6.99486136436462402e-02,2.60546803474426270e-03,2.97610424458980560e-02,2.26078152656555176e-01,3.72385978698730469e-02,1.47649526596069336e-01,0.00000000000000000e+00,0.00000000000000000e+00,0.00000000000000000e+00,0.00000000000000000e+00,0.00000000000000000e+00,0.00000000000000000e+00,0.00000000000000000e+00,0.00000000000000000e+00,0.00000000000000000e+00,0.00000000000000000e+00,0.00000000000000000e+00,0.00000000000000000e+00,0.00000000000000000e+00,0.00000000000000000e+00,0.00000000000000000e+00,0.00000000000000000e+00,0.00000000000000000e+00,0.00000000000000000e+00,0.00000000000000000e+00,0.00000000000000000e+00,0.00000000000000000e+00,0.00000000000000000e+00],"parents":[2147483647,0,0,1,1,2,2,3,3,4,4,5,5,6,6,7,7,8,8,9,9,10,10,11,11,12,12,13,13,14,14,15,15,16,16,17,17,20,20,21,21,22,22,23,23,24,24,25,25,26,26,31,31,32,32,40,40,43,43,44,44,45,45,46,46,47,47,48,48,49,49,50,50],"right_children":[2,4,6,8,10,12,14,16,18,20,22,24,26,28,30,32,34,36,-1,-1,38,40,42,44,46,48,50,-1,-1,-1,-1,52,54,-1,-1,-1,-1,-1,-1,-1,56,-1,-1,58,60,62,64,66,68,70,72,-1,-1,-1,-1,-1,-1,-1,-1,-1,-1,-1,-1,-1,-1,-1,-1,-1,-1,-1,-1,-1,-1],"split_conditions":[1.15300000000000000e+03,5.57050000000000000e+04,1.50000000000000000e+00,5.24825000000000000e+04,5.79120000000000000e+04,5.50000000000000000e+00,5.00000000000000000e+00,5.10670000000000000e+04,2.50000000000000000e+00,6.50000000000000000e+00,8.00000000000000000e+00,2.01050000000000000e+03,6.50000000000000000e+00,3.00000000000000000e+00,1.73865000000000000e+04,4.45000000000000000e+04,2.01550000000000000e+03,5.50000000000000000e+00,5.80050982534885406e-03,7.00832605361938477e-02,2.01450000000000000e+03,5.81985000000000000e+04,9.50000000000000000e+00,1.50000000000000000e+00,4.50000000000000000e+00,1.83500000000000000e+04,7.50000000000000000e+00,2.57486347109079361e-02,5.35533437505364418e-03,1.09983449801802635e-02,7.52044320106506348e-02,3.37145000000000000e+04,4.95000000000000000e+04,6.07445500791072845e-02,1.17038730531930923e-02,-2.25131288170814514e-02,-5.83796836435794830e-02,-8.58403462916612625e-03,1.82225706521421671e-03,-4.47821281850337982e-02,6.08135000000000000e+04,8.56445133686065674e-02,1.28864860162138939e-02,6.47550000000000000e+04,4.50000000000000000e+00,3.44410000000000000e+04,1.97800006866455078e+01,2.01750000000000000e+03,4.14255000000000000e+04,2.01350000000000000e+03,8.50000000000000000e+00,-6.06009876355528831e-03,1.77567191421985626e-02,-3.96428853273391724e-02,4.66218031942844391e-03,1.96985211223363876e-02,-2.03328253701329231e-03,1.84071380645036697e-02,-1.03973634541034698e-02,-2.26026400923728943e-02,1.90345046576112509e-03,3.50147075951099396e-02,1.68583840131759644e-02,6.83423802256584167e-02,3.72665934264659882e-02,3.93620505928993225e-02,-1.16856340318918228e-02,-9.57005098462104797e-02,-1.04321036487817764e-02,1.44808627665042877e-02,4.28663641214370728e-02,-9.52535029500722885e-03,1.76933147013187408e-02],"split_indices":[7,2,3,2,2,0,0,2,3,0,0,1,0,0,2,2,1,0,0,0,1,2,0,0,0,2,0,0,0,0,0,2,2,0,0,0,0,0,0,0,2,0,0,2,0,2,6,1,2,1,0,0,0,0,0,0,0,0,0,0,0,0,0,0,0,0,0,0,0,0,0,0,0],"sum_hessian":[3.08000000000000000e+02,7.60000000000000000e+01,2.32000000000000000e+02,3.60000000000000000e+01,4.00000000000000000e+01,2.24000000000000000e+02,8.00000000000000000e+00,3.00000000000000000e+01,6.00000000000000000e+00,5.00000000000000000e+00,3.50000000000000000e+01,1.11000000000000000e+02,1.13000000000000000e+02,2.00000000000000000e+00,6.00000000000000000e+00,2.70000000000000000e+01,3.00000000000000000e+00,5.00000000000000000e+00,1.00000000000000000e+00,3.00000000000000000e+00,2.00000000000000000e+00,3.10000000000000000e+01,4.00000000000000000e+00,1.70000000000000000e+01,9.40000000000000000e+01,1.40000000000000000e+01,9.90000000000000000e+01,1.00000000000000000e+00,1.00000000000000000e+00,1.00000000000000000e+00,5.00000000000000000e+00,1.90000000000000000e+01,8.00000000000000000e+00,2.00000000000000000e+00,1.00000000000000000e+00,2.00000000000000000e+00,3.00000000000000000e+00,1.00000000000000000e+00,1.00000000000000000e+00,1.00000000000000000e+00,3.00000000000000000e+01,1.00000000000000000e+00,3.00000000000000000e+00,8.00000000000000000e+00,9.00000000000000000e+00,8.30000000000000000e+01,1.10000000000000000e+01,3.00000000000000000e+00,1.10000000000000000e+01,2.60000000000000000e+01,7.30000000000000000e+01,1.00000000000000000e+01,9.00000000000000000e+00,5.00000000000000000e+00,3.00000000000000000e+00,8.00000000000000000e+00,2.20000000000000000e+01,6.00000000000000000e+00,2.00000000000000000e+00,4.00000000000000000e+00,5.00000000000000000e+00,3.70000000000000000e+01,4.60000000000000000e+01,5.00000000000000000e+00,6.00000000000000000e+00,2.00000000000000000e+00,1.00000000000000000e+00,4.00000000000000000e+00,7.00000000000000000e+00,7.00000000000000000e+00,1.90000000000000000e+01,2.90000000000000000e+01,4.40000000000000000e+01],"tree_param":{"num_deleted":"0","num_feature":"12","num_nodes":"73","size_leaf_vector":"0"}},{"base_weights":[3.64995524287223816e-02,2.91616916656494141e-01,3.47244404256343842e-02,4.51950430870056152e-02,9.25943348556756973e-03,8.19487869739532471e-02,2.79870200902223587e-02,-3.38710248470306396e-02,3.94390262663364410e-02,5.55813051760196686e-02,2.02562525868415833e-01,-7.71855062339454889e-04,3.74104715883731842e-02,-9.31074246764183044e-02,-6.28925673663616180e-03,-1.93843916058540344e-02,6.25604540109634399e-02,3.16815860569477081e-02,1.35874062776565552e-01,6.18931770324707031e-01,1.08444258570671082e-01,2.24646087735891342e-02,-7.81409740447998047e-02,2.06233099102973938e-01,2.76850443333387375e-02,-2.53747198730707169e-02,-1.56611010432243347e-01,-1.87540296465158463e-02,7.00716972351074219e-02,7.31093902140855789e-03,