{"learner":{"attributes":{"scikit_learn":"{\"n_estimators\": 100, \"objective\": \"reg:squarederror\", \"max_depth\": null, \"learning_rate\": null, \"verbosity\": null, \"booster\": null, \"tree_method\": null, \"gamma\": null, \"min_child_weight\": null, \"max_delta_step\": null, \"subsample\": null, \"colsample_bytree\": null, \"colsample_bylevel\": null, \"colsample_bynode\": null, \"reg_alpha\": null, \"reg_lambda\": null, \"scale_pos_weight\": null, \"base_score\": null, \"missing\": NaN, \"num_parallel_tree\": null, \"kwargs\": {}, \"random_state\": null, \"n_jobs\": null, \"monotone_constraints\": null, \"interaction_constraints\": null, \"importance_type\": \"gain\", \"gpu_id\": null, \"validate_parameters\": null, \"type\": \"XGBRegressor\"}"},"gradient_booster":{"model":{"gbtree_model_param":{"num_trees":"100","size_leaf_vector":"0"},"tree_info":[0,0,0,0,0,0,0,0,0,0,0,0,0,0,0,0,0,0,0,0,0,0,0,0,0,0,0,0,0,0,0,0,0,0,0,0,0,0,0,0,0,0,0,0,0,0,0,0,0,0,0,0,0,0,0,0,0,0,0,0,0,0,0,0,0,0,0,0,0,0,0,0,0,0,0,0,0,0,0,0,0,0,0,0,0,0,0,0,0,0,0,0,0,0,0,0,0,0,0,0],"trees":[{"base_weights":[6.74055576324462891e+00,5.75863027572631836e+00,7.64249992370605469e+00],"default_left":[true,false,false],"id":0,"leaf_child_counts":[0,0,0],"left_children":[1,-1,-1],"loss_changes":[8.35219726562500000e+01,0.00000000000000000e+00,0.00000000000000000e+00],"parents":[2147483647,0,0],"right_children":[2,-1,-1],"split_conditions":[2.01550000000000000e+03,1.72758913040161133e+00,2.29275012016296387e+00],"split_indices":[1,0,0],"sum_hessian":[1.43000000000000000e+02,7.20000000000000000e+01,7.10000000000000000e+01],"tree_param":{"num_deleted":"0","num_feature":"12","num_nodes":"3","size_leaf_vector":"0"}},{"base_weights":[4.74630784988403320e+00,4.05470657348632813e+00,5.38159370422363281e+00,4.10068655014038086e+00,1.61494064331054688e+00],"default_left":[true,true,false,false,false],"id":1,"leaf_child_counts":[0,0,0,0,0],"left_children":[1,3,-1,-1,-1],"loss_changes":[4.14475097656250000e+01,1.56689453125000000e+00,0.00000000000000000e+00,0.00000000000000000e+00,0.00000000000000000e+00],"parents":[2147483647,0,0,1,1],"right_children":[2,4,-1,-1,-1],"split_conditions":[2.01550000000000000e+03,1.36500000000000000e+05,1.61447823047637939e+00,1.23020601272583008e+00,4.84482198953628540e-01],"split_indices":[1,2,0,0,0],"sum_hessian":[1.43000000000000000e+02,7.20000000000000000e+01,7.10000000000000000e+01,7.00000000000000000e+01,2.00000000000000000e+00],"tree_param":{"num_deleted":"0","num_feature":"12","num_nodes":"5","size_leaf_vector":"0"}},{"base_weights":[3.34553456306457520e+00,3.03985452651977539e+00,4.11822509765625000e+00,2.62450528144836426e+00,3.28828072547912598e+00],"default_left":[true,true,false,false,false],"id":2,"leaf_child_counts":[0,0,0,0,0],"left_children":[1,3,-1,-1,-1],"loss_changes":[2.14934082031250000e+01,2.41052246093750000e+00,0.00000000000000000e+00,0.00000000000000000e+00,0.00000000000000000e+00],"parents":[2147483647,0,0,1,1],"right_children":[2,4,-1,-1,-1],"split_conditions":[2.01650000000000000e+03,2.01450000000000000e+03,1.23546755313873291e+00,7.87351608276367188e-01,9.86484229564666748e-01],"split_indices":[1,1,0,0,0],"sum_hessian":[1.43000000000000000e+02,1.06000000000000000e+02,3.70000000000000000e+01,4.40000000000000000e+01,6.20000000000000000e+01],"tree_param":{"num_deleted":"0","num_feature":"12","num_nodes":"5","size_leaf_vector":"0"}},{"base_weights":[2.36277222633361816e+00,2.00883793830871582e+00,2.68880581855773926e+00,2.03581905364990234e+00,7.00673818588256836e-01,2.94306302070617676e+00,2.09308004379272461e+00,1.44694876670837402e+00,2.11966276168823242e+00],"default_left":[true,true,true,true,false,false,false,false,false],"id":3,"leaf_child_counts":[0,0,0,0,0,0,0,0,0],"left_children":[1,3,5,7,-1,-1,-1,-1,-1],"loss_changes":[1.12154541015625000e+01,1.15014648437500000e+00,4.74560546875000000e+00,4.38446044921875000e-01,0.00000000000000000e+00,0.00000000000000000e+00,0.00000000000000000e+00,0.00000000000000000e+00,0.00000000000000000e+00],"parents":[2147483647,0,0,1,1,2,2,3,3],"right_children":[2,4,6,8,-1,-1,-1,-1,-1],"split_conditions":[2.01550000000000000e+03,1.36500000000000000e+05,5.15930000000000000e+04,2.01250000000000000e+03,2.10202157497406006e-01,8.82918953895568848e-01,6.27924025058746338e-01,4.34084653854370117e-01,6.35898828506469727e-01],"split_indices":[1,2,2,1,0,0,0,0,0],"sum_hessian":[1.43000000000000000e+02,7.20000000000000000e+01,7.10000000000000000e+01,7.00000000000000000e+01,2.00000000000000000e+00,4.70000000000000000e+01,2.40000000000000000e+01,1.10000000000000000e+01,5.90000000000000000e+01],"tree_param":{"num_deleted":"0","num_feature":"12","num_nodes":"9","size_leaf_vector":"0"}},{"base_weights":[1.67332267761230469e+00,1.57684326171875000e+00,2.45657157897949219e+00,1.15665125846862793e+00,1.66028213500976563e+00,2.53443217277526855e+00,7.22192525863647461e-01,5.46614646911621094e-01,1.24681949615478516e+00,1.77822065353393555e+00,1.37828612327575684e+00,1.80231821537017822e+00,6.23201906681060791e-01,1.19904005527496338e+00,1.85576736927032471e+00,1.21975731849670410e+00,3.09477329254150391e-01],"default_left":[true,true,true,true,true,false,false,false,false,true,true,false,false,true,false,false,false],"id":4,"leaf_child_counts":[0,0,0,0,0,0,0,0,0,0,0,0,0,0,0,0,0],"left_children":[1,3,5,7,9,-1,-1,-1,-1,11,13,-1,-1,15,-1,-1,-1],"loss_changes":[7.00808715820312500e+00,2.67254638671875000e+00,6.02035522460937500e-02,6.93614959716796875e-01,1.10769653320312500e+00,0.00000000000000000e+00,0.00000000000000000e+00,0.00000000000000000e+00,0.00000000000000000e+00,8.80798339843750000e-01,8.55972290039062500e-01,0.00000000000000000e+00,0.00000000000000000e+00,1.56963348388671875e-01,0.00000000000000000e+00,0.00000000000000000e+00,0.00000000000000000e+00],"parents":[2147483647,0,0,1,1,2,2,3,3,4,4,9,9,10,10,13,13],"right_children":[2,4,6,8,10,-1,-1,-1,-1,12,14,-1,-1,16,-1,-1,-1],"split_conditions":[2.01750000000000000e+03,2.01350000000000000e+03,1.50000000000000000e+00,3.90105000000000000e+04,2.50000000000000000e+00,7.60329663753509521e-01,2.16657772660255432e-01,1.63984403014183044e-01,3.74045848846435547e-01,1.25500000000000000e+05,1.50000000000000000e+00,5.40695488452911377e-01,1.86960577964782715e-01,8.35960000000000000e+04,5.56730210781097412e-01,3.65927219390869141e-01,9.28432047367095947e-02],"split_indices":[1,1,5,2,3,0,0,0,0,2,4,0,0,2,0,0,0],"sum_hessian":[1.43000000000000000e+02,1.30000000000000000e+02,1.30000000000000000e+01,2.40000000000000000e+01,1.06000000000000000e+02,1.20000000000000000e+01,1.00000000000000000e+00,4.00000000000000000e+00,2.00000000000000000e+01,7.10000000000000000e+01,3.50000000000000000e+01,6.90000000000000000e+01,2.00000000000000000e+00,2.80000000000000000e+01,7.00000000000000000e+00,2.70000000000000000e+01,1.00000000000000000e+00],"tree_param":{"num_deleted":"0","num_feature":"12","num_nodes":"17","size_leaf_vector":"0"}},{"base_weights":[1.19395196437835693e+00,1.06349968910217285e+00,1.52985835075378418e+00,7.87351787090301514e-01,1.17600691318511963e+00,1.64672446250915527e+00,1.09330284595489502e+00,4.50984627008438110e-01,8.43323826789855957e-01,1.28564405441284180e+00,9.37540590763092041e-01,8.69818031787872314e-01,1.73996651172637939e+00,6.02119207382202148e-01,1.87103867530822754e-01,1.34498000144958496e+00,6.46128952503204346e-01,4.68079835176467896e-01,1.18615984916687012e+00,6.92953169345855713e-01,1.41253745555877686e+00,8.00053536891937256e-01,-9.02993232011795044e-02,1.66074562072753906e+00,7.76318013668060303e-01,7.55718588829040527e-01,1.89563035964965820e-01,1.66264355182647705e+00,1.04227256774902344e+00,3.86422462761402130e-02,-1.89141109585762024e-01,2.67561078071594238e-01,9.33656692504882813e-01],"default_left":[true,true,true,true,true,true,false,true,false,true,true,false,false,false,false,true,false,true,true,true,true,false,true,false,true,false,false,false,false,false,false,false,false],"id":5,"leaf_child_counts":[0,0,0,0,0,0,0,0,0,0,0,0,0,0,0,0,0,0,0,0,0,0,0,0,0,0,0,0,0,0,0,0,0],"left_children":[1,3,5,7,9,11,-1,13,-1,15,17,-1,-1,-1,-1,19,-1,21,23,25,27,-1,29,-1,31,-1,-1,-1,-1,-1,-1,-1,-1],"loss_changes":[4.68304443359375000e+00,2.39841461181640625e+00,1.38336181640625000e-01,2.59798049926757813e-01,7.29370117187500000e-01,5.14877319335937500e-01,0.00000000000000000e+00,1.66511774063110352e-01,0.00000000000000000e+00,9.52392578125000000e-01,2.59613990783691406e+00,0.00000000000000000e+00,0.00000000000000000e+00,0.00000000000000000e+00,0.00000000000000000e+00,9.15290832519531250e-01,0.00000000000000000e+00,2.11128354072570801e+00,2.01732063293457031e+00,4.63166236877441406e-02,1.78607940673828125e+00,0.00000000000000000e+00,7.10329115390777588e-02,0.00000000000000000e+00,6.30708694458007813e-01,0.00000000000000000e+00,0.00000000000000000e+00,0.00000000000000000e+00,0.00000000000000000e+00,0.00000000000000000e+00,0.00000000000000000e+00,0.00000000000000000e+00,0.00000000000000000e+00],"parents":[2147483647,0,0,1,1,2,2,3,3,4,4,5,5,7,7,9,9,10,10,15,15,17,17,18,18,19,19,20,20,22,22,24,24],"right_children":[2,4,6,8,10,12,-1,14,-1,16,18,-1,-1,-1,-1,20,-1,22,24,26,28,-1,30,-1,32,-1,-1,-1,-1,-1,-1,-1,-1],"split_conditions":[2.01650000000000000e+03,2.07500000000000000e+01,4.25290000000000000e+04,2.01350000000000000e+03,6.56090000000000000e+04,1.89050006866455078e+01,3.27990859746932983e-01,5.00000000000000000e+00,2.52997159957885742e-01,1.50000000000000000e+00,4.50000000000000000e+00,2.60945409536361694e-01,5.21990001201629639e-01,1.80635765194892883e-01,5.61311617493629456e-02,1.50000000000000000e+00,1.93838700652122498e-01,3.50000000000000000e+00,5.50000000000000000e+00,5.75000000000000000e+04,6.50000000000000000e+00,2.40016072988510132e-01,2.31199989318847656e+01,4.98223692178726196e-01,8.50000000000000000e+00,2.26715579628944397e-01,5.68689145147800446e-02,4.98793095350265503e-01,3.12681794166564941e-01,1.15926740691065788e-02,-5.67423366010189056e-02,8.02683234214782715e-02,2.80097007751464844e-01],"split_indices":[1,6,2,1,2,6,0,0,0,5,0,0,0,0,0,0,0,0,0,2,0,0,6,0,0,0,0,0,0,0,0,0,0],"sum_hessian":[1.43000000000000000e+02,1.06000000000000000e+02,3.70000000000000000e+01,3.30000000000000000e+01,7.30000000000000000e+01,2.70000000000000000e+01,1.00000000000000000e+01,6.00000000000000000e+00,2.70000000000000000e+01,4.70000000000000000e+01,2.60000000000000000e+01,4.00000000000000000e+00,2.30000000000000000e+01,3.00000000000000000e+00,3.00000000000000000e+00,4.20000000000000000e+01,5.00000000000000000e+00,1.00000000000000000e+01,1.60000000000000000e+01,5.00000000000000000e+00,3.70000000000000000e+01,6.00000000000000000e+00,4.00000000000000000e+00,6.00000000000000000e+00,1.00000000000000000e+01,4.00000000000000000e+00,1.00000000000000000e+00,2.00000000000000000e+01,1.70000000000000000e+01,2.00000000000000000e+00,2.00000000000000000e+00,3.00000000000000000e+00,7.00000000000000000e+00],"tree_param":{"num_deleted":"0","num_feature":"12","num_nodes":"33","size_leaf_vector":"0"}},{"base_weights":[8.63148689270019531e-01,8.04418683052062988e-01,1.35104012489318848e+00,9.15127336978912354e-01,6.53805911540985107e-01,3.51555109024047852e-01,1.40088093280792236e+00,7.19008743762969971e-01,1.24199521541595459e+00,4.24361079931259155e-01,7.69437015056610107e-01,1.45880949497222900e+00,3.52868795394897461e-01,9.60400223731994629e-01,5.55652081966400146e-01,1.53638863563537598e+00,7.70503997802734375e-01,6.22942149639129639e-01,6.83059170842170715e-02,9.18410837650299072e-01,5.31386315822601318e-01,5.46437561511993408e-01,1.23692655563354492e+00,7.51804351806640625e-01,-7.36506795510649681e-03,8.87290358543395996e-01,1.24381542205810547e-01,8.91760110855102539e-01,3.74514430761337280e-01,1.59003049135208130e-01,-1.66089370846748352e-01,9.77875053882598877e-01,2.15845897793769836e-01,1.45005345344543457e-01,6.03824734687805176e-01,1.63074016571044922e-01,5.73973774909973145e-01,3.63074064254760742e-01,1.29367971420288086e+00,2.18158408999443054e-01,7.92239308357238770e-01,-7.21223950386047363e-02,2.55346775054931641e-01,1.01976299285888672e+00,2.38266304135322571e-01,4.30103451013565063e-01,1.19968570768833160e-01,2.20510959625244141e-02,1.78153201937675476e-01,-2.16777801513671875e-01,-3.23562622070312500e-02,4.86533761024475098e-01,1.03596270084381104e+00,6.81159496307373047e-02,2.55652904510498047e-01],"default_left":[true,true,true,true,true,false,true,true,true,true,true,false,false,true,true,false,true,true,true,true,true,true,true,true,true,true,false,false,true,true,true,true,true,false,false,false,false,false,false,false,false,false,false,false,false,false,false,false,false,false,false,false,false,false,false],"id":6,"leaf_child_counts":[0,0,0,0,0,0,0,0,0,0,0,0,0,0,0,0,0,0,0,0,0,0,0,0,0,0,0,0,0,0,0,0,0,0,0,0,0,0,0,0,0,0,0,0,0,0,0,0,0,0,0,0,0,0,0],"left_children":[1,3,5,7,9,-1,11,13,15,17,19,-1,-1,21,23,-1,25,27,29,31,33,35,37,39,41,43,-1,-1,45,47,49,51,53,-1,-1,-1,-1,-1,-1,-1,-1,-1,-1,-1,-1,-1,-1,-1,-1,-1,-1,-1,-1,-1,-1],"loss_changes":[3.03935241699218750e+00,1.58599090576171875e+00,2.04925537109375000e-01,3.78665161132812500e+00,1.23880767822265625e+00,0.00000000000000000e+00,2.74459838867187500e-01,1.35913085937500000e+00,2.42510604858398438e+00,1.51297760009765625e+00,8.59575271606445313e-01,0.00000000000000000e+00,0.00000000000000000e+00,1.38458633422851563e+00,3.42908668518066406e+00,0.00000000000000000e+00,7.95136928558349609e-01,6.00968837738037109e-01,2.17739537358283997e-01,7.08032608032226563e-01,3.88252258300781250e-01,1.40714645385742188e-03,2.62365341186523438e-02,3.23459625244140625e-01,1.71528875827789307e-01,6.16804599761962891e-01,0.00000000000000000e+00,0.00000000000000000e+00,7.57507085800170898e-02,1.44300758838653564e-02,1.33220404386520386e-02,6.67877197265625000e-02,2.28017568588256836e-04,0.00000000000000000e+00,0.00000000000000000e+00,0.00000000000000000e+00,0.00000000000000000e+00,0.00000000000000000e+00,0.00000000000000000e+00,0.00000000000000000e+00,0.00000000000000000e+00,0.00000000000000000e+00,0.00000000000000000e+00,0.00000000000000000e+00,0.00000000000000000e+00,0.00000000000000000e+00,0.00000000000000000e+00,0.00000000000000000e+00,0.00000000000000000e+00,0.00000000000000000e+00,0.00000000000000000e+00,0.00000000000000000e+00,0.00000000000000000e+00,0.00000000000000000e+00,0.00000000000000000e+00],"parents":[2147483647,0,0,1,1,2,2,3,3,4,4,6,6,7,7,8,8,9,9,10,10,13,13,14,14,16,16,17,17,18,18,19,19,20,20,21,21,22,22,23,23,24,24,25,25,28,28,29,29,30,30,31,31,32,32],"right_children":[2,4,6,8,10,-1,12,14,16,18,20,-1,-1,22,24,-1,26,28,30,32,34,36,38,40,42,44,-1,-1,46,48,50,52,54,-1,-1,-1,-1,-1,-1,-1,-1,-1,-1,-1,-1,-1,-1,-1,-1,-1,-1,-1,-1,-1,-1],"split_conditions":[2.01750000000000000e+03,6.50000000000000000e+00,1.83750000000000000e+01,4.50000000000000000e+00,8.50000000000000000e+00,1.05466537177562714e-01,1.50000000000000000e+00,4.14050000000000000e+04,5.50000000000000000e+00,7.50000000000000000e+00,2.50000000000000000e+00,4.37642872333526611e-01,1.05860643088817596e-01,2.57320000000000000e+04,3.50000000000000000e+00,4.60916608572006226e-01,2.50000000000000000e+00,2.01550000000000000e+03,2.34899997711181641e+01,1.25500000000000000e+05,2.01350000000000000e+03,2.01300000000000000e+03,1.00000000000000000e+00,4.35000000000000000e+04,2.01650000000000000e+03,7.41090000000000000e+04,3.73144634068012238e-02,2.67528057098388672e-01,4.40300000000000000e+04,2.01250000000000000e+03,4.82720000000000000e+04,2.01250000000000000e+03,2.01400000000000000e+03,4.35016043484210968e-02,1.81147426366806030e-01,4.89222072064876556e-02,1.72192141413688660e-01,1.08922220766544342e-01,3.88103932142257690e-01,6.54475241899490356e-02,2.37671807408332825e-01,-2.16367188841104507e-02,7.66040384769439697e-02,3.05928915739059448e-01,7.14798942208290100e-02,1.29031047224998474e-01,3.59905734658241272e-02,6.61532906815409660e-03,5.34459613263607025e-02,-6.50333464145660400e-02,-9.70687903463840485e-03,1.45960137248039246e-01,3.10788810253143311e-01,2.04347856342792511e-02,7.66958743333816528e-02],"split_indices":[1,0,6,0,0,0,5,2,0,0,3,0,0,2,0,0,3,1,6,2,1,1,0,2,1,2,0,0,2,1,2,1,1,0,0,0,0,0,0,0,0,0,0,0,0,0,0,0,0,0,0,0,0,0,0],"sum_hessian":[1.43000000000000000e+02,1.30000000000000000e+02,1.30000000000000000e+01,7.20000000000000000e+01,5.80000000000000000e+01,1.00000000000000000e+00,1.20000000000000000e+01,4.70000000000000000e+01,2.50000000000000000e+01,2.10000000000000000e+01,3.70000000000000000e+01,1.10000000000000000e+01,1.00000000000000000e+00,1.70000000000000000e+01,3.00000000000000000e+01,1.40000000000000000e+01,1.10000000000000000e+01,1.30000000000000000e+01,8.00000000000000000e+00,2.10000000000000000e+01,1.60000000000000000e+01,8.00000000000000000e+00,9.00000000000000000e+00,2.20000000000000000e+01,8.00000000000000000e+00,9.00000000000000000e+00,2.00000000000000000e+00,5.00000000000000000e+00,8.00000000000000000e+00,6.00000000000000000e+00,2.00000000000000000e+00,1.90000000000000000e+01,2.00000000000000000e+00,3.00000000000000000e+00,1.30000000000000000e+01,1.00000000000000000e+00,7.00000000000000000e+00,1.00000000000000000e+00,8.00000000000000000e+00,2.00000000000000000e+00,2.00000000000000000e+01,7.00000000000000000e+00,1.00000000000000000e+00,7.00000000000000000e+00,2.00000000000000000e+00,6.00000000000000000e+00,2.00000000000000000e+00,1.00000000000000000e+00,5.00000000000000000e+00,1.00000000000000000e+00,1.00000000000000000e+00,3.00000000000000000e+00,1.60000000000000000e+01,1.00000000000000000e+00,1.00000000000000000e+00],"tree_param":{"num_deleted":"0","num_feature":"12","num_nodes":"55","size_leaf_vector":"0"}},{"base_weights":[6.30573809146881104e-01,5.87125658988952637e-01,9.92083251476287842e-01,6.67327046394348145e-01,4.77942109107971191e-01,2.57211685180664063e-01,1.02882635593414307e+00,5.25727450847625732e-01,9.03075218200683594e-01,3.16046863794326782e-01,5.59093534946441650e-01,1.13342547416687012e+00,5.10122060775756836e-01,6.54439032077789307e-01,3.29077452421188354e-01,9.95052680373191833e-02,9.65893328189849854e-01,4.66955840587615967e-01,4.61832694709300995e-02,3.88072073459625244e-01,6.79059863090515137e-01,1.19270861148834229e+00,2.99938440322875977e-01,7.11682200431823730e-01,1.33059382438659668e-01,4.44005787372589111e-01,3.57913970947265625e-02,3.13580036163330078e-02,1.17899894714355469e-01,1.17939198017120361e+00,6.54112040996551514e-01,6.68820083141326904e-01,2.80495703220367432e-01,1.19882449507713318e-01,-1.41175910830497742e-01,5.42179763317108154e-01,2.65836566686630249e-01,7.07222998142242432e-01,5.78985214233398438e-02,4.07074600458145142e-01,8.31081390380859375e-01,2.75104522705078125e-01,-1.46538019180297852e-01,2.33011171221733093e-01,5.58778703212738037e-01,1.27789974212646484e-01,-1.29470035433769226e-01,1.44241020083427429e-01,7.41662144660949707e-01,3.27067375183105469e-02,3.07380974292755127e-01,1.87435150146484375e-02,1.33615016937255859e-01,-1.84261083602905273e-01,-2.75027751922607422e-02,1.03575706481933594e-01,5.98017871379852295e-01,1.31665868684649467e-02,3.15053880214691162e-01],"default_left":[true,true,true,true,true,false,true,true,true,true,true,true,false,true,true,true,true,true,true,true,true,false,false,true,true,true,true,false,false,false,true,false,true,true,true,true,true,false,false,false,false,false,false,false,false,false,false,false,false,false,false,false,false,false,false,false,false,false,false],"id":7,"leaf_child_counts":[0,0,0,0,0,0,0,0,0,0,0,0,0,0,0,0,0,0,0,0,0,0,0,0,0,0,0,0,0,0,0,0,0,0,0,0,0,0,0,0,0,0,0,0,0,0,0,0,0,0,0,0,0,0,0,0,0,0,0],"left_children":[1,3,5,7,9,-1,11,13,15,17,19,21,-1,23,25,27,29,31,33,35,37,-1,-1,39,41,43,45,-1,-1,-1,47,-1,49,51,53,55,57,-1,-1,-1,-1,-1,-1,-1,-1,-1,-1,-1,-1,-1,-1,-1,-1,-1,-1,-1,-1,-1,-1],"loss_changes":[1.67931747436523438e+00,8.28182220458984375e-01,1.13393783569335938e-01,1.96210098266601563e+00,5.98444938659667969e-01,0.00000000000000000e+00,1.27142906188964844e-01,9.99571800231933594e-01,1.21633529663085938e+00,8.74380826950073242e-01,5.16115188598632813e-01,1.36378288269042969e-01,0.00000000000000000e+00,7.40976333618164063e-01,6.91952705383300781e-01,6.35273754596710205e-05,8.26101303100585938e-01,3.39353561401367188e-01,1.41198471188545227e-01,1.94942712783813477e-01,3.26423645019531250e-01,0.00000000000000000e+00,0.00000000000000000e+00,5.70934295654296875e-01,1.99175059795379639e-01,2.33045339584350586e-01,1.22971691191196442e-01,0.00000000000000000e+00,0.00000000000000000e+00,0.00000000000000000e+00,4.28693294525146484e-01,0.00000000000000000e+00,4.99034523963928223e-02,7.21786916255950928e-03,9.62518900632858276e-03,1.09495401382446289e-01,1.45080685615539551e-01,0.00000000000000000e+00,0.00000000000000000e+00,0.00000000000000000e+00,0.00000000000000000e+00,0.00000000000000000e+00,0.00000000000000000e+00,0.00000000000000000e+00,0.00000000000000000e+00,0.00000000000000000e+00,0.00000000000000000e+00,0.00000000000000000e+00,0.00000000000000000e+00,0.00000000000000000e+00,0.00000000000000000e+00,0.00000000000000000e+00,0.00000000000000000e+00,0.00000000000000000e+00,0.00000000000000000e+00,0.00000000000000000e+00,0.00000000000000000e+00,0.00000000000000000e+00,0.00000000000000000e+00],"parents":[2147483647,0,0,1,1,2,2,3,3,4,4,6,6,7,7,8,8,9,9,10,10,11,11,13,13,14,14,15,15,16,16,17,17,18,18,19,19,20,20,23,23,24,24,25,25,26,26,30,30,32,32,33,33,34,34,35,35,36,36],"right_children":[2,4,6,8,10,-1,12,14,16,18,20,22,-1,24,26,28,30,32,34,36,38,-1,-1,40,42,44,46,-1,-1,-1,48,-1,50,52,54,56,58,-1,-1,-1,-1,-1,-1,-1,-1,-1,-1,-1,-1,-1,-1,-1,-1,-1,-1,-1,-1,-1,-1],"split_conditions":[2.01750000000000000e+03,6.50000000000000000e+00,9.17950000000000000e+03,4.50000000000000000e+00,8.50000000000000000e+00,7.71635100245475769e-02,6.00000000000000000e+00,5.40425000000000000e+04,1.75699996948242188e+01,7.50000000000000000e+00,2.07500000000000000e+01,1.50000000000000000e+00,1.53036624193191528e-01,1.50000000000000000e+00,3.50000000000000000e+00,7.26995000000000000e+04,6.07660000000000000e+04,2.01550000000000000e+03,2.34899997711181641e+01,3.28850000000000000e+04,1.49000000000000000e+05,3.57812583446502686e-01,8.99815335869789124e-02,2.57320000000000000e+04,4.40830000000000000e+04,6.77215000000000000e+04,6.75000000000000000e+04,9.40740108489990234e-03,3.53699699044227600e-02,3.53817611932754517e-01,6.39545000000000000e+04,2.00646027922630310e-01,3.28825000000000000e+04,2.01250000000000000e+03,4.82720000000000000e+04,2.01300000000000000e+03,4.38690000000000000e+04,2.12166905403137207e-01,1.73695571720600128e-02,1.22122384607791901e-01,2.49324426054954529e-01,8.25313627719879150e-02,-4.39614057540893555e-02,6.99033513665199280e-02,1.67633622884750366e-01,3.83369922637939453e-02,-3.88410128653049469e-02,4.32723090052604675e-02,2.22498655319213867e-01,9.81202162802219391e-03,9.22142937779426575e-02,5.62305469065904617e-03,4.00845073163509369e-02,-5.52783273160457611e-02,-8.25083255767822266e-03,3.10727134346961975e-02,1.79405361413955688e-01,3.94997606053948402e-03,9.45161655545234680e-02],"split_indices":[1,0,2,0,0,0,9,2,6,0,6,5,0,5,0,2,2,1,6,2,2,0,0,2,2,2,2,0,0,0,2,0,2,1,2,1,2,0,0,0,0,0,0,0,0,0,0,0,0,0,0,0,0,0,0,0,0,0,0],"sum_hessian":[1.43000000000000000e+02,1.30000000000000000e+02,1.30000000000000000e+01,7.20000000000000000e+01,5.80000000000000000e+01,1.00000000000000000e+00,1.20000000000000000e+01,4.70000000000000000e+01,2.50000000000000000e+01,2.10000000000000000e+01,3.70000000000000000e+01,9.00000000000000000e+00,3.00000000000000000e+00,2.70000000000000000e+01,2.00000000000000000e+01,2.00000000000000000e+00,2.30000000000000000e+01,1.30000000000000000e+01,8.00000000000000000e+00,1.70000000000000000e+01,2.00000000000000000e+01,8.00000000000000000e+00,1.00000000000000000e+00,2.40000000000000000e+01,3.00000000000000000e+00,1.40000000000000000e+01,6.00000000000000000e+00,1.00000000000000000e+00,1.00000000000000000e+00,1.20000000000000000e+01,1.10000000000000000e+01,5.00000000000000000e+00,8.00000000000000000e+00,6.00000000000000000e+00,2.00000000000000000e+00,6.00000000000000000e+00,1.10000000000000000e+01,1.90000000000000000e+01,1.00000000000000000e+00,8.00000000000000000e+00,1.60000000000000000e+01,2.00000000000000000e+00,1.00000000000000000e+00,6.00000000000000000e+00,8.00000000000000000e+00,4.00000000000000000e+00,2.00000000000000000e+00,2.00000000000000000e+00,9.00000000000000000e+00,1.00000000000000000e+00,7.00000000000000000e+00,1.00000000000000000e+00,5.00000000000000000e+00,1.00000000000000000e+00,1.00000000000000000e+00,1.00000000000000000e+00,5.00000000000000000e+00,2.00000000000000000e+00,9.00000000000000000e+00],"tree_param":{"num_deleted":"0","num_feature":"12","num_nodes":"59","size_leaf_vector":"0"}},{"base_weights":[4.60934579372406006e-01,4.27283763885498047e-01,7.42886245250701904e-01,5.00798404216766357e-01,3.56066703796386719e-01,2.18629837036132813e-01,7.66395986080169678e-01,3.81489485502243042e-01,8.49200546741485596e-01,1.47587180137634277e-01,3.76888453960418701e-01,8.38177025318145752e-01,3.95344376564025879e-01,5.42504370212554932e-01,2.75690823793411255e-01,1.32541656494140625e-01,8.90923202037811279e-01,5.26291131973266602e-02,1.94036200642585754e-01,2.96326130628585815e-01,4.45673018693923950e-01,3.94348114728927612e-01,9.62464332580566406e-01,3.83429497480392456e-01,-3.02736498415470123e-02,9.74691510200500488e-01,4.37829494476318359e-01,8.80393981933593750e-02,1.14792184904217720e-02,2.17938423156738281e-01,4.92136478424072266e-02,3.69646668434143066e-01,3.01586985588073730e-02,5.60348629951477051e-01,3.25350403785705566e-01,1.61435917019844055e-01,4.17762607336044312e-01,1.64189070463180542e-01,4.51150298118591309e-01,-8.35269093513488770e-02,1.97876214981079102e-01,1.06692314147949219e+00,3.73099654912948608e-01,1.59320831298828125e-02,1.28674507141113281e-03,4.05176997184753418e-01,8.18181037902832031e-02,1.00211381912231445e-01,-1.19999565184116364e-01,6.03465259075164795e-01,1.86727046966552734e-01,4.40923571586608887e-01,2.11719855666160583e-01],"default_left":[true,true,true,true,true,false,true,true,true,true,true,false,false,true,true,false,true,true,true,true,true,true,false,true,true,true,false,false,true,false,false,true,true,true,true,false,false,false,false,false,false,false,false,false,false,false,false,false,false,false,false,false,false],"id":8,"leaf_child_counts":[0,0,0,0,0,0,0,0,0,0,0,0,0,0,0,0,0,0,0,0,0,0,0,0,0,0,0,0,0,0,0,0,0,0,0,0,0,0,0,0,0,0,0,0,0,0,0,0,0,0,0,0,0],"left_children":[1,3,5,7,9,-1,11,13,15,17,19,-1,-1,21,23,-1,25,27,29,31,33,35,-1,37,39,41,-1,-1,43,-1,-1,45,47,49,51,-1,-1,-1,-1,-1,-1,-1,-1,-1,-1,-1,-1,-1,-1,-1,-1,-1,-1],"loss_changes":[1.04883384704589844e+00,5.07534027099609375e-01,4.99534606933593750e-03,2.25322246551513672e+00,2.48239517211914063e-01,0.00000000000000000e+00,1.48792266845703125e-02,6.68124198913574219e-01,3.30429077148437500e-01,2.50737220048904419e-02,2.17046737670898438e-01,0.00000000000000000e+00,0.00000000000000000e+00,7.40408420562744141e-01,1.03349804878234863e+00,0.00000000000000000e+00,1.04619979858398438e-01,4.81789372861385345e-03,6.58236443996429443e-03,6.13349199295043945e-01,2.59228229522705078e-01,1.43606662750244141e-02,0.00000000000000000e+00,2.67410278320312500e-01,1.25875502824783325e-01,2.12274551391601563e-01,0.00000000000000000e+00,0.00000000000000000e+00,1.15656584966927767e-04,0.00000000000000000e+00,0.00000000000000000e+00,2.22515344619750977e-01,9.61772352457046509e-02,1.28956317901611328e-01,1.43035292625427246e-01,0.00000000000000000e+00,0.00000000000000000e+00,0.00000000000000000e+00,0.00000000000000000e+00,0.00000000000000000e+00,0.00000000000000000e+00,0.00000000000000000e+00,0.00000000000000000e+00,0.00000000000000000e+00,0.00000000000000000e+00,0.00000000000000000e+00,0.00000000000000000e+00,0.00000000000000000e+00,0.00000000000000000e+00,0.00000000000000000e+00,0.00000000000000000e+00,0.00000000000000000e+00,0.00000000000000000e+00],"parents":[2147483647,0,0,1,1,2,2,3,3,4,4,6,6,7,7,8,8,9,9,10,10,13,13,14,14,16,16,17,17,18,18,19,19,20,20,21,21,23,23,24,24,25,25,28,28,31,31,32,32,33,33,34,34],"right_children":[2,4,6,8,10,-1,12,14,16,18,20,-1,-1,22,24,-1,26,28,30,32,34,36,-1,38,40,42,-1,-1,44,-1,-1,46,48,50,52,-1,-1,-1,-1,-1,-1,-1,-1,-1,-1,-1,-1,-1,-1,-1,-1,-1,-1],"split_conditions":[2.01750000000000000e+03,5.50000000000000000e+00,9.17950000000000000e+03,4.50000000000000000e+00,2.01250000000000000e+03,6.55889511108398438e-02,6.00000000000000000e+00,4.14050000000000000e+04,2.01250000000000000e+03,5.77505000000000000e+04,8.50000000000000000e+00,2.51453131437301636e-01,1.18603318929672241e-01,3.92500000000000000e+04,3.50000000000000000e+00,3.97624969482421875e-02,2.71499996185302734e+01,3.15460000000000000e+04,1.36500000000000000e+05,7.50000000000000000e+00,1.31050000000000000e+03,1.72925000000000000e+04,2.88739323616027832e-01,5.00000000000000000e-01,2.01650000000000000e+03,1.02950000000000000e+05,1.31348848342895508e-01,2.64118202030658722e-02,8.50000000000000000e+00,6.53815269470214844e-02,1.47640947252511978e-02,7.41090000000000000e+04,2.34899997711181641e+01,1.13000000000000000e+05,3.28850000000000000e+04,4.84307780861854553e-02,1.25328794121742249e-01,4.92567233741283417e-02,1.35345101356506348e-01,-2.50580739229917526e-02,5.93628659844398499e-02,3.20076942443847656e-01,1.11929900944232941e-01,4.77962521836161613e-03,3.86023544706404209e-04,1.21553100645542145e-01,2.45454329997301102e-02,3.00634149461984634e-02,-3.59998717904090881e-02,1.81039586663246155e-01,5.60181178152561188e-02,1.32277071475982666e-01,6.35159611701965332e-02],"split_indices":[1,0,2,0,1,0,9,2,1,2,0,0,0,2,0,0,6,2,2,0,7,2,0,0,1,2,0,0,0,0,0,2,6,2,2,0,0,0,0,0,0,0,0,0,0,0,0,0,0,0,0,0,0],"sum_hessian":[1.43000000000000000e+02,1.30000000000000000e+02,1.30000000000000000e+01,6.10000000000000000e+01,6.90000000000000000e+01,1.00000000000000000e+00,1.20000000000000000e+01,4.70000000000000000e+01,1.40000000000000000e+01,7.00000000000000000e+00,6.20000000000000000e+01,9.00000000000000000e+00,3.00000000000000000e+00,1.70000000000000000e+01,3.00000000000000000e+01,1.00000000000000000e+00,1.30000000000000000e+01,3.00000000000000000e+00,4.00000000000000000e+00,3.10000000000000000e+01,3.10000000000000000e+01,1.40000000000000000e+01,3.00000000000000000e+00,2.20000000000000000e+01,8.00000000000000000e+00,1.00000000000000000e+01,3.00000000000000000e+00,1.00000000000000000e+00,2.00000000000000000e+00,3.00000000000000000e+00,1.00000000000000000e+00,2.40000000000000000e+01,7.00000000000000000e+00,1.40000000000000000e+01,1.70000000000000000e+01,2.00000000000000000e+00,1.20000000000000000e+01,6.00000000000000000e+00,1.60000000000000000e+01,7.00000000000000000e+00,1.00000000000000000e+00,8.00000000000000000e+00,2.00000000000000000e+00,1.00000000000000000e+00,1.00000000000000000e+00,2.10000000000000000e+01,3.00000000000000000e+00,5.00000000000000000e+00,2.00000000000000000e+00,1.20000000000000000e+01,2.00000000000000000e+00,7.00000000000000000e+00,1.00000000000000000e+01],"tree_param":{"num_deleted":"0","num_feature":"12","num_nodes":"53","size_leaf_vector":"0"}},{"base_weights":[3.39354872703552246e-01,3.14131110906600952e-01,5.51137685775756836e-01,1.91878795623779297e-01,3.39758932590484619e-01,5.73652684688568115e-01,1.29221200942993164e-01,4.26020622253417969e-02,2.10298255085945129e-01,2.72415965795516968e-01,4.23139482736587524e-01,2.32275962829589844e-01,6.14605188369750977e-01,9.07824859023094177e-02,-5.09696006774902344e-02,2.34102308750152588e-01,8.25440436601638794e-02,2.28167474269866943e-01,5.87487399578094482e-01,3.41413795948028564e-01,5.55036723613739014e-01,6.91886305809020996e-01,3.06391716003417969e-01,1.48873329162597656e-02,1.21286392211914063e-01,3.12670171260833740e-01,1.55680000782012939e-01,1.06369137763977051e-01,-6.37817382812500000e-03,3.02916258573532104e-01,1.58114716410636902e-01,3.50234508514404297e-02,6.73727512359619141e-01,2.21347585320472717e-01,4.27271425724029541e-01,7.93609440326690674e-01,3.74448269605636597e-01,8.33902359008789063e-02,3.52928787469863892e-01,1.35421752929687500e-02,3.53468149900436401e-01,-9.05888900160789490e-02,2.20471858978271484e-01,6.24836087226867676e-02,3.88208091259002686e-01,-2.55590111017227173e-01,1.95459529757499695e-01,5.75124435126781464e-02,2.97513902187347412e-01,2.93131172657012939e-01,5.77024459838867188e-01,3.04954051971435547e-02,4.05793994665145874e-01],"default_left":[true,true,true,true,true,true,false,true,true,true,true,false,true,true,false,true,true,true,true,true,true,false,true,false,false,true,true,false,false,true,true,false,false,true,true,false,true,false,false,false,false,false,false,false,false,false,false,false,false,false,false,false,false],"id":9,"leaf_child_counts":[0,0,0,0,0,0,0,0,0,0,0,0,0,0,0,0,0,0,0,0,0,0,0,0,0,0,0,0,0,0,0,0,0,0,0,0,0,0,0,0,0,0,0,0,0,0,0,0,0,0,0,0,0],"left_children":[1,3,5,7,9,11,-1,13,15,17,19,-1,21,23,-1,25,27,29,31,33,35,-1,37,-1,-1,39,41,-1,-1,43,45,-1,-1,47,49,-1,51,-1,-1,-1,-1,-1,-1,-1,-1,-1,-1,-1,-1,-1,-1,-1,-1],"loss_changes":[5.96113204956054688e-01,3.45238685607910156e-01,5.88641166687011719e-02,5.97807765007019043e-02,4.85545158386230469e-01,3.89847755432128906e-02,0.00000000000000000e+00,2.26604342460632324e-02,4.75797653198242188e-02,7.30323314666748047e-01,3.06355476379394531e-01,0.00000000000000000e+00,5.00216484069824219e-02,5.13966567814350128e-03,0.00000000000000000e+00,6.22299909591674805e-02,1.12713426351547241e-02,2.45340585708618164e-01,3.09915542602539063e-01,2.24991083145141602e-01,3.92169952392578125e-01,0.00000000000000000e+00,1.20805203914642334e-02,0.00000000000000000e+00,0.00000000000000000e+00,9.28438305854797363e-02,1.95490688085556030e-01,0.00000000000000000e+00,0.00000000000000000e+00,5.08924007415771484e-01,5.28899192810058594e-01,0.00000000000000000e+00,0.00000000000000000e+00,1.70070052146911621e-01,1.72350645065307617e-01,0.00000000000000000e+00,1.06221199035644531e-01,0.00000000000000000e+00,0.00000000000000000e+00,0.00000000000000000e+00,0.00000000000000000e+00,0.00000000000000000e+00,0.00000000000000000e+00,0.00000000000000000e+00,0.00000000000000000e+00,0.00000000000000000e+00,0.00000000000000000e+00,0.00000000000000000e+00,0.00000000000000000e+00,0.00000000000000000e+00,0.00000000000000000e+00,0.00000000000000000e+00,0.00000000000000000e+00],"parents":[2147483647,0,0,1,1,2,2,3,3,4,4,5,5,7,7,8,8,9,9,10,10,12,12,13,13,15,15,16,16,17,17,18,18,19,19,20,20,22,22,25,25,26,26,29,29,30,30,33,33,34,34,36,36],"right_children":[2,4,6,8,10,12,-1,14,16,18,20,-1,22,24,-1,26,28,30,32,34,36,-1,38,-1,-1,40,42,-1,-1,44,46,-1,-1,48,50,-1,52,-1,-1,-1,-1,-1,-1,-1,-1,-1,-1,-1,-1,-1,-1,-1,-1],"split_conditions":[2.01750000000000000e+03,2.01350000000000000e+03,1.50000000000000000e+00,5.00000000000000000e-01,6.00000000000000000e+00,1.22875000000000000e+04,3.87663617730140686e-02,2.01250000000000000e+03,2.50000000000000000e+00,1.50000000000000000e+00,2.26450004577636719e+01,6.96827918291091919e-02,6.00000000000000000e+00,2.65010000000000000e+04,-1.52908805757761002e-02,6.55005000000000000e+04,9.50000000000000000e+00,4.11085000000000000e+04,2.01450000000000000e+03,8.87799987792968750e+01,5.39890000000000000e+04,2.07565903663635254e-01,8.00000000000000000e+00,4.46620024740695953e-03,3.63859198987483978e-02,3.90105000000000000e+04,7.25000000000000000e+04,3.19107435643672943e-02,-1.91345217172056437e-03,2.01550000000000000e+03,4.24810000000000000e+04,1.05070360004901886e-02,2.02118262648582458e-01,5.50000000000000000e+00,5.91225000000000000e+04,2.38082841038703918e-01,5.85805000000000000e+04,2.50170715153217316e-02,1.05878643691539764e-01,4.06265258789062500e-03,1.06040447950363159e-01,-2.71766688674688339e-02,6.61415606737136841e-02,1.87450833618640900e-02,1.16462431848049164e-01,-7.66770392656326294e-02,5.86378611624240875e-02,1.72537341713905334e-02,8.92541706562042236e-02,8.79393517971038818e-02,1.73107340931892395e-01,9.14862193167209625e-03,1.21738202869892120e-01],"split_indices":[1,1,5,0,9,2,0,1,3,4,6,0,9,2,0,2,0,2,1,8,2,0,0,0,0,2,2,0,0,1,2,0,0,0,2,0,2,0,0,0,0,0,0,0,0,0,0,0,0,0,0,0,0],"sum_hessian":[1.43000000000000000e+02,1.30000000000000000e+02,1.30000000000000000e+01,2.40000000000000000e+01,1.06000000000000000e+02,1.20000000000000000e+01,1.00000000000000000e+00,3.00000000000000000e+00,2.10000000000000000e+01,6.10000000000000000e+01,4.50000000000000000e+01,2.00000000000000000e+00,1.00000000000000000e+01,2.00000000000000000e+00,1.00000000000000000e+00,1.70000000000000000e+01,4.00000000000000000e+00,5.50000000000000000e+01,6.00000000000000000e+00,3.00000000000000000e+01,1.50000000000000000e+01,7.00000000000000000e+00,3.00000000000000000e+00,1.00000000000000000e+00,1.00000000000000000e+00,7.00000000000000000e+00,1.00000000000000000e+01,3.00000000000000000e+00,1.00000000000000000e+00,2.50000000000000000e+01,3.00000000000000000e+01,1.00000000000000000e+00,5.00000000000000000e+00,1.40000000000000000e+01,1.60000000000000000e+01,5.00000000000000000e+00,1.00000000000000000e+01,1.00000000000000000e+00,2.00000000000000000e+00,1.00000000000000000e+00,6.00000000000000000e+00,2.00000000000000000e+00,8.00000000000000000e+00,7.00000000000000000e+00,1.80000000000000000e+01,2.00000000000000000e+00,2.80000000000000000e+01,5.00000000000000000e+00,9.00000000000000000e+00,1.00000000000000000e+01,6.00000000000000000e+00,1.00000000000000000e+00,9.00000000000000000e+00],"tree_param":{"num_deleted":"0","num_feature":"12","num_nodes":"53","size_leaf_vector":"0"}},{"base_weights":[2.49477893114089966e-01,4.81291979551315308e-01,2.32302859425544739e-01,2.15827271342277527e-01,6.50498270988464355e-01,2.63894498348236084e-01,1.64756312966346741e-01,1.58886015415191650e-01,2.97075510025024414e-01,-1.86141859740018845e-02,2.03850463032722473e-01,2.46041461825370789e-01,6.62128403782844543e-02,2.36188620328903198e-01,4.31394577026367188e-01,2.82649304717779160e-02,-1.21794067323207855e-01,2.60463982820510864e-01,1.18594706058502197e-01,3.62117290496826172e-02,3.11961174011230469e-01,1.77697658538818359e-01,1.49976257234811783e-02,1.95037692785263062e-01,4.55231666564941406e-01,7.79004096984863281e-01,3.24227958917617798e-01,-3.92258167266845703e-03,5.33862113952636719e-02,-1.47994518280029297e-01,-3.46965789794921875e-02,3.09962093830108643e-01,1.10116347670555115e-01,1.51219516992568970e-01,1.00512504577636719e-02,7.71651268005371094e-02,-4.33242321014404297e-02,3.38467001914978027e-01,4.99572753906250000e-02,-9.02443900704383850e-02,1.00199699401855469e-01,2.99702733755111694e-01,1.21913872659206390e-01,1.09838008880615234e-01,4.94490951299667358e-01,3.50344598293304443e-01,-4.68192100524902344e-02,2.71935462951660156e-02,-4.86354827880859375e-02,6.51071891188621521e-02,9.11164283752441406e-03,3.32321554422378540e-01,1.02297306060791016e-01,3.03679704666137695e-02,1.62335634231567383e-01,1.09176635742187500e-01,2.18521833419799805e-01,-5.88814429938793182e-02,7.56335258483886719e-02],"default_left":[true,true,true,false,false,true,true,true,true,true,true,true,true,true,true,true,true,true,true,true,true,false,true,true,true,false,true,true,true,false,false,true,true,true,true,false,false,false,false,false,false,false,false,false,false,false,false,false,false,false,false,false,false,false,false,false,false,false,false],"id":10,"leaf_child_counts":[0,0,0,0,0,0,0,0,0,0,0,0,0,0,0,0,0,0,0,0,0,0,0,0,0,0,0,0,0,0,0,0,0,0,0,0,0,0,0,0,0,0,0,0,0,0,0,0,0,0,0,0,0,0,0,0,0,0,0],"left_children":[1,3,5,-1,-1,7,9,11,13,15,17,19,21,23,25,27,29,31,33,35,37,-1,39,41,43,-1,45,47,49,-1,-1,51,53,55,57,-1,-1,-1,-1,-1,-1,-1,-1,-1,-1,-1,-1,-1,-1,-1,-1,-1,-1,-1,-1,-1,-1,-1,-1],"loss_changes":[4.61518287658691406e-01,2.63869285583496094e-01,2.46732711791992188e-01,0.00000000000000000e+00,0.00000000000000000e+00,2.69869327545166016e-01,3.33555459976196289e-01,1.77556276321411133e-01,4.54231739044189453e-01,4.69753332436084747e-02,1.52522206306457520e-01,1.54686331748962402e-01,7.15612992644309998e-02,3.52890014648437500e-01,4.92468118667602539e-01,5.86955249309539795e-03,1.71107426285743713e-03,1.29590392112731934e-01,5.86806386709213257e-02,1.63721926510334015e-02,4.55927848815917969e-02,0.00000000000000000e+00,9.87108349800109863e-02,2.92562842369079590e-01,4.06055450439453125e-02,0.00000000000000000e+00,1.81141376495361328e-01,6.88774045556783676e-03,1.48253049701452255e-03,0.00000000000000000e+00,0.00000000000000000e+00,4.02967929840087891e-02,2.42210254073143005e-02,1.29270851612091064e-02,2.70572267472743988e-02,0.00000000000000000e+00,0.00000000000000000e+00,0.00000000000000000e+00,0.00000000000000000e+00,0.00000000000000000e+00,0.00000000000000000e+00,0.00000000000000000e+00,0.00000000000000000e+00,0.00000000000000000e+00,0.00000000000000000e+00,0.00000000000000000e+00,0.00000000000000000e+00,0.00000000000000000e+00,0.00000000000000000e+00,0.00000000000000000e+00,0.00000000000000000e+00,0.00000000000000000e+00,0.00000000000000000e+00,0.00000000000000000e+00,0.00000000000000000e+00,0.00000000000000000e+00,0.00000000000000000e+00,0.00000000000000000e+00,0.00000000000000000e+00],"parents":[2147483647,0,0,1,1,2,2,5,5,6,6,7,7,8,8,9,9,10,10,11,11,12,12,13,13,14,14,15,15,16,16,17,17,18,18,19,19,20,20,22,22,23,23,24,24,26,26,27,27,28,28,31,31,32,32,33,33,34,34],"right_children":[2,4,6,-1,-1,8,10,12,14,16,18,20,22,24,26,28,30,32,34,36,38,-1,40,42,44,-1,46,48,50,-1,-1,52,54,56,58,-1,-1,-1,-1,-1,-1,-1,-1,-1,-1,-1,-1,-1,-1,-1,-1,-1,-1,-1,-1,-1,-1,-1,-1],"split_conditions":[1.64910000000000000e+04,1.19680000000000000e+04,7.50000000000000000e+00,6.47481828927993774e-02,1.95149496197700500e-01,2.01450000000000000e+03,8.50000000000000000e+00,3.50000000000000000e+00,6.00000000000000000e+00,2.34899997711181641e+01,2.50000000000000000e+00,5.00000000000000000e-01,4.36640000000000000e+04,2.01750000000000000e+03,4.28875000000000000e+04,4.63345000000000000e+04,4.82720000000000000e+04,8.15000000000000000e+04,5.12595000000000000e+04,2.01250000000000000e+03,7.75000000000000000e+04,5.33092990517616272e-02,4.50000000000000000e+00,4.11085000000000000e+04,2.17480000000000000e+04,2.33701243996620178e-01,1.32600000000000000e+05,4.18545000000000000e+04,6.15365000000000000e+04,-4.43983562290668488e-02,-1.04089742526412010e-02,2.71499996185302734e+01,2.01250000000000000e+03,4.77805000000000000e+04,6.08460000000000000e+04,2.31495387852191925e-02,-1.29972705617547035e-02,1.01540103554725647e-01,1.49871828034520149e-02,-2.70733181387186050e-02,3.00599113106727600e-02,8.99108201265335083e-02,3.65741625428199768e-02,3.29514034092426300e-02,1.48347288370132446e-01,1.05103380978107452e-01,-1.40457637608051300e-02,8.15806444734334946e-03,-1.45906452089548111e-02,1.95321571081876755e-02,2.73349299095571041e-03,9.96964722871780396e-02,3.06891929358243942e-02,9.11039113998413086e-03,4.87006939947605133e-02,3.27529907226562500e-02,6.55565559864044189e-02,-1.76644343882799149e-02,2.26900577545166016e-02],"split_indices":[2,2,0,0,0,1,0,0,9,6,3,0,2,1,2,2,2,2,2,1,2,0,0,2,2,0,2,2,2,0,0,6,1,2,2,0,0,0,0,0,0,0,0,0,0,0,0,0,0,0,0,0,0,0,0,0,0,0,0],"sum_hessian":[1.43000000000000000e+02,8.00000000000000000e+00,1.35000000000000000e+02,4.00000000000000000e+00,4.00000000000000000e+00,9.00000000000000000e+01,4.50000000000000000e+01,2.30000000000000000e+01,6.70000000000000000e+01,8.00000000000000000e+00,3.70000000000000000e+01,1.10000000000000000e+01,1.20000000000000000e+01,4.80000000000000000e+01,1.90000000000000000e+01,6.00000000000000000e+00,2.00000000000000000e+00,2.10000000000000000e+01,1.60000000000000000e+01,3.00000000000000000e+00,8.00000000000000000e+00,3.00000000000000000e+00,9.00000000000000000e+00,4.20000000000000000e+01,6.00000000000000000e+00,3.00000000000000000e+00,1.60000000000000000e+01,3.00000000000000000e+00,3.00000000000000000e+00,1.00000000000000000e+00,1.00000000000000000e+00,1.50000000000000000e+01,6.00000000000000000e+00,1.20000000000000000e+01,4.00000000000000000e+00,2.00000000000000000e+00,1.00000000000000000e+00,7.00000000000000000e+00,1.00000000000000000e+00,4.00000000000000000e+00,5.00000000000000000e+00,1.60000000000000000e+01,2.60000000000000000e+01,1.00000000000000000e+00,5.00000000000000000e+00,1.50000000000000000e+01,1.00000000000000000e+00,2.00000000000000000e+00,1.00000000000000000e+00,2.00000000000000000e+00,1.00000000000000000e+00,1.30000000000000000e+01,2.00000000000000000e+00,3.00000000000000000e+00,3.00000000000000000e+00,9.00000000000000000e+00,3.00000000000000000e+00,2.00000000000000000e+00,2.00000000000000000e+00],"tree_param":{"num_deleted":"0","num_feature":"12","num_nodes":"59","size_leaf_vector":"0"}},{"base_weights":[1.83856531977653503e-01,3.65782052278518677e-01,1.70465454459190369e-01,1.64028927683830261e-01,4.94378745555877686e-01,-1.56325101852416992e-01,1.74044087529182434e-01,1.85119628906250000e-01,3.98330688476562500e-02,2.15990155935287476e-01,1.38638719916343689e-01,1.56819313764572144e-01,3.99207264184951782e-01,2.16477736830711365e-01,1.12541414797306061e-01,2.60402500629425049e-01,1.00127115845680237e-01,6.45596981048583984e-02,4.19983237981796265e-01,7.80435502529144287e-02,3.79765033721923828e-01,-8.46042633056640625e-02,1.28417536616325378e-01,1.47568807005882263e-01,5.62011361122131348e-01,1.61961928009986877e-01,-7.58909657597541809e-02,-1.36162281036376953e-01,1.13080359995365143e-01,-1.25795364379882813e-01,4.69958722591400146e-01,-2.29665040969848633e-02,-1.65577650070190430e-01,-2.45237350463867188e-03,1.44492477178573608e-01],"default_left":[true,true,true,true,false,false,true,false,false,true,true,true,true,true,true,true,true,false,false,true,true,true,true,false,false,false,false,false,false,false,false,false,false,false,false],"id":11,"leaf_child_counts":[0,0,0,0,0,0,0,0,0,0,0,0,0,0,0,0,0,0,0,0,0,0,0,0,0,0,0,0,0,0,0,0,0,0,0],"left_children":[1,3,5,7,-1,-1,9,-1,-1,11,13,15,17,19,21,23,25,-1,-1,27,29,31,33,-1,-1,-1,-1,-1,-1,-1,-1,-1,-1,-1,-1],"loss_changes":[2.88456439971923828e-01,1.52410626411437988e-01,1.86254262924194336e-01,5.72301447391510010e-03,0.00000000000000000e+00,0.00000000000000000e+00,1.70546054840087891e-01,0.00000000000000000e+00,0.00000000000000000e+00,5.87863445281982422e-01,1.30022883415222168e-01,2.49927520751953125e-01,7.02226161956787109e-02,3.77243578433990479e-01,1.95529341697692871e-01,4.61570978164672852e-01,3.60580921173095703e-01,0.00000000000000000e+00,0.00000000000000000e+00,9.79532599449157715e-02,4.23905491828918457e-01,2.11523473262786865e-02,1.16059243679046631e-01,0.00000000000000000e+00,0.00000000000000000e+00,0.00000000000000000e+00,0.00000000000000000e+00,0.00000000000000000e+00,0.00000000000000000e+00,0.00000000000000000e+00,0.00000000000000000e+00,0.00000000000000000e+00,0.00000000000000000e+00,0.00000000000000000e+00,0.00000000000000000e+00],"parents":[2147483647,0,0,1,1,2,2,3,3,6,6,9,9,10,10,11,11,12,12,13,13,14,14,15,15,16,16,19,19,20,20,21,21,22,22],"right_children":[2,4,6,8,-1,-1,10,-1,-1,12,14,16,18,20,22,24,26,-1,-1,28,30,32,34,-1,-1,-1,-1,-1,-1,-1,-1,-1,-1,-1,-1],"split_conditions":[1.64910000000000000e+04,1.19680000000000000e+04,1.72000000000000000e+04,8.00000000000000000e+00,1.48313626646995544e-01,-4.68975342810153961e-02,5.50000000000000000e+00,5.55358901619911194e-02,1.19499210268259048e-02,4.50000000000000000e+00,3.72365000000000000e+04,4.14050000000000000e+04,2.01250000000000000e+03,2.11450004577636719e+01,3.87085000000000000e+04,3.92500000000000000e+04,3.50000000000000000e+00,1.93679109215736389e-02,1.25994980335235596e-01,7.50000000000000000e+00,2.01550000000000000e+03,8.50000000000000000e+00,1.83100013732910156e+01,4.42706421017646790e-02,1.68603420257568359e-01,4.85885813832283020e-02,-2.27672904729843140e-02,-4.08486872911453247e-02,3.39241102337837219e-02,-3.77386100590229034e-02,1.40987619757652283e-01,-6.88995141535997391e-03,-4.96732965111732483e-02,-7.35712063033133745e-04,4.33477461338043213e-02],"split_indices":[2,2,2,0,0,0,0,0,0,0,2,2,1,6,2,2,0,0,0,0,1,0,6,0,0,0,0,0,0,0,0,0,0,0,0],"sum_hessian":[1.43000000000000000e+02,8.00000000000000000e+00,1.35000000000000000e+02,4.00000000000000000e+00,4.00000000000000000e+00,1.00000000000000000e+00,1.34000000000000000e+02,3.00000000000000000e+00,1.00000000000000000e+00,5.90000000000000000e+01,7.50000000000000000e+01,4.60000000000000000e+01,1.30000000000000000e+01,1.70000000000000000e+01,5.80000000000000000e+01,1.50000000000000000e+01,3.10000000000000000e+01,1.00000000000000000e+00,1.20000000000000000e+01,1.00000000000000000e+01,7.00000000000000000e+00,4.00000000000000000e+00,5.40000000000000000e+01,1.20000000000000000e+01,3.00000000000000000e+00,2.30000000000000000e+01,8.00000000000000000e+00,1.00000000000000000e+00,9.00000000000000000e+00,1.00000000000000000e+00,6.00000000000000000e+00,3.00000000000000000e+00,1.00000000000000000e+00,6.00000000000000000e+00,4.80000000000000000e+01],"tree_param":{"num_deleted":"0","num_feature":"12","num_nodes":"35","size_leaf_vector":"0"}},{"base_weights":[1.33111581206321716e-01,2.80025154352188110e-01,1.22410595417022705e-01,1.28317356109619141e-01,3.75727951526641846e-01,-1.32876396179199219e-01,1.25285878777503967e-01,1.43467545509338379e-01,3.38582992553710938e-02,1.29727840423583984e-01,-5.26201725006103516e-02,8.83351452648639679e-03,1.37456238269805908e-01,1.17252945899963379e-01,-6.49183616042137146e-02,1.86359241604804993e-01,1.01895302534103394e-01,-2.10556983947753906e-02,1.70374393463134766e-01,-1.44564986228942871e-01,6.29165992140769958e-02,1.43334910273551941e-01,2.89828151464462280e-01,8.71311873197555542e-02,1.98843747377395630e-01],"default_left":[true,true,true,true,false,false,true,false,false,true,false,true,true,true,true,true,true,false,false,false,false,false,false,false,false],"id":12,"leaf_child_counts":[0,0,0,0,0,0,0,0,0,0,0,0,0,0,0,0,0,0,0,0,0,0,0,0,0],"left_children":[1,3,5,7,-1,-1,9,-1,-1,11,-1,13,15,17,19,21,23,-1,-1,-1,-1,-1,-1,-1,-1],"loss_changes":[1.92107200622558594e-01,8.24572443962097168e-02,1.16474390029907227e-01,2.29779630899429321e-03,0.00000000000000000e+00,0.00000000000000000e+00,1.13510131835937500e-01,0.00000000000000000e+00,0.00000000000000000e+00,1.22116088867187500e-01,0.00000000000000000e+00,7.95770958065986633e-02,1.96651458740234375e-01,3.29759754240512848e-02,7.01852738857269287e-02,1.85493230819702148e-01,8.85949730873107910e-02,0.00000000000000000e+00,0.00000000000000000e+00,0.00000000000000000e+00,0.00000000000000000e+00,0.00000000000000000e+00,0.00000000000000000e+00,0.00000000000000000e+00,0.00000000000000000e+00],"parents":[2147483647,0,0,1,1,2,2,3,3,6,6,9,9,11,11,12,12,13,13,14,14,15,15,16,16],"right_children":[2,4,6,8,-1,-1,10,-1,-1,12,-1,14,16,18,20,22,24,-1,-1,-1,-1,-1,-1,-1,-1],"split_conditions":[1.64910000000000000e+04,1.19680000000000000e+04,1.72000000000000000e+04,8.00000000000000000e+00,1.12718388438224792e-01,-3.98629195988178253e-02,1.25500000000000000e+05,4.30402643978595734e-02,1.01574901491403580e-02,5.00000000000000000e-01,-1.57860517501831055e-02,5.21620000000000000e+04,5.50000000000000000e+00,2.65010000000000000e+04,2.01550000000000000e+03,4.50000000000000000e+00,2.01750000000000000e+03,-6.31670979782938957e-03,5.11123202741146088e-02,-4.33694981038570404e-02,1.88749805092811584e-02,4.30004745721817017e-02,8.69484469294548035e-02,2.61393580585718155e-02,5.96531257033348083e-02],"split_indices":[2,2,2,0,0,0,2,0,0,0,0,2,0,2,1,0,1,0,0,0,0,0,0,0,0],"sum_hessian":[1.43000000000000000e+02,8.00000000000000000e+00,1.35000000000000000e+02,4.00000000000000000e+00,4.00000000000000000e+00,1.00000000000000000e+00,1.34000000000000000e+02,3.00000000000000000e+00,1.00000000000000000e+00,1.31000000000000000e+02,3.00000000000000000e+00,8.00000000000000000e+00,1.23000000000000000e+02,3.00000000000000000e+00,5.00000000000000000e+00,5.00000000000000000e+01,7.30000000000000000e+01,1.00000000000000000e+00,2.00000000000000000e+00,3.00000000000000000e+00,2.00000000000000000e+00,3.70000000000000000e+01,1.30000000000000000e+01,6.50000000000000000e+01,8.00000000000000000e+00],"tree_param":{"num_deleted":"0","num_feature":"12","num_nodes":"25","size_leaf_vector":"0"}},{"base_weights":[9.55830365419387817e-02,8.60904380679130554e-02,2.46195852756500244e-01,7.39712119102478027e-02,1.87282830476760864e-01,3.83301019668579102e-01,8.72725471854209900e-02,9.61679369211196899e-02,1.47804664447903633e-02,2.20343932509422302e-01,4.95440959930419922e-02,-1.98588371276855469e-02,1.65313079953193665e-01,1.51642933487892151e-01,6.99859037995338440e-02,5.57712130248546600e-02,-6.84327259659767151e-02,2.43769928812980652e-01,-6.95800781250000000e-03,-3.31702232360839844e-02,8.81722792983055115e-02,2.38443911075592041e-01,3.31461243331432343e-02,-1.00493587553501129e-01,8.64150598645210266e-02,9.68260392546653748e-02,1.35843567550182343e-02,9.04986038804054260e-02,-1.09268859028816223e-01,7.69376754760742188e-02,2.75860786437988281e-01,6.94668292999267578e-02,3.62151980400085449e-01,1.54184713959693909e-01,-1.91352561116218567e-01,2.76784896850585938e-02,-1.31663709878921509e-01,2.97483988106250763e-02,1.20218344032764435e-01,2.98970229923725128e-02,2.87647396326065063e-01,1.04972742497920990e-01,-3.86963412165641785e-02,-1.59342020750045776e-01,5.67638874053955078e-03,3.02232325077056885e-01,4.56299781799316406e-02],"default_left":[true,true,true,true,true,false,true,true,true,true,true,false,false,true,true,true,true,true,false,false,false,true,true,true,true,true,true,false,true,false,true,false,false,false,false,false,false,false,false,false,false,false,false,false,false,false,false],"id":13,"leaf_child_counts":[0,0,0,0,0,0,0,0,0,0,0,0,0,0,0,0,0,0,0,0,0,0,0,0,0,0,0,0,0,0,0,0,0,0,0,0,0,0,0,0,0,0,0,0,0,0,0],"left_children":[1,3,5,7,9,-1,11,13,15,17,19,-1,-1,21,23,25,27,29,-1,-1,-1,31,33,35,37,39,41,-1,43,-1,45,-1,-1,-1,-1,-1,-1,-1,-1,-1,-1,-1,-1,-1,-1,-1,-1],"loss_changes":[1.84682607650756836e-01,1.54159665107727051e-01,1.40861958265304565e-01,1.61494851112365723e-01,5.28364181518554688e-02,0.00000000000000000e+00,4.50858846306800842e-02,1.20107471942901611e-01,1.23200565576553345e-01,6.02686405181884766e-02,1.57051086425781250e-02,0.00000000000000000e+00,0.00000000000000000e+00,2.80094385147094727e-01,1.85136735439300537e-01,4.02520596981048584e-02,8.77703651785850525e-02,3.23137640953063965e-02,0.00000000000000000e+00,0.00000000000000000e+00,0.00000000000000000e+00,3.09303641319274902e-01,3.82752686738967896e-01,2.76150852441787720e-02,1.07523858547210693e-01,1.44658029079437256e-01,6.61740899085998535e-02,0.00000000000000000e+00,5.84611967206001282e-02,0.00000000000000000e+00,3.47815155982971191e-02,0.00000000000000000e+00,0.00000000000000000e+00,0.00000000000000000e+00,0.00000000000000000e+00,0.00000000000000000e+00,0.00000000000000000e+00,0.00000000000000000e+00,0.00000000000000000e+00,0.00000000000000000e+00,0.00000000000000000e+00,0.00000000000000000e+00,0.00000000000000000e+00,0.00000000000000000e+00,0.00000000000000000e+00,0.00000000000000000e+00,0.00000000000000000e+00],"parents":[2147483647,0,0,1,1,2,2,3,3,4,4,6,6,7,7,8,8,9,9,10,10,13,13,14,14,15,15,16,16,17,17,21,21,22,22,23,23,24,24,25,25,26,26,28,28,30,30],"right_children":[2,4,6,8,10,-1,12,14,16,18,20,-1,-1,22,24,26,28,30,-1,-1,-1,32,34,36,38,40,42,-1,44,-1,46,-1,-1,-1,-1,-1,-1,-1,-1,-1,-1,-1,-1,-1,-1,-1,-1],"split_conditions":[1.50000000000000000e+00,2.01750000000000000e+03,6.00000000000000000e+00,2.50000000000000000e+00,6.00000000000000000e+00,1.14990308880805969e-01,4.88390000000000000e+04,4.43875000000000000e+04,2.01550000000000000e+03,1.50000000000000000e+00,8.00000000000000000e+00,-5.95765141770243645e-03,4.95939254760742188e-02,6.50000000000000000e+00,4.74675000000000000e+04,7.50000000000000000e+00,1.15030000000000000e+04,1.32785000000000000e+04,-2.08740239031612873e-03,-9.95106715708971024e-03,2.64516845345497131e-02,3.51905000000000000e+04,2.71499996185302734e+01,3.00000000000000000e+00,4.50000000000000000e+00,6.50000000000000000e+00,3.28850000000000000e+04,2.71495822817087173e-02,9.11499938964843750e+01,2.30813026428222656e-02,8.00000000000000000e+00,2.08400487899780273e-02,1.08645595610141754e-01,4.62554171681404114e-02,-5.74057698249816895e-02,8.30354727804660797e-03,-3.94991151988506317e-02,8.92451964318752289e-03,3.60655039548873901e-02,8.96910764276981354e-03,8.62942188978195190e-02,3.14918234944343567e-02,-1.16089023649692535e-02,-4.78026084601879120e-02,1.70291669201105833e-03,9.06696990132331848e-02,1.36889936402440071e-02],"split_indices":[4,1,0,3,9,0,2,2,1,5,0,0,0,0,2,0,2,2,0,0,0,2,6,0,0,0,2,0,8,0,0,0,0,0,0,0,0,0,0,0,0,0,0,0,0,0,0],"sum_hessian":[1.43000000000000000e+02,1.36000000000000000e+02,7.00000000000000000e+00,1.23000000000000000e+02,1.30000000000000000e+01,3.00000000000000000e+00,4.00000000000000000e+00,8.90000000000000000e+01,3.40000000000000000e+01,1.00000000000000000e+01,3.00000000000000000e+00,2.00000000000000000e+00,2.00000000000000000e+00,2.70000000000000000e+01,6.20000000000000000e+01,2.30000000000000000e+01,1.10000000000000000e+01,9.00000000000000000e+00,1.00000000000000000e+00,1.00000000000000000e+00,2.00000000000000000e+00,1.50000000000000000e+01,1.20000000000000000e+01,5.00000000000000000e+00,5.70000000000000000e+01,1.10000000000000000e+01,1.20000000000000000e+01,2.00000000000000000e+00,9.00000000000000000e+00,2.00000000000000000e+00,7.00000000000000000e+00,7.00000000000000000e+00,8.00000000000000000e+00,8.00000000000000000e+00,4.00000000000000000e+00,1.00000000000000000e+00,4.00000000000000000e+00,2.20000000000000000e+01,3.50000000000000000e+01,9.00000000000000000e+00,2.00000000000000000e+00,4.00000000000000000e+00,8.00000000000000000e+00,6.00000000000000000e+00,3.00000000000000000e+00,6.00000000000000000e+00,1.00000000000000000e+00],"tree_param":{"num_deleted":"0","num_feature":"12","num_nodes":"47","size_leaf_vector":"0"}},{"base_weights":[7.05804154276847839e-02,6.29653707146644592e-02,1.92165434360504150e-01,5.36212213337421417e-02,1.41230314970016479e-01,2.97058343887329102e-01,6.98180198669433594e-02,2.05357335507869720e-02,7.96960964798927307e-02,1.65636494755744934e-01,3.88057231903076172e-02,-1.58871021121740341e-02,1.32250472903251648e-01,3.20712774991989136e-02,-1.03541091084480286e-01,1.01392176002264023e-02,1.16567783057689667e-01,1.05605550110340118e-01,2.90517181158065796e-01,-2.81949043273925781e-02,7.05375671386718750e-02,3.12967300415039063e-02,1.67078971862792969e-01,5.85959367454051971e-02,-2.59851291775703430e-02,-1.53141185641288757e-01,-1.94272994995117188e-02,-7.08135822787880898e-03,5.54323196411132813e-02,1.38054758310317993e-01,-4.61066551506519318e-02,1.49866506457328796e-01,-3.28718833625316620e-02,-3.81554588675498962e-02,9.22595635056495667e-02,8.65366458892822266e-02,-1.13404035568237305e-01,5.31275272369384766e-02,-8.22684764862060547e-02,3.93954366445541382e-02,-4.44640666246414185e-02,1.62674579769372940e-02,1.45210742950439453e-01,8.59407186508178711e-02,2.03506633639335632e-01,-5.64735420048236847e-02,2.86388397216796875e-03,-5.91421127319335938e-03,1.76815673708915710e-01,-8.70943069458007813e-02,3.77864837646484375e-02],"default_left":[true,true,true,true,true,false,true,true,true,true,true,false,true,true,true,true,true,true,false,false,false,false,false,true,true,false,true,true,true,true,true,true,true,false,false,false,false,false,false,false,false,false,false,false,false,false,false,false,false,false,false],"id":14,"leaf_child_counts":[0,0,0,0,0,0,0,0,0,0,0,0,0,0,0,0,0,0,0,0,0,0,0,0,0,0,0,0,0,0,0,0,0,0,0,0,0,0,0,0,0,0,0,0,0,0,0,0,0,0,0],"left_children":[1,3,5,7,9,-1,11,13,15,17,19,-1,21,23,25,27,29,31,-1,-1,-1,-1,-1,33,35,-1,37,39,41,43,45,47,49,-1,-1,-1,-1,-1,-1,-1,-1,-1,-1,-1,-1,-1,-1,-1,-1,-1,-1],"loss_changes":[1.21226191520690918e-01,9.26177501678466797e-02,8.19270014762878418e-02,1.05338156223297119e-01,2.85694599151611328e-02,0.00000000000000000e+00,2.88549773395061493e-02,8.34731534123420715e-02,1.75780951976776123e-01,5.17835319042205811e-02,1.04930130764842033e-02,0.00000000000000000e+00,5.31917810440063477e-03,8.15987884998321533e-02,1.78851410746574402e-02,1.98918692767620087e-02,1.63657367229461670e-01,6.00886940956115723e-02,0.00000000000000000e+00,0.00000000000000000e+00,0.00000000000000000e+00,0.00000000000000000e+00,0.00000000000000000e+00,1.20772317051887512e-01,1.77034631371498108e-01,0.00000000000000000e+00,1.80490147322416306e-02,3.47628258168697357e-02,2.22509074956178665e-02,1.18948996067047119e-01,3.20776645094156265e-03,3.04328501224517822e-02,1.47847905755043030e-02,0.00000000000000000e+00,0.00000000000000000e+00,0.00000000000000000e+00,0.00000000000000000e+00,0.00000000000000000e+00,0.00000000000000000e+00,0.00000000000000000e+00,0.00000000000000000e+00,0.00000000000000000e+00,0.00000000000000000e+00,0.00000000000000000e+00,0.00000000000000000e+00,0.00000000000000000e+00,0.00000000000000000e+00,0.00000000000000000e+00,0.00000000000000000e+00,0.00000000000000000e+00,0.00000000000000000e+00],"parents":[2147483647,0,0,1,1,2,2,3,3,4,4,6,6,7,7,8,8,9,9,10,10,12,12,13,13,14,14,15,15,16,16,17,17,23,23,24,24,26,26,27,27,28,28,29,29,30,30,31,31,32,32],"right_children":[2,4,6,8,10,-1,12,14,16,18,20,-1,22,24,26,28,30,32,-1,-1,-1,-1,-1,34,36,-1,38,40,42,44,46,48,50,-1,-1,-1,-1,-1,-1,-1,-1,-1,-1,-1,-1,-1,-1,-1,-1,-1,-1],"split_conditions":[1.50000000000000000e+00,2.01750000000000000e+03,6.00000000000000000e+00,6.00000000000000000e+00,6.00000000000000000e+00,8.91175046563148499e-02,4.88390000000000000e+04,1.50000000000000000e+00,2.01350000000000000e+03,4.01530000000000000e+04,8.00000000000000000e+00,-4.76613081991672516e-03,8.00000000000000000e+00,5.07895000000000000e+04,4.50000000000000000e+00,1.50000000000000000e+00,9.58500000000000000e+04,3.55190000000000000e+04,8.71551558375358582e-02,-8.45847185701131821e-03,2.11612712591886520e-02,9.38901957124471664e-03,5.01236952841281891e-02,2.58960000000000000e+04,2.01550000000000000e+03,-4.59423586726188660e-02,6.50000000000000000e+00,6.02580000000000000e+04,2.31199989318847656e+01,5.91225000000000000e+04,2.01650000000000000e+03,2.50000000000000000e+00,3.87085000000000000e+04,-1.14466380327939987e-02,2.76778694242238998e-02,2.59609948843717575e-02,-3.40212136507034302e-02,1.59382596611976624e-02,-2.46805436909198761e-02,1.18186315521597862e-02,-1.33392205461859703e-02,4.88023739308118820e-03,4.35632243752479553e-02,2.57822163403034210e-02,6.10519908368587494e-02,-1.69420633465051651e-02,8.59165214933454990e-04,-1.77426345180720091e-03,5.30447028577327728e-02,-2.61282939463853836e-02,1.13359456881880760e-02],"split_indices":[4,1,0,9,9,0,2,5,1,2,0,0,0,2,0,5,2,2,0,0,0,0,0,2,1,0,0,2,6,2,1,3,2,0,0,0,0,0,0,0,0,0,0,0,0,0,0,0,0,0,0],"sum_hessian":[1.43000000000000000e+02,1.36000000000000000e+02,7.00000000000000000e+00,1.23000000000000000e+02,1.30000000000000000e+01,3.00000000000000000e+00,4.00000000000000000e+00,5.50000000000000000e+01,6.80000000000000000e+01,1.00000000000000000e+01,3.00000000000000000e+00,2.00000000000000000e+00,2.00000000000000000e+00,5.10000000000000000e+01,4.00000000000000000e+00,2.40000000000000000e+01,4.40000000000000000e+01,8.00000000000000000e+00,2.00000000000000000e+00,1.00000000000000000e+00,2.00000000000000000e+00,1.00000000000000000e+00,1.00000000000000000e+00,3.50000000000000000e+01,1.60000000000000000e+01,2.00000000000000000e+00,2.00000000000000000e+00,1.80000000000000000e+01,6.00000000000000000e+00,3.90000000000000000e+01,5.00000000000000000e+00,6.00000000000000000e+00,2.00000000000000000e+00,9.00000000000000000e+00,2.60000000000000000e+01,7.00000000000000000e+00,9.00000000000000000e+00,1.00000000000000000e+00,1.00000000000000000e+00,8.00000000000000000e+00,1.00000000000000000e+01,5.00000000000000000e+00,1.00000000000000000e+00,2.30000000000000000e+01,1.60000000000000000e+01,4.00000000000000000e+00,1.00000000000000000e+00,1.00000000000000000e+00,5.00000000000000000e+00,1.00000000000000000e+00,1.00000000000000000e+00],"tree_param":{"num_deleted":"0","num_feature":"12","num_nodes":"51","size_leaf_vector":"0"}},{"base_weights":[5.18463328480720520e-02,4.55903634428977966e-02,1.52499020099639893e-01,3.81087474524974823e-02,1.08599625527858734e-01,2.30220556259155273e-01,5.98219856619834900e-02,5.47005571424961090e-02,-8.80617822986096144e-04,1.27185091376304626e-01,3.03397178649902344e-02,-1.27096176147460938e-02,1.12412929534912109e-01,1.28785133361816406e-01,4.22832481563091278e-02,1.11474394798278809e-01,-1.36960297822952271e-02,7.79772326350212097e-02,2.32413604855537415e-01,-2.39658355712890625e-02,5.64301796257495880e-02,-1.59883499145507813e-02,-3.07607650756835938e-03,2.66022682189941406e-02,1.42017126083374023e-01,6.13495223224163055e-02,4.35288429260253906e-01,6.04440197348594666e-02,-9.96296107769012451e-02,2.09283828735351563e-02,1.34680271148681641e-01,1.63968950510025024e-02,-6.58838227391242981e-02,1.26848623156547546e-01,-1.48241519927978516e-02,-1.08527660369873047e-01,1.11158639192581177e-01,-1.13457918167114258e-01,7.02157691121101379e-02,2.37397346645593643e-02,-2.59776234626770020e-01,5.62994070351123810e-02,-2.48720254749059677e-02,-1.36262346059083939e-02,-1.08729429543018341e-01,-5.02705574035644531e-03,1.54229164123535156e-01,2.95877456665039063e-02,-7.40299224853515625e-02],"default_left":[true,true,true,true,true,false,true,true,true,true,true,true,true,true,true,true,true,true,false,false,false,false,false,false,false,true,false,true,true,false,false,true,true,true,true,false,false,false,false,false,false,false,false,false,false,false,false,false,false],"id":15,"leaf_child_counts":[0,0,0,0,0,0,0,0,0,0,0,0,0,0,0,0,0,0,0,0,0,0,0,0,0,0,0,0,0,0,0,0,0,0,0,0,0,0,0,0,0,0,0,0,0,0,0,0,0],"left_children":[1,3,5,7,9,-1,11,13,15,17,19,21,23,25,27,29,31,33,-1,-1,-1,-1,-1,-1,-1,35,-1,37,39,-1,-1,41,43,45,47,-1,-1,-1,-1,-1,-1,-1,-1,-1,-1,-1,-1,-1,-1],"loss_changes":[8.37214589118957520e-02,6.04447126388549805e-02,4.38517630100250244e-02,8.02642703056335449e-02,1.65041834115982056e-02,0.00000000000000000e+00,2.05012522637844086e-02,7.45885670185089111e-02,5.62420375645160675e-02,3.88357937335968018e-02,7.01982434839010239e-03,4.55759873148053885e-05,3.84308770298957825e-03,2.21326082944869995e-01,2.01892808079719543e-01,5.58615848422050476e-03,5.60472048819065094e-02,4.26984094083309174e-02,0.00000000000000000e+00,0.00000000000000000e+00,0.00000000000000000e+00,0.00000000000000000e+00,0.00000000000000000e+00,0.00000000000000000e+00,0.00000000000000000e+00,1.05139538645744324e-01,0.00000000000000000e+00,1.23520702123641968e-01,1.83981686830520630e-01,0.00000000000000000e+00,0.00000000000000000e+00,3.92751544713973999e-02,2.76255346834659576e-02,2.24402919411659241e-02,1.27081414684653282e-02,0.00000000000000000e+00,0.00000000000000000e+00,0.00000000000000000e+00,0.00000000000000000e+00,0.00000000000000000e+00,0.00000000000000000e+00,0.00000000000000000e+00,0.00000000000000000e+00,0.00000000000000000e+00,0.00000000000000000e+00,0.00000000000000000e+00,0.00000000000000000e+00,0.00000000000000000e+00,0.00000000000000000e+00],"parents":[2147483647,0,0,1,1,2,2,3,3,4,4,6,6,7,7,8,8,9,9,10,10,11,11,12,12,13,13,14,14,15,15,16,16,17,17,25,25,27,27,28,28,31,31,32,32,33,33,34,34],"right_children":[2,4,6,8,10,-1,12,14,16,18,20,22,24,26,28,30,32,34,-1,-1,-1,-1,-1,-1,-1,36,-1,38,40,-1,-1,42,44,46,48,-1,-1,-1,-1,-1,-1,-1,-1,-1,-1,-1,-1,-1,-1],"split_conditions":[1.50000000000000000e+00,2.01750000000000000e+03,6.00000000000000000e+00,1.31050000000000000e+03,6.00000000000000000e+00,6.90661668777465820e-02,4.88390000000000000e+04,3.72365000000000000e+04,1.51805000000000000e+04,4.01530000000000000e+04,8.00000000000000000e+00,2.01550000000000000e+03,8.00000000000000000e+00,3.53905000000000000e+04,2.01650000000000000e+03,5.75300000000000000e+03,2.01550000000000000e+03,2.91680000000000000e+04,6.97240829467773438e-02,-7.18975113704800606e-03,1.69290546327829361e-02,-4.79650497436523438e-03,-9.22822975553572178e-04,7.98068102449178696e-03,4.26051393151283264e-02,2.01550000000000000e+03,1.30586534738540649e-01,3.92145000000000000e+04,2.58400001525878906e+01,6.27851532772183418e-03,4.04040813446044922e-02,7.50000000000000000e+00,4.10785000000000000e+04,2.50000000000000000e+00,1.41750000000000000e+03,-3.25582996010780334e-02,3.33475917577743530e-02,-3.40373776853084564e-02,2.10647322237491608e-02,7.12192058563232422e-03,-7.79328718781471252e-02,1.68898236006498337e-02,-7.46160792186856270e-03,-4.08787047490477562e-03,-3.26188318431377411e-02,-1.50811683852225542e-03,4.62687499821186066e-02,8.87632369995117188e-03,-2.22089774906635284e-02],"split_indices":[4,1,0,7,9,0,2,2,2,2,0,1,0,2,1,2,1,2,0,0,0,0,0,0,0,1,0,2,6,0,0,0,2,3,7,0,0,0,0,0,0,0,0,0,0,0,0,0,0],"sum_hessian":[1.43000000000000000e+02,1.36000000000000000e+02,7.00000000000000000e+00,1.23000000000000000e+02,1.30000000000000000e+01,3.00000000000000000e+00,4.00000000000000000e+00,8.60000000000000000e+01,3.70000000000000000e+01,1.00000000000000000e+01,3.00000000000000000e+00,2.00000000000000000e+00,2.00000000000000000e+00,1.10000000000000000e+01,7.50000000000000000e+01,3.00000000000000000e+00,3.40000000000000000e+01,8.00000000000000000e+00,2.00000000000000000e+00,1.00000000000000000e+00,2.00000000000000000e+00,1.00000000000000000e+00,1.00000000000000000e+00,1.00000000000000000e+00,1.00000000000000000e+00,1.00000000000000000e+01,1.00000000000000000e+00,6.70000000000000000e+01,8.00000000000000000e+00,1.00000000000000000e+00,2.00000000000000000e+00,2.20000000000000000e+01,1.20000000000000000e+01,5.00000000000000000e+00,3.00000000000000000e+00,2.00000000000000000e+00,8.00000000000000000e+00,3.00000000000000000e+00,6.40000000000000000e+01,5.00000000000000000e+00,3.00000000000000000e+00,1.10000000000000000e+01,1.10000000000000000e+01,6.00000000000000000e+00,6.00000000000000000e+00,1.00000000000000000e+00,4.00000000000000000e+00,2.00000000000000000e+00,1.00000000000000000e+00],"tree_param":{"num_deleted":"0","num_feature":"12","num_nodes":"49","size_leaf_vector":"0"}},{"base_weights":[3.83189767599105835e-02,4.71703819930553436e-02,-1.02979829534888268e-02,5.43837808072566986e-02,-2.34844293445348740e-02,-4.23271432518959045e-02,1.52422308921813965e-01,-1.93931497633457184e-02,6.35223314166069031e-02,-7.31142386794090271e-02,9.40537452697753906e-02,-2.07887589931488037e-02,-1.02784536778926849e-01,-3.18164825439453125e-02,2.24440738558769226e-01,1.72161534428596497e-02,-8.14112648367881775e-02,5.13632111251354218e-02,2.81841099262237549e-01,-1.32642388343811035e-01,-2.12430953979492188e-02,3.99942398071289063e-02,1.28116130828857422e-01,-4.07040528953075409e-02,3.11656948179006577e-02,-2.44665145874023438e-02,-1.16247415542602539e-01,-1.81738846004009247e-02,4.91629615426063538e-02,-1.09689116477966309e-01,1.58500671386718750e-02,7.24667683243751526e-02,8.35566665045917034e-04,3.15384149551391602e-01,7.38344192504882813e-02,-1.50376319885253906e-01,-3.97202968597412109e-02,6.69250497594475746e-03,-8.04605484008789063e-02,8.92114639282226563e-03,5.10702133178710938e-02,-6.85606002807617188e-02,-1.42073631286621094e-03,8.47210884094238281e-02,-3.40342521667480469e-03,-1.31075069308280945e-01,-3.58822345733642578e-02,-3.67362499237060547e-02,-4.34923171997070313e-03,9.24404487013816833e-02,-1.05021791532635689e-02,-3.13882827758789063e-02,8.91233906149864197e-02,7.17450529336929321e-02,-6.12624585628509521e-02,3.46260070800781250e-02,-8.94737243652343750e-03,-2.68105268478393555e-02,-9.31705236434936523e-02,5.83399124443531036e-02,-4.58860397338867188e-02,-1.79367065429687500e-02,7.41990422829985619e-03],"default_left":[true,true,true,true,true,true,true,true,true,true,true,true,true,false,false,true,true,true,true,true,true,true,false,true,true,false,true,true,true,false,false,true,true,false,false,false,false,true,false,false,false,true,true,false,true,false,false,false,false,false,false,false,false,false,false,false,false,false,false,false,false,false,false],"id":16,"leaf_child_counts":[0,0,0,0,0,0,0,0,0,0,0,0,0,0,0,0,0,0,0,0,0,0,0,0,0,0,0,0,0,0,0,0,0,0,0,0,0,0,0,0,0,0,0,0,0,0,0,0,0,0,0,0,0,0,0,0,0,0,0,0,0,0,0],"left_children":[1,3,5,7,9,11,13,15,17,19,21,23,25,-1,-1,27,29,31,33,35,37,39,-1,41,43,-1,45,47,49,-1,-1,51,53,-1,-1,-1,-1,55,-1,-1,-1,57,59,-1,61,-1,-1,-1,-1,-1,-1,-1,-1,-1,-1,-1,-1,-1,-1,-1,-1,-1,-1],"loss_changes":[6.24530315399169922e-02,6.34558796882629395e-02,1.26322865486145020e-01,7.60696530342102051e-02,7.68774226307868958e-02,2.39063277840614319e-02,6.02152645587921143e-02,3.09173110872507095e-02,2.48325526714324951e-01,2.49724090099334717e-02,2.24167481064796448e-03,1.78235806524753571e-02,2.42776051163673401e-03,0.00000000000000000e+00,0.00000000000000000e+00,1.10688712447881699e-02,1.54902860522270203e-02,1.01239174604415894e-01,1.15996599197387695e-02,6.18502497673034668e-04,1.04641327634453773e-02,5.76889608055353165e-04,0.00000000000000000e+00,1.30341649055480957e-02,9.54515673220157623e-03,0.00000000000000000e+00,6.32405281066894531e-05,1.12331681884825230e-03,1.38816125690937042e-02,0.00000000000000000e+00,0.00000000000000000e+00,1.18698984384536743e-01,1.32092103362083435e-01,0.00000000000000000e+00,0.00000000000000000e+00,0.00000000000000000e+00,0.00000000000000000e+00,2.49419454485177994e-03,0.00000000000000000e+00,0.00000000000000000e+00,0.00000000000000000e+00,4.69431281089782715e-03,1.86206400394439697e-02,0.00000000000000000e+00,7.62282579671591520e-04,0.00000000000000000e+00,0.00000000000000000e+00,0.00000000000000000e+00,0.00000000000000000e+00,0.00000000000000000e+00,0.00000000000000000e+00,0.00000000000000000e+00,0.00000000000000000e+00,0.00000000000000000e+00,0.00000000000000000e+00,0.00000000000000000e+00,0.00000000000000000e+00,0.00000000000000000e+00,0.00000000000000000e+00,0.00000000000000000e+00,0.00000000000000000e+00,0.00000000000000000e+00,0.00000000000000000e+00],"parents":[2147483647,0,0,1,1,2,2,3,3,4,4,5,5,6,6,7,7,8,8,9,9,10,10,11,11,12,12,15,15,16,16,17,17,18,18,19,19,20,20,21,21,23,23,24,24,26,26,27,27,28,28,31,31,32,32,37,37,41,41,42,42,44,44],"right_children":[2,4,6,8,10,12,14,16,18,20,22,24,26,-1,-1,28,30,32,34,36,38,40,-1,42,44,-1,46,48,50,-1,-1,52,54,-1,-1,-1,-1,56,-1,-1,-1,58,60,-1,62,-1,-1,-1,-1,-1,-1,-1,-1,-1,-1,-1,-1,-1,-1,-1,-1,-1,-1],"split_conditions":[7.74350000000000000e+04,1.50000000000000000e+00,1.50000000000000000e+00,2.01350000000000000e+03,6.25725000000000000e+04,2.49949989318847656e+01,2.01250000000000000e+03,6.02580000000000000e+04,6.70240000000000000e+04,4.50000000000000000e+00,2.01350000000000000e+03,2.26450004577636719e+01,8.35425000000000000e+04,-9.54494532197713852e-03,6.73322230577468872e-02,2.01250000000000000e+03,8.50000000000000000e+00,5.12230000000000000e+04,2.50000000000000000e+00,2.01550000000000000e+03,5.73220000000000000e+04,5.50000000000000000e+00,3.84348407387733459e-02,8.87799987792968750e+01,2.01550000000000000e+03,-7.33995484188199043e-03,8.00000000000000000e+00,2.65010000000000000e+04,7.50000000000000000e+00,-3.29067371785640717e-02,4.75502014160156250e-03,2.01450000000000000e+03,2.01550000000000000e+03,9.46152508258819580e-02,2.21503265202045441e-02,-4.51128967106342316e-02,-1.19160898029804230e-02,6.00000000000000000e+00,-2.41381656378507614e-02,2.67634401097893715e-03,1.53210647404193878e-02,2.01300000000000000e+03,5.50000000000000000e+00,2.54163276404142380e-02,2.01650000000000000e+03,-3.93225215375423431e-02,-1.07646705582737923e-02,-1.10208755359053612e-02,-1.30476953927427530e-03,2.77321357280015945e-02,-3.15065379254519939e-03,-9.41648520529270172e-03,2.67370175570249557e-02,2.15235166251659393e-02,-1.83787383139133453e-02,1.03878024965524673e-02,-2.68421182408928871e-03,-8.04315879940986633e-03,-2.79511585831642151e-02,1.75019744783639908e-02,-1.37658128514885902e-02,-5.38101233541965485e-03,2.22597131505608559e-03],"split_indices":[2,5,5,1,2,6,1,2,2,0,1,6,2,0,0,1,0,2,3,1,2,0,0,8,1,0,0,2,0,0,0,1,1,0,0,0,0,0,0,0,0,1,0,0,1,0,0,0,0,0,0,0,0,0,0,0,0,0,0,0,0,0,0],"sum_hessian":[1.43000000000000000e+02,1.21000000000000000e+02,2.20000000000000000e+01,1.10000000000000000e+02,1.10000000000000000e+01,1.90000000000000000e+01,3.00000000000000000e+00,1.20000000000000000e+01,9.80000000000000000e+01,8.00000000000000000e+00,3.00000000000000000e+00,1.50000000000000000e+01,4.00000000000000000e+00,1.00000000000000000e+00,2.00000000000000000e+00,8.00000000000000000e+00,4.00000000000000000e+00,9.40000000000000000e+01,4.00000000000000000e+00,3.00000000000000000e+00,5.00000000000000000e+00,2.00000000000000000e+00,1.00000000000000000e+00,1.10000000000000000e+01,4.00000000000000000e+00,1.00000000000000000e+00,3.00000000000000000e+00,4.00000000000000000e+00,4.00000000000000000e+00,3.00000000000000000e+00,1.00000000000000000e+00,6.60000000000000000e+01,2.80000000000000000e+01,3.00000000000000000e+00,1.00000000000000000e+00,2.00000000000000000e+00,1.00000000000000000e+00,4.00000000000000000e+00,1.00000000000000000e+00,1.00000000000000000e+00,1.00000000000000000e+00,6.00000000000000000e+00,5.00000000000000000e+00,1.00000000000000000e+00,3.00000000000000000e+00,2.00000000000000000e+00,1.00000000000000000e+00,1.00000000000000000e+00,3.00000000000000000e+00,2.00000000000000000e+00,2.00000000000000000e+00,9.00000000000000000e+00,5.70000000000000000e+01,1.30000000000000000e+01,1.50000000000000000e+01,1.00000000000000000e+00,3.00000000000000000e+00,3.00000000000000000e+00,3.00000000000000000e+00,2.00000000000000000e+00,3.00000000000000000e+00,1.00000000000000000e+00,2.00000000000000000e+00],"tree_param":{"num_deleted":"0","num_feature":"12","num_nodes":"63","size_leaf_vector":"0"}},{"base_weights":[2.74806115776300430e-02,2.29218024760484695e-02,1.02115154266357422e-01,6.79629482328891754e-03,3.73851582407951355e-02,1.58368110656738281e-01,3.66897583007812500e-02,-5.82313537597656250e-03,7.04228207468986511e-02,1.64710357785224915e-02,9.09383296966552734e-02,-1.65766086429357529e-02,7.77262076735496521e-02,-1.27724101766943932e-02,1.21204853057861328e-01,-2.24831905215978622e-02,9.35667380690574646e-02,-9.83647629618644714e-03,4.63289059698581696e-02,1.86560988426208496e-01,2.50983610749244690e-02,9.24324989318847656e-03,1.07346057891845703e-01,1.72755531966686249e-02,-3.92715372145175934e-02,-1.60109996795654297e-02,1.97818279266357422e-01,-5.23424148559570313e-03,-2.84905433654785156e-02,1.17048397660255432e-01,7.58727407082915306e-03,4.49603870511054993e-02,-8.07372629642486572e-02,2.57766723632812500e-01,5.77980838716030121e-03,3.31545352935791016e-01,3.32612991333007813e-02,-1.93071793764829636e-02,1.79552555084228516e-01,-8.56661200523376465e-02,5.97101747989654541e-02,3.72639670968055725e-02,-1.13188937306404114e-01,1.38404205441474915e-01,-5.54323196411132813e-03,-2.93087959289550781e-03,1.43117904663085938e-02,8.06796550750732422e-03,1.11251831054687500e-01,3.30628156661987305e-02,-1.18183568120002747e-01,3.14749240875244141e-01,4.34095859527587891e-02,5.55415153503417969e-02,-3.29430289566516876e-02,4.71673011779785156e-02,-1.11813545227050781e-02,5.19343204796314240e-02,-8.73308181762695313e-02],"default_left":[true,true,true,true,true,false,true,true,true,true,true,false,true,true,true,true,true,true,true,true,true,false,false,true,true,false,false,false,false,true,true,true,true,true,true,false,true,true,false,false,false,false,false,false,false,false,false,false,false,false,false,false,false,false,false,false,false,false,false],"id":17,"leaf_child_counts":[0,0,0,0,0,0,0,0,0,0,0,0,0,0,0,0,0,0,0,0,0,0,0,0,0,0,0,0,0,0,0,0,0,0,0,0,0,0,0,0,0,0,0,0,0,0,0,0,0,0,0,0,0,0,0,0,0,0,0],"left_children":[1,3,5,7,9,-1,11,13,15,17,19,-1,21,23,25,27,29,31,33,35,37,-1,-1,39,41,-1,-1,-1,-1,43,45,47,49,51,53,-1,55,57,-1,-1,-1,-1,-1,-1,-1,-1,-1,-1,-1,-1,-1,-1,-1,-1,-1,-1,-1,-1,-1],"loss_changes":[4.66545745730400085e-02,3.16982865333557129e-02,2.36324891448020935e-02,5.34034967422485352e-02,7.91434347629547119e-02,0.00000000000000000e+00,1.22177470475435257e-02,5.09822107851505280e-02,2.57559791207313538e-02,4.20864894986152649e-02,1.21233478188514709e-01,0.00000000000000000e+00,5.09313866496086121e-03,4.36756536364555359e-02,3.47049944102764130e-02,1.61735224537551403e-04,1.72823816537857056e-02,1.16299055516719818e-01,2.12850466370582581e-01,1.66780829429626465e-01,9.26287397742271423e-02,0.00000000000000000e+00,0.00000000000000000e+00,1.18690706789493561e-01,1.68279737234115601e-01,0.00000000000000000e+00,0.00000000000000000e+00,0.00000000000000000e+00,0.00000000000000000e+00,1.90935134887695313e-02,2.54134618444368243e-04,4.06785085797309875e-02,5.93055710196495056e-02,3.51952910423278809e-02,4.42218221724033356e-02,0.00000000000000000e+00,3.61749250441789627e-03,5.78426383435726166e-02,0.00000000000000000e+00,0.00000000000000000e+00,0.00000000000000000e+00,0.00000000000000000e+00,0.00000000000000000e+00,0.00000000000000000e+00,0.00000000000000000e+00,0.00000000000000000e+00,0.00000000000000000e+00,0.00000000000000000e+00,0.00000000000000000e+00,0.00000000000000000e+00,0.00000000000000000e+00,0.00000000000000000e+00,0.00000000000000000e+00,0.00000000000000000e+00,0.00000000000000000e+00,0.00000000000000000e+00,0.00000000000000000e+00,0.00000000000000000e+00,0.00000000000000000e+00],"parents":[2147483647,0,0,1,1,2,2,3,3,4,4,6,6,7,7,8,8,9,9,10,10,12,12,13,13,14,14,15,15,16,16,17,17,18,18,19,19,20,20,23,23,24,24,29,29,30,30,31,31,32,32,33,33,34,34,36,36,37,37],"right_children":[2,4,6,8,10,-1,12,14,16,18,20,-1,22,24,26,28,30,32,34,36,38,-1,-1,40,42,-1,-1,-1,-1,44,46,48,50,52,54,-1,56,58,-1,-1,-1,-1,-1,-1,-1,-1,-1,-1,-1,-1,-1,-1,-1,-1,-1,-1,-1,-1,-1],"split_conditions":[1.50000000000000000e+00,6.00000000000000000e+00,6.00000000000000000e+00,2.01750000000000000e+03,2.26450004577636719e+01,4.75104339420795441e-02,4.88390000000000000e+04,9.50000000000000000e+00,1.32785000000000000e+04,5.91225000000000000e+04,5.39890000000000000e+04,-4.97298268601298332e-03,8.00000000000000000e+00,4.11085000000000000e+04,2.01500000000000000e+03,5.00000000000000000e+00,2.71499996185302734e+01,4.46960000000000000e+04,6.46315000000000000e+04,5.50000000000000000e+00,1.50000000000000000e+00,2.77297501452267170e-03,3.22038196027278900e-02,2.01550000000000000e+03,2.01550000000000000e+03,-4.80329990386962891e-03,5.93454875051975250e-02,-1.57027249224483967e-03,-8.54716356843709946e-03,8.00000000000000000e+00,2.84135000000000000e+04,2.01450000000000000e+03,2.01350000000000000e+03,9.50000000000000000e+00,7.74350000000000000e+04,9.94636118412017822e-02,5.06180000000000000e+04,2.49949989318847656e+01,5.38657680153846741e-02,-2.56998371332883835e-02,1.79130528122186661e-02,1.11791901290416718e-02,-3.39566841721534729e-02,4.15212623775005341e-02,-1.66296970564872026e-03,-8.79263912793248892e-04,4.29353723302483559e-03,2.42038979195058346e-03,3.33755500614643097e-02,9.91884525865316391e-03,-3.54550704360008240e-02,9.44247767329216003e-02,1.30228763446211815e-02,1.66624560952186584e-02,-9.88290924578905106e-03,1.41501910984516144e-02,-3.35440644994378090e-03,1.55802965164184570e-02,-2.61992458254098892e-02],"split_indices":[4,9,0,1,6,0,2,0,2,2,2,0,0,2,1,0,6,2,2,0,5,0,0,1,1,0,0,0,0,0,2,1,1,0,2,0,2,6,0,0,0,0,0,0,0,0,0,0,0,0,0,0,0,0,0,0,0,0,0],"sum_hessian":[1.43000000000000000e+02,1.36000000000000000e+02,7.00000000000000000e+00,6.50000000000000000e+01,7.10000000000000000e+01,3.00000000000000000e+00,4.00000000000000000e+00,5.50000000000000000e+01,1.00000000000000000e+01,5.20000000000000000e+01,1.90000000000000000e+01,2.00000000000000000e+00,2.00000000000000000e+00,5.30000000000000000e+01,2.00000000000000000e+00,2.00000000000000000e+00,8.00000000000000000e+00,2.80000000000000000e+01,2.40000000000000000e+01,7.00000000000000000e+00,1.20000000000000000e+01,1.00000000000000000e+00,1.00000000000000000e+00,2.50000000000000000e+01,2.80000000000000000e+01,1.00000000000000000e+00,1.00000000000000000e+00,1.00000000000000000e+00,1.00000000000000000e+00,6.00000000000000000e+00,2.00000000000000000e+00,1.60000000000000000e+01,1.20000000000000000e+01,3.00000000000000000e+00,2.10000000000000000e+01,3.00000000000000000e+00,4.00000000000000000e+00,1.00000000000000000e+01,2.00000000000000000e+00,7.00000000000000000e+00,1.80000000000000000e+01,1.40000000000000000e+01,1.40000000000000000e+01,5.00000000000000000e+00,1.00000000000000000e+00,1.00000000000000000e+00,1.00000000000000000e+00,1.10000000000000000e+01,5.00000000000000000e+00,3.00000000000000000e+00,9.00000000000000000e+00,2.00000000000000000e+00,1.00000000000000000e+00,9.00000000000000000e+00,1.20000000000000000e+01,3.00000000000000000e+00,1.00000000000000000e+00,5.00000000000000000e+00,5.00000000000000000e+00],"tree_param":{"num_deleted":"0","num_feature":"12","num_nodes":"59","size_leaf_vector":"0"}},{"base_weights":[2.21020206809043884e-02,1.84914637356996536e-02,8.11700820922851563e-02,-1.42011046409606934e-02,2.52119023352861404e-02,-1.34963989257812500e-02,9.66219231486320496e-02,3.86427827179431915e-02,-8.01659524440765381e-02,1.45740911364555359e-01,1.71663928776979446e-02,-6.39533996582031250e-03,1.14857353270053864e-01,1.09873451292514801e-01,1.76148805767297745e-02,-1.05963774025440216e-01,-2.80158035457134247e-02,1.21663408353924751e-02,1.96737483143806458e-01,3.33773009479045868e-02,-1.75985600799322128e-02,-2.57301330566406250e-02,3.49221229553222656e-02,-6.48672133684158325e-02,-1.39136791229248047e-01,-1.85370445251464844e-03,-3.40929031372070313e-02,2.44305133819580078e-02,-6.18100166320800781e-03,2.15434715151786804e-01,2.53280010074377060e-02,-6.54018372297286987e-02,4.32554483413696289e-02,3.47607918083667755e-02,-1.03601455688476563e-01,6.71109333634376526e-02,-2.20916271209716797e-02,-2.45180130004882813e-02,3.47670078277587891e-01,-1.19452118873596191e-01,3.33539769053459167e-02,-8.97520184516906738e-02,2.55990978330373764e-02,9.94917154312133789e-02,-1.15385055541992188e-02],"default_left":[true,true,true,true,true,false,true,true,true,true,true,false,false,false,true,true,true,true,false,true,true,true,true,false,false,false,false,false,false,true,true,true,true,false,false,false,false,false,false,false,false,false,false,false,false],"id":18,"leaf_child_counts":[0,0,0,0,0,0,0,0,0,0,0,0,0,0,0,0,0,0,0,0,0,0,0,0,0,0,0,0,0,0,0,0,0,0,0,0,0,0,0,0,0,0,0,0,0],"left_children":[1,3,5,7,9,-1,11,13,15,17,19,-1,-1,-1,21,23,25,27,-1,29,31,33,35,-1,-1,-1,-1,-1,-1,37,39,41,43,-1,-1,-1,-1,-1,-1,-1,-1,-1,-1,-1,-1],"loss_changes":[2.92097404599189758e-02,3.04580964148044586e-02,1.30062140524387360e-02,8.67579653859138489e-02,1.08045928180217743e-01,0.00000000000000000e+00,1.38844996690750122e-02,1.90342329442501068e-02,1.18303075432777405e-02,4.52893227338790894e-02,6.14531040191650391e-02,0.00000000000000000e+00,0.00000000000000000e+00,0.00000000000000000e+00,9.90074314177036285e-03,5.17658889293670654e-04,7.31749925762414932e-04,8.26049945317208767e-04,0.00000000000000000e+00,1.02985627949237823e-01,1.04644723236560822e-01,2.24433019757270813e-02,1.79994348436594009e-02,0.00000000000000000e+00,0.00000000000000000e+00,0.00000000000000000e+00,0.00000000000000000e+00,0.00000000000000000e+00,0.00000000000000000e+00,1.03714898228645325e-01,8.76483470201492310e-02,4.66153621673583984e-02,5.04505001008510590e-02,0.00000000000000000e+00,0.00000000000000000e+00,0.00000000000000000e+00,0.00000000000000000e+00,0.00000000000000000e+00,0.00000000000000000e+00,0.00000000000000000e+00,0.00000000000000000e+00,0.00000000000000000e+00,0.00000000000000000e+00,0.00000000000000000e+00,0.00000000000000000e+00],"parents":[2147483647,0,0,1,1,2,2,3,3,4,4,6,6,7,7,8,8,9,9,10,10,14,14,15,15,16,16,17,17,19,19,20,20,21,21,22,22,29,29,30,30,31,31,32,32],"right_children":[2,4,6,8,10,-1,12,14,16,18,20,-1,-1,-1,22,24,26,28,-1,30,32,34,36,-1,-1,-1,-1,-1,-1,38,40,42,44,-1,-1,-1,-1,-1,-1,-1,-1,-1,-1,-1,-1],"split_conditions":[1.50000000000000000e+00,2.55810000000000000e+04,1.89050006866455078e+01,1.93250000000000000e+04,3.13220000000000000e+04,-4.04891977086663246e-03,2.01450000000000000e+03,2.01550000000000000e+03,7.50000000000000000e+00,3.00000000000000000e+00,7.50000000000000000e+00,-1.91860203631222248e-03,3.44572067260742188e-02,3.29620353877544403e-02,4.50000000000000000e+00,2.50710000000000000e+04,2.01350000000000000e+03,1.00000000000000000e+00,5.90212456881999969e-02,3.73315000000000000e+04,6.25720000000000000e+04,3.50000000000000000e+00,9.23999938964843750e+01,-1.94601640105247498e-02,-4.17410396039485931e-02,-5.56111335754394531e-04,-1.02278711274266243e-02,7.32915429398417473e-03,-1.85430061537772417e-03,4.00000000000000000e+00,3.87615000000000000e+04,9.50000000000000000e+00,7.34495000000000000e+04,1.04282377287745476e-02,-3.10804378241300583e-02,2.01332811266183853e-02,-6.62748841568827629e-03,-7.35540408641099930e-03,1.04301027953624725e-01,-3.58356386423110962e-02,1.00061930716037750e-02,-2.69256066530942917e-02,7.67972972244024277e-03,2.98475157469511032e-02,-3.46155185252428055e-03],"split_indices":[4,2,6,2,2,0,1,1,0,0,0,0,0,0,0,2,1,0,0,2,2,0,8,0,0,0,0,0,0,0,2,0,2,0,0,0,0,0,0,0,0,0,0,0,0],"sum_hessian":[1.43000000000000000e+02,1.36000000000000000e+02,7.00000000000000000e+00,2.30000000000000000e+01,1.13000000000000000e+02,1.00000000000000000e+00,6.00000000000000000e+00,1.30000000000000000e+01,1.00000000000000000e+01,6.00000000000000000e+00,1.07000000000000000e+02,1.00000000000000000e+00,5.00000000000000000e+00,2.00000000000000000e+00,1.10000000000000000e+01,6.00000000000000000e+00,4.00000000000000000e+00,2.00000000000000000e+00,4.00000000000000000e+00,7.30000000000000000e+01,3.40000000000000000e+01,3.00000000000000000e+00,8.00000000000000000e+00,4.00000000000000000e+00,2.00000000000000000e+00,1.00000000000000000e+00,3.00000000000000000e+00,1.00000000000000000e+00,1.00000000000000000e+00,2.00000000000000000e+00,7.10000000000000000e+01,1.90000000000000000e+01,1.50000000000000000e+01,2.00000000000000000e+00,1.00000000000000000e+00,5.00000000000000000e+00,3.00000000000000000e+00,1.00000000000000000e+00,1.00000000000000000e+00,3.00000000000000000e+00,6.80000000000000000e+01,1.50000000000000000e+01,4.00000000000000000e+00,7.00000000000000000e+00,8.00000000000000000e+00],"tree_param":{"num_deleted":"0","num_feature":"12","num_nodes":"45","size_leaf_vector":"0"}},{"base_weights":[1.63398887962102890e-02,2.14980896562337875e-02,-1.17314383387565613e-02,2.66533028334379196e-02,-2.79791355133056641e-02,-3.26730012893676758e-02,9.59092378616333008e-02,-2.06646192818880081e-02,3.25975418090820313e-02,-6.21470361948013306e-02,5.58934211730957031e-02,-1.90588999539613724e-02,-8.23646783828735352e-02,-2.03719139099121094e-02,1.41460254788398743e-01,1.27376979216933250e-02,-7.66558647155761719e-02,2.41018999367952347e-02,1.87495231628417969e-01,-1.11029148101806641e-01,-1.92011203616857529e-02,1.08151435852050781e-02,9.55641269683837891e-02,-5.13149909675121307e-02,-1.34261453058570623e-03,-8.82148742675781250e-03,-1.03938579559326172e-01,-5.04030520096421242e-03,4.99738045036792755e-02,-9.92558002471923828e-02,6.87193870544433594e-03,2.83111128956079483e-02,-7.87354707717895508e-02,3.64785194396972656e-02,2.16129779815673828e-01,-1.31505012512207031e-01,-2.48007774353027344e-02,1.16596219595521688e-03,-6.05182647705078125e-02,-5.75160980224609375e-03,2.19743251800537109e-02,-6.09182342886924744e-02,-1.64937973022460938e-03,3.15102748572826385e-02,-2.93104313313961029e-02,9.57450829446315765e-03,-2.77182254940271378e-02,6.75697326660156250e-02,7.39097595214843750e-03,2.26142536848783493e-02,1.47988438606262207e-01,2.61837005615234375e-01,3.95040512084960938e-02,1.88393592834472656e-02,-7.96222686767578125e-03,-7.69615173339843750e-03,-7.22997188568115234e-02,4.65372800827026367e-02,9.70840454101562500e-04,2.91585922241210938e-04,-3.42926979064941406e-02],"default_left":[true,true,true,true,true,true,true,true,true,true,true,true,true,false,false,true,true,true,true,true,true,true,false,true,true,false,false,true,true,false,false,true,false,false,true,false,false,true,false,false,false,true,false,true,true,false,false,false,false,false,false,false,false,false,false,false,false,false,false,false,false],"id":19,"leaf_child_counts":[0,0,0,0,0,0,0,0,0,0,0,0,0,0,0,0,0,0,0,0,0,0,0,0,0,0,0,0,0,0,0,0,0,0,0,0,0,0,0,0,0,0,0,0,0,0,0,0,0,0,0,0,0,0,0,0,0,0,0,0,0],"left_children":[1,3,5,7,9,11,13,15,17,19,21,23,25,-1,-1,27,29,31,33,35,37,39,-1,41,43,-1,-1,45,47,-1,-1,49,-1,-1,51,-1,-1,53,-1,-1,-1,55,-1,57,59,-1,-1,-1,-1,-1,-1,-1,-1,-1,-1,-1,-1,-1,-1,-1,-1],"loss_changes":[2.11030542850494385e-02,3.18637415766716003e-02,5.49794174730777740e-02,3.18944752216339111e-02,3.78625988960266113e-02,1.19603704661130905e-02,2.40687169134616852e-02,2.52895057201385498e-02,1.25760585069656372e-01,1.67617015540599823e-02,6.11960887908935547e-03,9.64589230716228485e-03,5.42956404387950897e-03,0.00000000000000000e+00,0.00000000000000000e+00,6.20973575860261917e-03,1.01206935942173004e-02,4.33512069284915924e-02,1.37373805046081543e-02,3.80097702145576477e-03,5.11961989104747772e-03,6.81002042256295681e-04,0.00000000000000000e+00,2.76122801005840302e-03,1.19494628161191940e-02,0.00000000000000000e+00,0.00000000000000000e+00,2.58542341180145741e-03,1.74844730645418167e-03,0.00000000000000000e+00,0.00000000000000000e+00,5.93775585293769836e-02,0.00000000000000000e+00,0.00000000000000000e+00,2.19486653804779053e-02,0.00000000000000000e+00,0.00000000000000000e+00,9.56633768510073423e-04,0.00000000000000000e+00,0.00000000000000000e+00,0.00000000000000000e+00,2.47230194509029388e-03,0.00000000000000000e+00,2.70831724628806114e-03,1.04239536449313164e-03,0.00000000000000000e+00,0.00000000000000000e+00,0.00000000000000000e+00,0.00000000000000000e+00,0.00000000000000000e+00,0.00000000000000000e+00,0.00000000000000000e+00,0.00000000000000000e+00,0.00000000000000000e+00,0.00000000000000000e+00,0.00000000000000000e+00,0.00000000000000000e+00,0.00000000000000000e+00,0.00000000000000000e+00,0.00000000000000000e+00,0.00000000000000000e+00],"parents":[2147483647,0,0,1,1,2,2,3,3,4,4,5,5,6,6,7,7,8,8,9,9,10,10,11,11,12,12,15,15,16,16,17,17,18,18,19,19,20,20,21,21,23,23,24,24,27,27,28,28,31,31,34,34,37,37,41,41,43,43,44,44],"right_children":[2,4,6,8,10,12,14,16,18,20,22,24,26,-1,-1,28,30,32,34,36,38,40,-1,42,44,-1,-1,46,48,-1,-1,50,-1,-1,52,-1,-1,54,-1,-1,-1,56,-1,58,60,-1,-1,-1,-1,-1,-1,-1,-1,-1,-1,-1,-1,-1,-1,-1,-1],"split_conditions":[7.74350000000000000e+04,1.50000000000000000e+00,1.50000000000000000e+00,2.01350000000000000e+03,6.25725000000000000e+04,2.58400001525878906e+01,2.01250000000000000e+03,6.02580000000000000e+04,6.70240000000000000e+04,4.50000000000000000e+00,2.01350000000000000e+03,4.50000000000000000e+00,8.35425000000000000e+04,-6.11157435923814774e-03,4.24380786716938019e-02,4.77430000000000000e+04,8.50000000000000000e+00,6.52405000000000000e+04,4.00000000000000000e+00,2.01550000000000000e+03,5.73220000000000000e+04,5.50000000000000000e+00,2.86692399531602859e-02,2.01650000000000000e+03,5.50000000000000000e+00,-2.64644622802734375e-03,-3.11815757304430008e-02,3.99645000000000000e+04,5.00000000000000000e+00,-2.97767408192157745e-02,2.06158170476555824e-03,6.39695000000000000e+04,-2.36206427216529846e-02,1.09435562044382095e-02,2.50000000000000000e+00,-3.94515059888362885e-02,-7.44023360311985016e-03,6.00000000000000000e+00,-1.81554798036813736e-02,-1.72548298723995686e-03,6.59229792654514313e-03,2.01300000000000000e+03,-4.94813953991979361e-04,2.01550000000000000e+03,8.52715000000000000e+04,2.87235248833894730e-03,-8.31546820700168610e-03,2.02709212899208069e-02,2.21729278564453125e-03,6.78427657112479210e-03,4.43965345621109009e-02,7.85511061549186707e-02,1.18512157350778580e-02,5.65180787816643715e-03,-2.38866824656724930e-03,-2.30884552001953125e-03,-2.16899160295724869e-02,1.39611847698688507e-02,2.91252159513533115e-04,8.74757824931293726e-05,-1.02878101170063019e-02],"split_indices":[2,5,5,1,2,6,1,2,2,0,1,0,2,0,0,2,0,2,0,1,2,0,0,1,0,0,0,2,0,0,0,2,0,0,3,0,0,0,0,0,0,1,0,1,2,0,0,0,0,0,0,0,0,0,0,0,0,0,0,0,0],"sum_hessian":[1.43000000000000000e+02,1.21000000000000000e+02,2.20000000000000000e+01,1.10000000000000000e+02,1.10000000000000000e+01,1.90000000000000000e+01,3.00000000000000000e+00,1.20000000000000000e+01,9.80000000000000000e+01,8.00000000000000000e+00,3.00000000000000000e+00,1.60000000000000000e+01,3.00000000000000000e+00,1.00000000000000000e+00,2.00000000000000000e+00,8.00000000000000000e+00,4.00000000000000000e+00,9.40000000000000000e+01,4.00000000000000000e+00,3.00000000000000000e+00,5.00000000000000000e+00,2.00000000000000000e+00,1.00000000000000000e+00,5.00000000000000000e+00,1.10000000000000000e+01,1.00000000000000000e+00,2.00000000000000000e+00,6.00000000000000000e+00,2.00000000000000000e+00,3.00000000000000000e+00,1.00000000000000000e+00,9.10000000000000000e+01,3.00000000000000000e+00,1.00000000000000000e+00,3.00000000000000000e+00,2.00000000000000000e+00,1.00000000000000000e+00,4.00000000000000000e+00,1.00000000000000000e+00,1.00000000000000000e+00,1.00000000000000000e+00,4.00000000000000000e+00,1.00000000000000000e+00,5.00000000000000000e+00,6.00000000000000000e+00,4.00000000000000000e+00,2.00000000000000000e+00,1.00000000000000000e+00,1.00000000000000000e+00,8.80000000000000000e+01,3.00000000000000000e+00,2.00000000000000000e+00,1.00000000000000000e+00,1.00000000000000000e+00,3.00000000000000000e+00,1.00000000000000000e+00,3.00000000000000000e+00,3.00000000000000000e+00,2.00000000000000000e+00,1.00000000000000000e+00,5.00000000000000000e+00],"tree_param":{"num_deleted":"0","num_feature":"12","num_nodes":"61","size_leaf_vector":"0"}},{"base_weights":[1.19381379336118698e-02,5.59117011725902557e-02,8.94034281373023987e-03,2.40707397460937500e-03,9.82339829206466675e-02,-4.45791967213153839e-02,1.64477750658988953e-02,4.79836463928222656e-02,-2.09829807281494141e-02,1.91874504089355469e-02,1.13198757171630859e-01,-8.49067345261573792e-02,7.01586424838751554e-04,7.34090507030487061e-02,8.23204964399337769e-03,-2.49007549136877060e-02,-4.61483001708984375e-03,-1.01639881730079651e-01,-1.75604820251464844e-02,7.55160674452781677e-02,-3.14619876444339752e-02,3.69201041758060455e-02,2.92127132415771484e-01,-1.21623896062374115e-01,1.45168304443359375e-02,-1.14791952073574066e-01,-1.13637447357177734e-02,-3.65784950554370880e-02,-3.81469726562500000e-04,7.47935548424720764e-02,-7.64619112014770508e-02,-2.74252891540527344e-03,-1.50658607482910156e-01,8.81474241614341736e-02,5.55538106709718704e-03,-6.30918741226196289e-02,-1.45461395382881165e-01,-1.15791959688067436e-02,-4.61833477020263672e-02,2.78941560536623001e-02,1.25494003295898438e-01,1.95102602243423462e-01,-8.41617584228515625e-04,-2.31196880340576172e-01,1.06976795941591263e-02],"default_left":[true,true,true,true,true,true,true,false,true,false,false,true,true,true,true,false,false,true,false,false,true,true,false,true,true,true,false,true,false,true,false,false,false,true,true,false,false,false,false,false,false,false,false,false,false],"id":20,"leaf_child_counts":[0,0,0,0,0,0,0,0,0,0,0,0,0,0,0,0,0,0,0,0,0,0,0,0,0,0,0,0,0,0,0,0,0,0,0,0,0,0,0,0,0,0,0,0,0],"left_children":[1,3,5,7,9,11,13,-1,15,-1,-1,17,19,21,23,-1,-1,25,-1,-1,27,29,-1,31,33,35,-1,37,-1,39,-1,-1,-1,41,43,-1,-1,-1,-1,-1,-1,-1,-1,-1,-1],"loss_changes":[1.84827502816915512e-02,2.01434884220361710e-02,5.53772523999214172e-02,6.33703218773007393e-03,3.74256819486618042e-03,3.11026349663734436e-02,5.55530712008476257e-02,0.00000000000000000e+00,1.41594093292951584e-04,0.00000000000000000e+00,0.00000000000000000e+00,8.35739076137542725e-03,2.40325964987277985e-02,1.08926527202129364e-01,8.82739126682281494e-02,0.00000000000000000e+00,0.00000000000000000e+00,7.00674951076507568e-03,0.00000000000000000e+00,0.00000000000000000e+00,1.09921209514141083e-03,6.58372193574905396e-02,0.00000000000000000e+00,1.68452486395835876e-02,6.68136626482009888e-02,3.36244702339172363e-04,0.00000000000000000e+00,9.05921682715415955e-04,0.00000000000000000e+00,2.26554796099662781e-02,0.00000000000000000e+00,0.00000000000000000e+00,0.00000000000000000e+00,1.04860424995422363e-01,1.14478737115859985e-01,0.00000000000000000e+00,0.00000000000000000e+00,0.00000000000000000e+00,0.00000000000000000e+00,0.00000000000000000e+00,0.00000000000000000e+00,0.00000000000000000e+00,0.00000000000000000e+00,0.00000000000000000e+00,0.00000000000000000e+00],"parents":[2147483647,0,0,1,1,2,2,3,3,4,4,5,5,6,6,8,8,11,11,12,12,13,13,14,14,17,17,20,20,21,21,23,23,24,24,25,25,27,27,29,29,33,33,34,34],"right_children":[2,4,6,8,10,12,14,-1,16,-1,-1,18,20,22,24,-1,-1,26,-1,-1,28,30,-1,32,34,36,-1,38,-1,40,-1,-1,-1,42,44,-1,-1,-1,-1,-1,-1,-1,-1,-1,-1],"split_conditions":[1.64910000000000000e+04,1.19680000000000000e+04,2.55810000000000000e+04,1.50000000000000000e+00,2.50000000000000000e+00,6.00000000000000000e+00,3.72365000000000000e+04,1.43950944766402245e-02,8.00000000000000000e+00,5.75623521581292152e-03,3.39596271514892578e-02,